
\data\
ngram 1=9951
ngram 2=59440
ngram 3=14809

\1-grams:
-2.07537	!	-1.524188
-2.504112	"	-0.2788077
-5.037502	#	-0.2082338
-3.996109	$	-0.2774675
-4.08326	%	-0.3105766
-2.822658	'	-0.1995119
-5.338532	'67	-0.2082916
-5.338532	'86	-0.2083175
-5.037502	'a	-0.3178561
-3.59817	'all	-0.4828516
-4.435442	'am	-0.4193692
-5.338532	'amour	-0.2065111
-5.338532	'and	-0.2081223
-3.958321	'aziz	-0.966368
-4.016313	'cause	-0.4065968
-4.639562	'clock	-0.2327735
-2.996109	'd	-0.5747643
-5.338532	'ere	-0.1904569
-5.338532	'hari	-0.1904569
-4.338532	'keefe	-0.2254337
-2.551781	'll	-0.7753349
-5.338532	'll--they	-0.2070988
-2.353106	'm	-0.7257693
-5.338532	'm--	-0.1973567
-5.338532	'mommy	-0.204653
-5.037502	'mon	-0.2999975
-5.338532	'n	-0.2028596
-4.560381	'neil	-0.2625616
-5.338532	'only	-0.2079827
-5.338532	'pride	-0.2051288
-5.037502	'raka	-0.1671429
-2.325695	're	-0.5734715
-5.338532	'redead	-0.1711386
-5.338532	'resayinglois	-0.2082916
-1.82705	's	-0.3364314
-5.037502	's--	-0.1480972
-5.338532	's--it	-0.2018034
-5.338532	's-eye	-0.2058706
-5.338532	'sjustbeneaththe	-0.2083175
-5.338532	'storm	-0.2058706
-2.044728	't	-0.5663447
-5.338532	't--	-0.2066571
-5.037502	'the	-0.2082677
-5.338532	'un	-0.1994638
-2.647451	've	-0.7430051
-5.338532	'you	-0.2083016
-2.381884	(	-0.5331369
-2.381404	)	-1.033487
-4.736472	*	-0.2585164
-1.394741	,	-0.4958419
-1.911046	-	-0.4407358
-5.338532	--	-0.2083155
-5.338532	---	-0.1526834
-5.338532	---tied---	-0.2082836
-5.338532	--try	-0.2078392
-5.338532	-3711	-0.1973567
-5.338532	-5-oscar-hotel	-0.1711386
-5.338532	-50-50	-0.1994638
-5.338532	-8	-0.1711386
-5.338532	-834-5571	-0.1711386
-5.338532	-after	-0.1994841
-5.338532	-as	-0.2074182
-5.338532	-backslash	-0.1711386
-5.338532	-can	-0.2049382
-5.338532	-connor	-0.1711386
-5.338532	-dad	-0.204653
-5.338532	-dave	-0.1994638
-5.338532	-deactivation	-0.2082737
-5.338532	-did	-0.1955266
-5.338532	-director	-0.1711386
-5.338532	-echelon	-0.2082398
-5.338532	-echo	-0.1711386
-5.338532	-find	-0.2082936
-5.338532	-for	-0.2081183
-5.338532	-foxtrot	-0.1711386
-5.338532	-fuck	-0.1955266
-5.338532	-got	-0.202795
-5.338532	-hello	-0.1904569
-5.037502	-hey	-0.2999975
-5.338532	-hold	-0.202795
-5.338532	-i	-0.2066051
-5.338532	-identify	-0.2082
-5.338532	-if	-0.1955266
-5.037502	-in	-0.3090247
-5.338532	-is	-0.2063811
-4.639562	-it	-0.6792694
-5.338532	-just	-0.2080963
-5.338532	-kid	-0.2018034
-5.338532	-lynne	-0.204653
-5.338532	-maggie	-0.204653
-5.338532	-mcmillan	-0.1711386
-5.338532	-mr	-0.1711386
-5.338532	-negative	-0.1711386
-5.037502	-no	-0.151643
-5.338532	-norad	-0.2083095
-5.338532	-okay	-0.1711386
-5.338532	-oscar	-0.2083155
-5.338532	-patty	-0.2018034
-5.338532	-seatbelt	-0.2018034
-5.338532	-shift	-0.2082777
-5.338532	-sir	-0.1711386
-5.338532	-they	-0.206263
-5.338532	-very	-0.2083075
-5.338532	-victor	-0.1711386
-5.338532	-we	-0.206263
-5.037502	-what	-0.1967025
-5.338532	-when	-0.2049382
-5.338532	-whoa	-0.1904569
-5.338532	-yeah	-0.1711386
-4.861411	-yes	-0.2511024
-1.085922	.	-1.852604
-2.657291	..	-0.5286356
-2.142356	...	-0.6521578
-5.037502	....	-0.2075061
-4.861411	.1	-0.482356
-4.861411	.65	-0.2406313
-5.338532	.8	-0.2081063
-4.560381	/	-0.4811401
-5.037502	0-2-0	-0.2806792
-3.958321	00	-0.4049284
-5.338532	01	-0.1711386
-5.338532	0200	-0.2082358
-5.338532	0h	-0.1711386
-4.560381	0l	-0.9507969
-3.820018	1	-0.4501849
-4.861411	1,000	-0.1904424
-5.338532	1,700	-0.2076238
-5.338532	1,848	-0.1711386
-5.037502	1-a	-0.1710952
-5.338532	1.99	-0.2083135
-3.705064	10	-0.2740327
-4.861411	10,000	-0.2409939
-5.338532	10-10	-0.1711386
-5.338532	10-2	-0.1904569
-4.861411	10-20	-0.1579829
-5.338532	10-8	-0.2075021
-5.338532	10-year-old	-0.2042873
-4.08326	100	-0.2626834
-5.037502	100,000	-0.3176449
-5.338532	10200	-0.1711386
-5.338532	104	-0.1711386
-4.736472	109	-0.2474018
-5.037502	10k	-0.3178561
-4.861411	10th	-0.2049603
-4.224589	11	-0.2334592
-5.037502	110,000	-0.3124002
-5.338532	11130	-0.1711386
-4.861411	1150	-0.2671254
-5.338532	116	-0.1711386
-4.38429	12	-0.169284
-5.338532	12,000,000	-0.2082737
-5.338532	120	-0.204653
-5.338532	124	-0.2081043
-4.38429	13	-0.3112241
-5.338532	130	-0.2082836
-5.037502	135,000	-0.1972484
-4.639562	14	-0.2066032
-5.338532	14th	-0.1904569
-4.338532	15	-0.3431622
-5.037502	15,000	-0.3167752
-4.861411	150	-0.1903448
-5.338532	15th	-0.1711386
-5.338532	16	-0.1711386
-5.338532	1642	-0.1904569
-4.639562	166	-0.2427533
-4.38429	17	-0.3525344
-5.037502	17,000	-0.3178362
-5.338532	170	-0.1711386
-4.639562	172	-0.3133487
-5.338532	17k	-0.1711386
-5.037502	17th	-0.1681906
-4.736472	18	-0.1624575
-5.037502	18,000	-0.3176449
-5.338532	18-year-old	-0.2083135
-5.338532	180	-0.2083055
-5.338532	1812	-0.205179
-4.861411	185	-0.1999778
-5.037502	1858	-0.1994597
-5.338532	1861	-0.1994638
-4.560381	19	-0.2367066
-5.037502	1910	-0.2806792
-5.338532	1948	-0.207885
-5.338532	1952	-0.1526834
-5.338532	1980s	-0.1711386
-5.037502	1983	-0.151643
-5.338532	1989	-0.1711386
-5.338532	1989,	-0.1526834
-5.338532	1994	-0.2017043
-5.037502	1st	-0.1711364
-3.833382	2	-0.4392219
-4.560381	2,000	-0.481166
-5.338532	2-a	-0.2081482
-5.338532	2.2	-0.2083155
-3.876134	20	-0.2842793
-5.037502	20,000	-0.3178402
-4.639562	200	-0.1997149
-5.338532	2013	-0.2069569
-5.338532	2015	-0.1711386
-5.037502	2016	-0.2806792
-5.338532	2017	-0.1711386
-5.338532	207	-0.1711386
-5.338532	2077	-0.1711386
-4.639562	21	-0.2754706
-4.861411	212	-0.2410004
-4.560381	22	-0.2013055
-5.037502	23	-0.1902327
-5.338532	230	-0.2083016
-4.435442	24	-0.3934999
-5.338532	24-hour	-0.2083175
-4.861411	25	-0.240996
-5.037502	250	-0.1681906
-5.338532	254-41	-0.2083175
-5.338532	254-41-834-5571	-0.1711386
-4.736472	26	-0.1683675
-4.639562	27	-0.2421084
-5.338532	273	-0.2072346
-5.338532	274436	-0.1994638
-4.736472	28	-0.1690854
-5.338532	28,500	-0.2082936
-5.338532	284	-0.2082657
-5.338532	29th	-0.1711386
-5.037502	2o	-0.20553
-5.338532	2st	-0.2080764
-4.016313	3	-0.184922
-4.560381	3,000	-0.9514129
-5.338532	3,2,1	-0.205179
-5.338532	3-day	-0.2081183
-5.338532	3-pronged	-0.2083175
-4.108083	30	-0.3820628
-5.037502	30,000	-0.2806792
-5.338532	30-years-old	-0.1711386
-4.861411	300	-0.2078611
-5.037502	3000	-0.3178342
-5.037502	309	-0.2806792
-5.338532	30s	-0.2056001
-4.736472	31	-0.1641367
-5.338532	318	-0.1994638
-5.338532	31st	-0.1904569
-5.037502	32	-0.1994617
-5.338532	325	-0.1711386
-4.736472	33	-0.3977539
-4.861411	35	-0.1516407
-5.037502	360	-0.2806792
-4.560381	37	-0.3309954
-4.639562	38	-0.5275434
-5.037502	380	-0.3178541
-5.338532	381	-0.2082697
-5.037502	38th	-0.3178222
-5.338532	3rd	-0.1711386
-5.338532	3s	-0.205169
-4.29714	4	-0.2247152
-5.338532	4,000	-0.1711386
-5.338532	4.98	-0.1711386
-4.259351	40	-0.2787205
-5.338532	400	-0.1711386
-5.338532	4163	-0.1711386
-5.037502	418	-0.2045225
-5.037502	42	-0.1710344
-5.338532	43	-0.1994638
-5.338532	44	-0.1711386
-5.338532	44.17	-0.1904569
-4.736472	45	-0.2224318
-5.338532	47	-0.1711386
-4.560381	48	-0.3692826
-5.338532	486	-0.1711386
-4.259351	49	-0.5887063
-4.861411	4am	-0.4483156
-4.134412	5	-0.3280517
-5.037502	5,000	-0.1614824
-5.338532	5-oscar-hotel	-0.1711386
-5.338532	5.4	-0.2083115
-5.338532	5.99	-0.2083135
-4.162441	50	-0.255469
-4.639562	50,000	-0.2294081
-4.639562	50-50	-0.373237
-5.338532	50-click	-0.208194
-5.338532	50-yard	-0.2082557
-4.192404	500	-0.2649874
-5.037502	50s	-0.2806792
-5.338532	51	-0.2081043
-4.736472	52	-0.3057989
-5.338532	5305	-0.2083175
-5.037502	55	-0.1962584
-5.338532	56	-0.2082836
-4.338532	6	-0.3433876
-5.338532	6-0-2-8	-0.205179
-4.162441	60	-0.2738036
-5.338532	60,000	-0.1994638
-5.338532	60,850	-0.1711386
-5.338532	60--	-0.2083175
-5.338532	60-40	-0.1711386
-5.037502	600	-0.2028233
-5.338532	61	-0.2067411
-5.338532	61,000,	-0.1526834
-5.037502	62	-0.3178242
-5.338532	65	-0.1711386
-5.338532	650,000	-0.1711386
-5.338532	6510	-0.1711386
-4.861411	67	-0.1902597
-5.338532	68	-0.2083175
-4.259351	7	-0.2614969
-5.037502	7,000	-0.2048057
-5.338532	7-a	-0.2082996
-5.338532	7.62	-0.2080106
-5.338532	70,000	-0.1904569
-5.037502	719	-0.1901808
-5.338532	72	-0.2082358
-5.338532	73	-0.2083175
-5.338532	73yearold	-0.2083135
-5.037502	75	-0.1904196
-5.338532	750	-0.206149
-5.338532	750,000	-0.1904569
-4.861411	764	-0.2409874
-4.861411	78	-0.4854886
-4.224589	8	-0.340524
-4.861411	80	-0.1516022
-5.338532	80-90	-0.2081043
-4.736472	800	-0.241735
-5.338532	850	-0.1526834
-5.037502	88	-0.1710908
-5.338532	892	-0.2056141
-5.338532	8s	-0.1711386
-4.29714	9	-0.3458543
-5.338532	9,000	-0.1711386
-4.861411	9-9-9	-0.4483156
-5.338532	9.38	-0.207909
-4.493434	90	-0.3019941
-4.435442	900	-0.4340484
-5.338532	911	-0.205179
-5.037502	941	-0.3147196
-4.861411	95	-0.2077913
-5.037502	950	-0.3156896
-5.338532	9th	-0.1711386
-2.876134	:	-0.9840159
-4.736472	;	-0.3423328
-0.9199492	</s>
-99	<s>	-0.7536205
-5.340166	<unk>
-1.694981	?	-1.943707
-3.201812	[	-0.3187774
-3.198653	]	-1.353569
-1.903325	a	-0.3839396
-5.338532	a--	-0.2077694
-5.338532	a-4	-0.1711386
-5.338532	a-6	-0.1711386
-5.338532	a-ago	-0.1711386
-5.338532	a-rarin	-0.2076657
-5.037502	a.	-0.262224
-5.338532	a.d.f.	-0.2082199
-5.338532	a.f.r.h.	-0.2068051
-4.435442	a.m.	-0.1973703
-4.861411	a1	-0.240983
-5.338532	a13	-0.2083175
-5.037502	a14	-0.1904071
-5.338532	aah	-0.204653
-5.338532	aahhhh	-0.204653
-5.338532	aargh	-0.1904569
-5.338532	aaron	-0.1711386
-4.493434	aasim	-0.2102229
-4.639562	abandoned	-0.2010868
-4.338532	abdi	-0.3646709
-4.861411	abdikarim	-0.1607897
-5.037502	abel	-0.1710344
-4.08326	abhimanyu	-0.2603264
-5.037502	abigail	-0.1711299
-5.037502	abilities	-0.151643
-4.08326	able	-1.4192
-4.861411	aboard	-0.2403924
-5.037502	abode	-0.1681906
-5.338532	abondoned	-0.2054658
-4.639562	abort	-0.1923229
-2.611805	about	-0.4586497
-5.338532	about--	-0.2067071
-4.736472	above	-0.1614869
-5.338532	abroad	-0.1711386
-5.338532	absence	-0.2056141
-5.338532	absent	-0.2076477
-5.338532	absolute	-0.2083115
-4.259351	absolutely	-0.2400914
-5.338532	absurd	-0.2083075
-5.338532	abundantly	-0.2082318
-5.338532	abuse	-0.1711386
-5.338532	abuses	-0.2051288
-5.037502	accelerated	-0.2042149
-4.736472	accelerating	-0.2204853
-5.338532	acceleration	-0.2083115
-5.037502	accent	-0.1691682
-5.338532	accent--	-0.2074222
-4.338532	accept	-0.2376796
-5.338532	acceptable	-0.2017043
-5.338532	acceptance	-0.2083016
-5.338532	accepted	-0.1711386
-4.560381	access	-0.2568749
-5.037502	accessed	-0.3090247
-4.259351	accident	-0.3418161
-4.861411	accidentally	-0.2781806
-4.861411	accidently	-0.2076657
-5.037502	accommodating	-0.1571837
-4.736472	accompany	-0.2438698
-5.338532	accomplice	-0.2017043
-5.037502	accomplish	-0.3178501
-5.037502	accomplishing	-0.3178501
-5.037502	according	-0.3112449
-5.037502	accordingly	-0.151643
-4.736472	account	-0.2104657
-4.736472	accounted	-0.7287744
-5.338532	accurate	-0.204653
-5.338532	accused	-0.2051288
-5.037502	ace	-0.3154112
-5.338532	ache	-0.206149
-5.338532	achieve	-0.1904569
-4.861411	achieved	-0.240425
-5.338532	achievements	-0.204653
-5.338532	acknowledge	-0.1711386
-5.037502	acknowledging	-0.2033494
-4.861411	acquaintance	-0.2393132
-5.338532	acquainted	-0.1711386
-5.338532	acquiescence	-0.204653
-5.037502	acquired	-0.1705393
-5.037502	acquitted	-0.2073244
-5.037502	acres	-0.204428
-4.134412	across	-0.3938584
-4.224589	act	-0.3306624
-5.037502	actin	-0.2063011
-4.435442	acting	-0.2551866
-4.493434	action	-0.204414
-5.037502	actions	-0.1667441
-5.338532	activate	-0.2083055
-5.037502	activated	-0.2806792
-5.037502	active	-0.2806792
-5.338532	activist	-0.1711386
-4.639562	activity	-0.2080745
-5.338532	acts	-0.1904569
-4.861411	actual	-0.2081003
-3.657291	actually	-0.3387457
-5.338532	acumen	-0.1904569
-4.736472	ad	-0.2127772
-4.736472	adam	-0.1956066
-4.861411	adapt	-0.1886934
-5.338532	adapted	-0.2017043
-5.338532	adapting	-0.2017043
-4.639562	add	-0.1812551
-4.861411	addicted	-0.4788813
-4.736472	addiction	-0.2122554
-5.037502	addition	-0.3112449
-4.861411	additional	-0.2082538
-4.338532	address	-0.2586151
-5.338532	addressed	-0.2017043
-4.861411	addresses	-0.1502223
-5.338532	adeline	-0.1711386
-5.037502	adjust	-0.206215
-5.037502	administration	-0.2082418
-5.338532	administrators	-0.1711386
-5.338532	admiral	-0.2083175
-5.037502	admire	-0.1933611
-5.338532	admired	-0.205169
-5.338532	admission	-0.1711386
-4.736472	admit	-0.132644
-5.338532	admitting	-0.2056442
-4.861411	adopted	-0.2511024
-5.338532	adorable	-0.2083175
-5.338532	adoration	-0.2076657
-5.338532	adore	-0.2076757
-5.037502	adrenaline	-0.2035589
-4.861411	adrift	-0.2570611
-4.861411	adult	-0.1666652
-5.338532	adults	-0.2042873
-4.861411	advance	-0.1875352
-4.861411	advanced	-0.2082936
-4.493434	advantage	-0.5678735
-5.037502	adventure	-0.1571837
-5.338532	adventures	-0.2069949
-5.338532	adversary	-0.2077215
-4.861411	advertising	-0.2781487
-5.037502	advertorial	-0.1614824
-4.224589	advice	-0.2983792
-5.338532	advise	-0.2076757
-4.861411	advised	-0.254576
-5.338532	advisor	-0.1711386
-5.338532	advisors	-0.2042873
-5.037502	advocate	-0.1706522
-5.338532	ae	-0.1904569
-5.338532	aerated	-0.2083175
-5.037502	aerial	-0.2083056
-5.338532	aerodynamics	-0.2017043
-5.338532	aesthetic	-0.1711386
-5.037502	affair	-0.2806792
-4.560381	affairs	-0.2177705
-5.037502	affect	-0.198827
-5.338532	affected	-0.2076757
-5.338532	affectionate	-0.2083115
-5.338532	affirmative	-0.1711386
-4.29714	afford	-0.2032767
-5.037502	afghanistan	-0.1812254
-5.338532	afield	-0.1711386
-3.996109	afraid	-0.3485016
-5.338532	afrh	-0.2068051
-4.861411	africa	-0.22152
-3.342897	after	-0.5019838
-4.338532	afternoon	-0.5493635
-5.037502	aftershave	-0.3090044
-5.338532	afterwards	-0.1994638
-3.270346	again	-0.7975479
-4.016313	against	-0.2430494
-4.259351	age	-0.1584144
-5.338532	age14sized	-0.2083175
-4.435442	agency	-0.1932518
-4.29714	agent	-0.176324
-5.338532	agent-in-charge	-0.2083095
-4.861411	agents	-0.1705045
-4.861411	ages	-0.2602592
-5.037502	aggravating	-0.2806792
-4.736472	aggressive	-0.2224361
-5.338532	aggy	-0.2018034
-5.037502	agh	-0.2806792
-5.338532	agm	-0.1711386
-3.657291	ago	-0.6934767
-4.134412	agree	-0.3479411
-4.29714	agreed	-0.2493856
-5.338532	agreement	-0.2072565
-5.338532	agriculture	-0.2028596
-3.747468	ah	-0.6826854
-5.338532	ah-	-0.1711386
-5.037502	ah-ah	-0.1491006
-4.134412	ahead	-0.4129024
-4.560381	ahh	-0.2732294
-5.338532	ahh-ite	-0.1994638
-5.338532	ahhh	-0.204653
-5.338532	ahomefarbeyondtheskies	-0.1526834
-5.037502	ai	-0.1836651
-4.736472	aid	-0.2189721
-5.338532	aide-memoire	-0.1904569
-5.338532	aids	-0.1711386
-5.037502	aig	-0.208194
-4.861411	aim	-0.2685065
-5.338532	aimed	-0.2070728
-3.338532	ain	-2.000386
-3.847171	air	-0.3218334
-5.338532	airborne	-0.2082378
-5.338532	aircom	-0.2018034
-4.639562	aircraft	-0.6486045
-4.861411	airlock	-0.1606163
-5.037502	airplane	-0.3178442
-5.037502	airport	-0.1677163
-4.861411	airspace	-0.4483156
-5.338532	airwaves	-0.1904569
-4.861411	aisle	-0.4483156
-5.037502	aka	-0.2083036
-4.861411	al	-0.1832749
-5.037502	al-fresco	-0.2083115
-5.338532	al-hariri	-0.2056141
-4.560381	alabama	-0.2608973
-4.560381	alaikum	-0.4896983
-4.192404	alarm	-0.2284148
-4.861411	albanian	-0.273929
-5.037502	albanians	-0.2066911
-5.037502	alcohol	-0.151643
-5.338532	alcoholics	-0.2083175
-5.037502	alert	-0.1904445
-5.338532	alerted	-0.1711386
-5.037502	alex	-0.1614824
-4.736472	alexa	-0.2023101
-5.338532	alexander	-0.2017043
-5.338532	algiers	-0.2083155
-4.639562	ali	-0.6857755
-5.338532	alibis	-0.206149
-5.037502	alice	-0.2806792
-4.259351	alien	-0.2934594
-5.338532	alienated	-0.2076477
-4.861411	aliens	-0.1516044
-5.338532	aligned	-0.2069849
-5.338532	alison	-0.1711386
-3.666434	alive	-0.6476517
-2.440356	all	-0.424616
-5.338532	all-consuming	-0.1711386
-5.338532	all-out	-0.2082657
-5.338532	allan	-0.2083175
-5.037502	allegiance	-0.1639271
-4.435442	allow	-0.2336987
-4.861411	allows	-0.2746767
-4.861411	almighty	-0.1708586
-3.891374	almost	-0.2710645
-3.69508	alone	-0.4712259
-3.976804	along	-0.307888
-5.338532	alongside	-0.1711386
-4.560381	alpha	-0.3071778
-3.996109	alphonse	-0.4254418
-3.622529	already	-0.2155192
-3.976804	alright	-0.5196405
-4.037502	also	-0.2061482
-5.338532	altering	-0.2083155
-5.338532	alternative	-0.2082657
-4.38429	although	-0.2485911
-5.338532	altitude	-0.204653
-5.338532	altitudes	-0.1711386
-5.338532	altogether	-0.1904569
-3.297139	always	-0.2415377
-5.338532	alz-1	-0.2083016
-5.037502	alzheimer	-0.311344
-3.234729	am	-0.3621737
-5.037502	amateur	-0.2806792
-5.338532	amazed	-0.1711386
-4.224589	amazing	-0.3411185
-4.560381	amber	-0.3122583
-5.037502	ambiance	-0.1681906
-5.037502	ambition	-0.2999975
-5.037502	ambitious	-0.169654
-4.639562	ambulance	-0.2454731
-5.338532	ambush	-0.1711386
-5.338532	ambushed	-0.2054658
-4.560381	amelia	-0.3468007
-4.134412	amen	-0.3015072
-5.338532	amenable	-0.2017043
-4.29714	america	-0.2954115
-4.224589	american	-0.2375502
-5.338532	americana	-0.205169
-5.037502	americans	-0.2058766
-5.338532	ames	-0.1904569
-5.338532	ammo	-0.204653
-4.861411	ammonia	-0.1711125
-4.736472	amnesia	-0.2123643
-5.338532	amnesty	-0.1904569
-5.338532	amobarbital	-0.1711386
-4.736472	among	-0.2500327
-4.736472	amongst	-0.7221096
-4.736472	amount	-0.3767834
-5.338532	amounts	-0.2051288
-5.338532	amy	-0.2083155
-2.865776	an	-0.3802803
-5.338532	an--an	-0.2083135
-5.037502	analogy	-0.151643
-5.037502	analysis	-0.2051268
-5.338532	analyst	-0.1904569
-5.037502	analyze	-0.1812466
-5.338532	ancestors	-0.2076637
-5.037502	anchorman	-0.1972484
-4.736472	ancient	-0.2224448
-2.140976	and	-0.2719051
-5.338532	and-	-0.1973567
-4.861411	and--	-0.2189776
-4.861411	andras	-0.1982627
-4.29714	andrew	-0.3236005
-5.338532	andrews	-0.1904569
-5.338532	andrex	-0.1711386
-4.861411	andy	-0.22152
-4.560381	anemia	-0.5091808
-5.338532	anew	-0.1711386
-3.940592	angel	-0.7210402
-5.338532	angena	-0.1994638
-5.037502	anger	-0.2806792
-4.861411	angle	-0.1873931
-5.338532	angola	-0.1711386
-5.338532	angriest	-0.2082836
-4.259351	angry	-0.4111221
-5.037502	animal	-0.1614824
-4.861411	animals	-0.2370199
-5.338532	ann	-0.1904569
-5.338532	anne	-0.2076477
-4.493434	announcer	-0.303302
-5.338532	announcing	-0.2058706
-5.338532	annoy	-0.2054658
-5.338532	annoyance	-0.2065111
-5.338532	annoyed	-0.1711386
-5.338532	annoys	-0.2054658
-5.338532	annual	-0.2083175
-4.861411	anomalies	-0.1903531
-5.338532	anomalous	-0.2082896
-4.560381	anomaly	-0.2707633
-5.338532	anonymous	-0.1711386
-3.440905	another	-0.2682702
-3.820018	answer	-0.2474195
-4.861411	answered	-0.1686186
-4.861411	answering	-0.1591622
-4.736472	answers	-0.1776319
-5.338532	antenna	-0.1711386
-5.338532	antennae	-0.1711386
-5.338532	anterograde	-0.2083115
-5.338532	anti-aircraft	-0.1711386
-5.338532	antibiotics	-0.1711386
-5.338532	anticipated	-0.1711386
-5.338532	antidepressants	-0.1711386
-5.338532	antique	-0.2083175
-5.037502	anxious	-0.2999975
-3.195517	any	-0.3120722
-4.059779	anybody	-0.1795089
-3.833382	anymore	-1.02279
-3.630962	anyone	-0.3094062
-3.297139	anything	-0.3757325
-5.037502	anytime	-0.1710539
-3.923559	anyway	-1.140439
-5.338532	anyway--	-0.206889
-4.29714	anywhere	-0.3009627
-4.861411	apart	-0.2402837
-4.560381	apartment	-0.1901802
-4.037502	ape	-0.4271757
-5.338532	ape-hanger	-0.2083175
-4.08326	apes	-0.1530236
-5.338532	apiece	-0.1711386
-5.037502	apollo	-0.2083016
-5.338532	apologetic	-0.1711386
-4.736472	apologies	-0.3535787
-4.639562	apologise	-0.191123
-4.639562	apologize	-0.250632
-5.037502	apparent	-0.1711082
-4.560381	apparently	-0.2302153
-4.861411	appeal	-0.4788813
-4.639562	appear	-0.5549245
-5.037502	appeared	-0.2081123
-4.861411	appears	-0.4788813
-5.338532	appellate	-0.2083095
-5.037502	applauding	-0.3160518
-4.736472	applause	-0.7291366
-5.037502	apple	-0.2806792
-5.338532	application	-0.206149
-5.338532	applied	-0.206149
-4.38429	appointment	-0.3095303
-4.162441	appreciate	-0.6286334
-5.338532	appreciated	-0.1711386
-5.037502	appreciation	-0.1676616
-5.338532	appreciative	-0.2051288
-5.037502	apprehend	-0.2081482
-4.560381	approach	-0.1925272
-5.338532	approaches	-0.2065111
-4.037502	approaching	-0.4516765
-5.338532	appropriate	-0.1711386
-4.861411	approval	-0.1681884
-5.338532	approve	-0.2051288
-5.338532	approximately	-0.2082538
-4.560381	april	-0.2143185
-5.338532	aquarium	-0.2083175
-5.338532	ar	-0.2083175
-4.861411	arab	-0.2408854
-5.037502	arashikage	-0.2082996
-5.338532	arazorblade	-0.1711386
-4.639562	arch	-0.2925699
-5.338532	arch-angel	-0.1904569
-5.338532	architect	-0.1526834
-5.338532	archival	-0.2083155
-5.037502	arctic	-0.3178561
-2.417887	are	-0.4405614
-5.338532	are--	-0.1526834
-4.38429	area	-0.346825
-5.338532	areas	-0.1711386
-3.78223	aren	-1.564266
-5.338532	argh	-0.204653
-5.338532	argue	-0.2069849
-5.338532	arguing	-0.2082458
-5.037502	argument	-0.1890662
-4.224589	aris	-0.3839013
-5.338532	arise	-0.204653
-5.338532	arithmetic	-0.2056141
-5.338532	arkansas	-0.1526834
-5.338532	arlington	-0.1711386
-3.996109	arm	-0.1784579
-5.037502	armadillo	-0.3090044
-5.338532	armageddon	-0.1904569
-4.861411	armed	-0.1656753
-5.338532	armies	-0.1711386
-5.037502	armor	-0.2999975
-5.037502	armory	-0.151643
-5.338532	armour	-0.2083155
-4.560381	arms	-0.2174947
-5.338532	armstrong	-0.1994638
-4.493434	army	-0.1828479
-5.338532	aroma	-0.2051288
-3.360809	around	-0.3309035
-5.338532	arrange	-0.202795
-4.861411	arranged	-0.1708976
-5.338532	arranging	-0.1904569
-4.435442	arrest	-0.280194
-4.38429	arrested	-0.3103404
-5.037502	arrival	-0.2806792
-4.861411	arrivals	-0.169312
-4.639562	arrive	-0.1992105
-4.192404	arrived	-0.3611162
-5.338532	arrives	-0.1711386
-5.037502	arriving	-0.1651873
-5.338532	arrogance	-0.205179
-4.493434	arse	-0.2058604
-5.338532	arse-crack	-0.2082896
-4.639562	arsehole	-0.3019149
-4.639562	arseholes	-0.2327735
-4.639562	arsenal	-0.2394662
-5.338532	arses	-0.1711386
-4.29714	art	-0.2129394
-5.338532	artichoke	-0.2083155
-5.338532	article	-0.1711386
-5.338532	artifact	-0.2051288
-5.338532	artificial	-0.2083115
-5.338532	artillery	-0.1904569
-5.338532	artist	-0.1711386
-5.338532	arts	-0.2017043
-5.338532	artwork	-0.1711386
-5.037502	arundhati	-0.151643
-2.844378	as	-0.6123714
-4.861411	asap	-0.4483156
-4.639562	ash	-0.3112692
-5.037502	ashamed	-0.1962072
-5.037502	asher	-0.1694885
-4.560381	ashes	-0.3062176
-5.338532	asia	-0.1711386
-5.338532	asian	-0.2083135
-5.338532	aside	-0.1711386
-5.338532	aside.'	-0.1526834
-3.512457	ask	-0.4850044
-3.794464	asked	-0.5165243
-4.037502	asking	-0.2774554
-4.493434	asleep	-0.6778481
-5.338532	aspired	-0.2017043
-3.648336	ass	-0.4713002
-5.338532	ass-wipe	-0.1711386
-4.861411	assassin	-0.22152
-5.338532	assassinated	-0.1994841
-5.037502	assassination	-0.3146694
-5.338532	assassins	-0.1711386
-5.037502	assault	-0.1710279
-5.338532	assaulted	-0.2054658
-5.338532	assemble	-0.1711386
-5.037502	asses	-0.2806792
-5.338532	assessment	-0.2078731
-4.736472	asset	-0.3578269
-5.037502	assets	-0.2056983
-3.996109	asshole	-0.5267925
-5.338532	assholes	-0.2083095
-5.338532	assigned	-0.2082318
-5.338532	assigning	-0.2083016
-5.338532	assist	-0.2056001
-5.338532	assistance	-0.1904569
-4.861411	assistant	-0.1516407
-5.338532	associated	-0.2069849
-5.338532	associates	-0.1711386
-4.493434	assume	-0.2477957
-5.338532	assumption	-0.2072565
-5.037502	assurances	-0.1614824
-5.338532	assured	-0.2054658
-5.338532	asswipe	-0.1711386
-5.338532	asteroid	-0.1994638
-5.338532	asteroids	-0.205169
-5.338532	astronaut	-0.2081601
-5.338532	astronauts	-0.2082239
-5.338532	astronomical	-0.2083135
-5.338532	astute	-0.1711386
-5.338532	asylum	-0.206811
-2.725748	at	-0.6340352
-5.338532	atari	-0.2083055
-5.338532	ataris	-0.2066051
-5.338532	ate	-0.2067411
-4.435442	atmosphere	-0.2427012
-4.861411	atmospheric	-0.2781886
-5.338532	atmospherics	-0.1711386
-5.338532	atom	-0.1904569
-5.338532	atomic	-0.2082896
-4.861411	atoms	-0.2738043
-5.338532	atone	-0.1711386
-5.037502	atop	-0.317318
-5.037502	attaboy	-0.2806792
-5.037502	attached	-0.1639271
-5.037502	attachments	-0.2806792
-3.907168	attack	-0.3238833
-4.736472	attacked	-0.160098
-5.338532	attacks	-0.1955266
-4.639562	attempt	-0.2925251
-5.037502	attempted	-0.3124002
-4.861411	attempting	-0.2715206
-5.037502	attend	-0.3090247
-5.338532	attendant	-0.2077415
-5.338532	attended	-0.1994841
-5.338532	attendees	-0.1904569
-4.192404	attention	-0.4366757
-5.338532	attentive	-0.1711386
-5.338532	attitude	-0.1526834
-4.560381	attorney	-0.1392792
-5.338532	attorneys	-0.1904569
-5.037502	attract	-0.1688477
-5.338532	attracted	-0.2017043
-4.861411	attraction	-0.1652775
-5.338532	au	-0.2083175
-5.037502	auction	-0.1709454
-5.037502	audible	-0.3178561
-5.037502	audience	-0.2017003
-5.338532	audio	-0.1994638
-5.338532	audition	-0.1711386
-5.338532	audrey	-0.2056001
-5.338532	august	-0.2083175
-4.861411	auld	-0.2781886
-5.338532	aunt	-0.2071787
-5.037502	authenticated	-0.151643
-5.338532	authorisation	-0.1711386
-5.338532	authorise	-0.2028596
-5.338532	authorities	-0.1526834
-4.639562	authority	-0.1910547
-5.338532	authorization	-0.1711386
-5.037502	authorized	-0.2007325
-4.861411	auto	-0.1677097
-5.338532	auto-docking	-0.2083075
-5.338532	auto-drop	-0.2083075
-5.338532	auto-rotating	-0.1904569
-5.037502	automated	-0.3178282
-5.338532	automatic	-0.2080963
-5.338532	autopilot	-0.2081342
-5.338532	autorotating	-0.1904569
-5.338532	auxiliary	-0.2083095
-4.338532	ava	-0.5443328
-5.338532	available	-0.1994638
-5.338532	avenge	-0.206217
-4.560381	avenue	-0.197486
-5.037502	avenues	-0.1972484
-5.037502	average	-0.2050727
-5.338532	avionics	-0.2066571
-4.736472	avoid	-0.1590216
-4.861411	avoiding	-0.2770098
-4.639562	aw	-0.6679229
-5.037502	await	-0.2080864
-5.338532	awaitin	-0.2076657
-5.037502	awaiting	-0.3177724
-5.037502	awake	-0.1677053
-4.639562	award	-0.2268489
-5.338532	award-nominated	-0.2082757
-4.736472	awards	-0.2507469
-4.736472	aware	-0.154421
-5.338532	awareness	-0.1994638
-3.414253	away	-0.6776159
-4.736472	awesome	-0.3567944
-5.037502	awful	-0.2081422
-4.861411	awfully	-0.2077455
-5.338532	awkward	-0.205169
-5.338532	awkwardness	-0.1904569
-5.338532	aww	-0.1711386
-5.037502	ayatollahs	-0.2999975
-5.037502	azacitidine	-0.2999975
-4.639562	b	-0.2211592
-5.338532	b-3	-0.1711386
-5.338532	b-4	-0.1711386
-5.338532	b-baked	-0.2028596
-5.037502	b-thalassemia	-0.2806792
-4.560381	b.	-0.4988698
-5.338532	b12	-0.1711386
-5.338532	baa	-0.2076657
-3.958321	bab	-1.397892
-5.338532	baba	-0.1904569
-5.037502	babbles	-0.3160518
-3.923559	babe	-1.562436
-5.037502	babies	-0.1681753
-3.35176	baby	-0.7887727
-4.861411	baby-sitting	-0.2077854
-5.338532	babysitter	-0.2082318
-2.701042	back	-0.8368626
-5.338532	backed	-0.2080106
-5.338532	backfires	-0.1994638
-4.861411	background	-0.4853969
-5.037502	backs	-0.1879049
-5.037502	backseat	-0.1699566
-5.338532	backslash	-0.1711386
-5.338532	backstabbers	-0.1711386
-4.639562	backup	-0.2294718
-5.037502	backwards	-0.1101643
-3.506023	bad	-0.3262153
-4.861411	badge	-0.149169
-5.338532	badger	-0.2083175
-5.338532	badly	-0.2076976
-3.958321	bag	-0.4854987
-4.861411	bags	-0.1415383
-4.861411	bail	-0.1570806
-5.338532	bailed	-0.2058706
-5.338532	bailing	-0.2071347
-5.037502	bailout	-0.2806792
-5.037502	bailouts	-0.151643
-5.338532	baked	-0.2028596
-5.338532	baking	-0.2083115
-5.338532	balanced	-0.1711386
-5.338532	balcony	-0.1711386
-5.338532	baldy	-0.1711386
-4.38429	ball	-0.2616097
-5.338532	ball-bag	-0.2080924
-5.338532	ball-bags	-0.2071347
-5.338532	ballgame	-0.2056141
-5.338532	ballplayers	-0.1711386
-4.560381	balls	-0.1740403
-5.338532	bam	-0.204653
-5.037502	bama	-0.2081203
-5.338532	ban	-0.2083115
-5.338532	banana	-0.2083036
-4.435442	band	-0.246301
-5.338532	band-aid	-0.205169
-5.338532	bandages	-0.1711386
-5.338532	bandit	-0.1711386
-5.338532	bands	-0.1711386
-5.037502	bandwidth	-0.151643
-4.493434	bang	-0.2810113
-5.338532	bangers	-0.2058706
-4.861411	banging	-0.2757456
-3.820018	banir	-0.3138509
-4.259351	bank	-0.1491304
-5.338532	banker	-0.2018034
-5.037502	bankers	-0.2041365
-4.736472	bankrupt	-0.1928124
-4.639562	bankruptcy	-0.1770929
-5.338532	bankrupted	-0.2083016
-5.338532	bankrupting	-0.2083016
-4.736472	banks	-0.1507456
-5.338532	banned	-0.2076477
-4.108083	banning	-0.615731
-4.059779	baptiste	-0.5448656
-4.29714	bar	-0.4045718
-5.037502	barbecue	-0.197277
-5.338532	bare	-0.2082617
-4.560381	barely	-0.1699717
-5.338532	bargain	-0.1711386
-5.338532	bargaining	-0.2082916
-5.338532	barge	-0.2056001
-5.338532	barged	-0.2056001
-4.736472	barking	-0.3958866
-4.861411	barkley	-0.22152
-5.338532	barks	-0.2065111
-5.338532	barman	-0.1711386
-4.736472	barn	-0.1955533
-4.736472	barnes	-0.2022033
-5.338532	barricade	-0.1711386
-5.037502	barrier	-0.2806792
-5.338532	barry	-0.1711386
-4.736472	bars	-0.3412946
-5.338532	bartender	-0.2077415
-5.338532	basarab	-0.1711386
-4.560381	base	-0.2827121
-5.037502	baseball	-0.1904507
-4.435442	based	-0.5725386
-5.037502	basement	-0.1676616
-5.037502	basic	-0.208182
-4.861411	basically	-0.2011599
-5.338532	basildon	-0.2083175
-5.338532	basis	-0.2079349
-5.037502	basketball	-0.2081243
-5.338532	bass	-0.2083095
-4.224589	bastard	-0.5777473
-4.639562	bastards	-0.182
-5.037502	batch	-0.2049302
-4.560381	bath	-0.1998138
-5.037502	bathroom	-0.1708021
-5.338532	bats	-0.1904569
-5.338532	battalion	-0.1526834
-4.560381	battle	-0.1644254
-5.338532	battled	-0.1994841
-5.338532	battles	-0.1711386
-4.29714	baxford	-0.3802122
-5.338532	bay	-0.2082936
-5.338532	bayonet	-0.2083175
-2.44477	be	-0.2877941
-5.338532	be--	-0.1526834
-4.639562	beach	-0.1195969
-4.29714	beacon	-0.2141161
-5.338532	beano	-0.206811
-4.338532	bear	-0.1625809
-5.338532	bearable	-0.1711386
-5.037502	beard	-0.1871736
-5.037502	bearded	-0.3178541
-5.037502	beast	-0.2081003
-5.338532	beastmaster	-0.2083115
-4.736472	beat	-0.2175677
-5.338532	beat-up	-0.2081163
-5.338532	beaten	-0.1711386
-4.861411	beating	-0.2690602
-4.259351	beatrice	-0.2233367
-4.861411	beats	-0.2080386
-5.338532	beautician	-0.2080864
-3.847171	beautiful	-0.3197491
-4.435442	beauty	-0.2058257
-4.29714	became	-0.3784105
-3.252172	because	-0.6401199
-4.108083	become	-0.3283709
-4.639562	becomes	-0.2048238
-5.037502	becoming	-0.2078372
-4.108083	bed	-0.4780881
-4.639562	bedroom	-0.3024901
-5.338532	bedside	-0.2082936
-5.338532	bedtime	-0.2083175
-5.037502	beech	-0.1705088
-5.338532	beef	-0.206149
-2.837473	been	-0.2981949
-5.037502	beep	-0.2080326
-4.38429	beeping	-0.4403875
-4.38429	beeps	-1.160478
-4.338532	beer	-0.3077115
-4.861411	beers	-0.4483156
-5.338532	beeswax	-0.1711386
-5.338532	befitting	-0.2051288
-3.270346	before	-0.798227
-5.338532	befriended	-0.2058706
-4.736472	beg	-0.2084288
-4.861411	began	-0.2403381
-5.037502	beggars	-0.3163097
-4.560381	begging	-0.1680052
-4.338532	begin	-0.1897649
-4.338532	beginning	-0.2924509
-4.861411	begins	-0.238037
-4.736472	begun	-0.2222517
-5.037502	behalf	-0.1676616
-4.493434	behavior	-0.1904264
-5.338532	behavioral	-0.2083095
-5.338532	behaviors	-0.1711386
-4.861411	behaviour	-0.1516385
-3.807053	behind	-0.311115
-5.338532	beholder	-0.205179
-3.469301	being	-0.2576712
-4.435442	beings	-0.1989789
-4.861411	belief	-0.1861792
-5.037502	beliefs	-0.2999975
-5.338532	believable	-0.1904569
-3.463471	believe	-0.4612204
-4.338532	believed	-0.2167762
-4.861411	believer	-0.268873
-5.338532	believers	-0.1904569
-4.861411	believes	-0.1947176
-5.037502	believing	-0.1927257
-5.037502	belinda	-0.2806792
-4.134412	bell	-0.3969773
-5.338532	bell-end	-0.1904569
-4.861411	belle	-0.2403859
-5.037502	belly	-0.1709237
-5.338532	belmont	-0.1711386
-4.493434	belong	-0.255829
-5.338532	belongings	-0.2066571
-4.736472	belongs	-0.7243297
-4.560381	beloved	-0.3240457
-5.037502	below	-0.195742
-4.639562	belt	-0.237475
-5.338532	belvedere	-0.1711386
-4.29714	ben	-0.3929664
-5.338532	bench	-0.2017043
-5.338532	bend	-0.2079668
-5.338532	bends	-0.2082737
-5.037502	beneath	-0.1938454
-4.861411	benefactor	-0.4483156
-5.338532	benefits	-0.1711386
-5.338532	benghazi	-0.1711386
-5.338532	bent	-0.2071347
-5.338532	benz	-0.2083135
-5.338532	berk	-0.1711386
-5.037502	berthe	-0.1614824
-5.338532	beside	-0.2076577
-4.493434	besides	-0.7144815
-3.493434	best	-0.2150316
-5.338532	best-kept	-0.2082796
-4.059779	bet	-0.4501225
-4.861411	beth	-0.2401685
-5.338532	betray	-0.2054658
-4.861411	betrayed	-0.1834226
-5.338532	betsy	-0.1711386
-3.192404	better	-0.3396304
-4.037502	between	-0.2209064
-5.338532	beverage	-0.1904569
-5.338532	beware	-0.2051288
-5.037502	beyoncé	-0.1614824
-4.38429	beyond	-0.3905237
-4.736472	bhai	-0.2124153
-5.037502	bharti	-0.151643
-5.338532	bholenath	-0.2018034
-5.338532	bib	-0.2058706
-5.037502	bible	-0.1903822
-5.338532	bickering	-0.1904569
-4.861411	bid	-0.1668186
-5.338532	bidder	-0.2072346
-5.037502	bidding	-0.2059848
-5.338532	biding	-0.2081003
-3.582657	big	-0.2409781
-5.338532	big-ass	-0.2083175
-5.338532	big-shot	-0.1711386
-4.435442	bigger	-0.2025464
-4.435442	biggest	-0.2080585
-4.736472	bike	-0.1573853
-5.338532	bikinis	-0.205169
-4.493434	bill	-0.1970484
-5.338532	billing	-0.2018034
-5.037502	billings	-0.1614824
-4.493434	billion	-0.3017118
-5.037502	bills	-0.1901704
-4.059779	billy	-0.3970872
-5.338532	bin	-0.204653
-4.736472	binary	-0.360788
-5.338532	binding	-0.1711386
-5.338532	bingo	-0.1711386
-5.037502	binoculars	-0.2806792
-5.037502	bins	-0.2806792
-4.861411	biology	-0.1676463
-5.037502	bird	-0.2015182
-5.338532	birdie	-0.1526834
-4.338532	birds	-0.2247578
-4.639562	birth	-0.1449235
-4.224589	birthday	-0.3089052
-5.338532	birthdays	-0.205169
-5.338532	biscuits	-0.206891
-3.435442	bit	-0.5530812
-3.736472	bitch	-0.6827462
-4.259351	bitches	-0.3083813
-5.037502	bite	-0.1995695
-4.736472	bits	-0.1579605
-5.037502	bitter	-0.1681753
-3.940592	black	-0.7511024
-5.338532	blackhawks	-0.1904569
-5.037502	blackmail	-0.2054418
-4.861411	blackness	-0.4483156
-4.639562	blade	-0.5240707
-4.736472	blades	-0.2224535
-4.38429	blame	-0.135048
-5.338532	blamed	-0.2028596
-4.560381	blanchard	-0.1751217
-5.037502	blank	-0.2083135
-5.338532	blares	-0.2080445
-4.493434	blaring	-0.606447
-4.639562	blast	-0.1605229
-5.338532	blatant	-0.2083155
-5.037502	blazing	-0.2051369
-5.338532	bleak	-0.205169
-5.338532	bleating	-0.2065111
-4.861411	bleed	-0.1975364
-4.861411	bleeding	-0.2397248
-4.736472	blend	-0.2160002
-4.29714	bless	-0.2929175
-4.861411	blessing	-0.1645709
-5.338532	blessings	-0.207885
-5.037502	blew	-0.2007304
-4.736472	blight	-0.1610696
-5.037502	blimey	-0.1671429
-4.639562	blind	-0.2044292
-5.037502	blinding	-0.2077993
-5.338532	blinds	-0.1904569
-5.037502	blissful	-0.2806792
-4.259351	block	-0.3204358
-5.338532	blockage	-0.1711386
-5.338532	blocking	-0.1994841
-5.037502	blocks	-0.1707543
-5.338532	bloke	-0.1711386
-5.338532	blonde	-0.2083175
-3.891374	blood	-0.4244717
-5.338532	bloodhound	-0.2079449
-4.639562	bloodlines	-0.2766631
-5.338532	bloodstream	-0.202795
-5.338532	bloodsuckers	-0.2058706
-4.162441	bloody	-0.2065531
-5.037502	bloom	-0.2056101
-5.037502	blossom	-0.190376
-4.861411	blotto	-0.2535421
-5.037502	blouse	-0.170161
-4.134412	blow	-0.3470582
-5.338532	blower-upper	-0.1904569
-5.338532	blowie	-0.1994638
-5.338532	blowin	-0.2076657
-4.560381	blowing	-0.5442902
-5.338532	blowjob	-0.1994638
-5.338532	blown	-0.2017043
-4.861411	blows	-0.1970563
-4.192404	blue	-0.1376031
-5.037502	blue-white	-0.3178481
-4.29714	blues	-0.2504318
-5.338532	bluff	-0.1711386
-5.037502	bluffing	-0.1614824
-4.560381	bmw	-0.2605484
-4.861411	bo	-0.2739069
-4.493434	board	-0.1467268
-4.861411	boarding	-0.240125
-5.338532	boards	-0.1711386
-5.037502	boat	-0.2806792
-5.338532	boathouse	-0.1711386
-5.338532	boats	-0.1904569
-4.016313	bob	-0.5578074
-5.338532	bobby	-0.2066571
-4.560381	bobo	-0.1867905
-4.639562	bodies	-0.3041488
-4.108083	body	-0.2018069
-5.338532	bog	-0.2077195
-4.639562	bogey	-0.2433831
-5.338532	bogeys	-0.2083155
-5.338532	boggly-eyed	-0.2079149
-5.338532	bogus	-0.2082657
-5.037502	bold	-0.1639271
-5.338532	bolder	-0.1711386
-5.338532	bollocking	-0.206149
-4.134412	bollocks	-0.4279059
-5.338532	bolt	-0.2083175
-4.224589	bomb	-0.302841
-5.338532	bombing	-0.2051288
-5.338532	bombs	-0.2081402
-5.037502	bona	-0.3178561
-5.037502	bond	-0.1862546
-5.037502	bonded	-0.3123356
-5.338532	bonding	-0.1904569
-5.037502	bone	-0.1614824
-5.037502	bones	-0.2806792
-5.338532	boneyard	-0.1711386
-5.338532	bonjour	-0.1711386
-5.037502	bono	-0.2806792
-5.338532	bonus	-0.1711386
-5.338532	bonuses	-0.1904569
-4.259351	book	-0.4130119
-5.037502	booked	-0.2074282
-5.338532	booking	-0.1994841
-5.338532	bookmark	-0.1711386
-4.338532	books	-0.1833802
-5.338532	bookshelf	-0.2018034
-4.736472	boom	-0.1648131
-5.338532	boost	-0.1904569
-5.338532	booster	-0.2083075
-5.338532	boosters	-0.2017043
-5.338532	boosting	-0.2082219
-5.338532	boot	-0.2071747
-5.037502	booties	-0.1871736
-4.639562	boots	-0.170298
-5.037502	booty	-0.2046309
-5.338532	booze	-0.205169
-5.338532	border	-0.1711386
-5.338532	bores	-0.2083175
-4.29714	boring	-0.1503246
-4.224589	born	-0.2832448
-5.338532	borrow	-0.2076477
-5.037502	borrowed	-0.2027083
-3.820018	boss	-0.4542742
-4.861411	boston	-0.4766408
-5.338532	botanist	-0.2077215
-3.630962	both	-0.2330501
-4.639562	bother	-0.5335277
-5.338532	bothered	-0.1994638
-4.493434	bothering	-0.2453838
-4.435442	bottle	-0.2148212
-5.037502	bottles	-0.2051268
-4.560381	bottom	-0.4768275
-5.338532	boudour	-0.1711386
-5.338532	bought	-0.206227
-5.338532	bounces	-0.204653
-5.338532	bouncing	-0.2082996
-4.493434	bound	-0.2361295
-5.338532	boundaries	-0.2051288
-5.037502	bounds	-0.151643
-5.338532	bountiful	-0.2083155
-5.037502	bourbon	-0.1994191
-4.338532	bout	-0.1933036
-5.037502	bow	-0.3090044
-5.037502	bowl	-0.1677163
-4.493434	box	-0.1796668
-5.338532	boxed	-0.2056001
-3.506023	boy	-0.5142088
-4.259351	boyfriend	-0.2014649
-5.338532	boyfriends	-0.1711386
-3.807053	boys	-0.4445782
-4.493434	boyses	-0.4350908
-4.639562	boyz	-0.2964473
-5.037502	brace	-0.206139
-5.338532	brad	-0.2081402
-4.861411	bradley	-0.2511024
-5.338532	bragg	-0.1994638
-5.338532	braggin	-0.2076657
-5.037502	brahmin	-0.205173
-5.338532	brahmins	-0.1711386
-4.338532	brain	-0.373404
-4.435442	brains	-0.3136685
-5.037502	brake	-0.1994313
-5.037502	brakes	-0.2083016
-4.861411	branch	-0.2410047
-5.338532	branched	-0.2071347
-3.77033	brand	-0.4499086
-5.338532	brand-new	-0.2082956
-5.338532	branda	-0.1904569
-5.338532	branded	-0.2083175
-5.338532	bras	-0.1994638
-5.037502	brash	-0.3178481
-4.861411	brass	-0.2754751
-5.338532	brave	-0.1904569
-5.338532	bravery	-0.1711386
-5.338532	bravest	-0.2082657
-4.493434	bravo	-0.325178
-5.338532	brazenness	-0.1711386
-4.861411	breach	-0.2380523
-5.037502	breached	-0.1615046
-5.037502	breaching	-0.3090247
-5.037502	bread	-0.1876376
-3.675774	break	-0.3670639
-5.338532	break-in	-0.1711386
-5.338532	break-up	-0.2051288
-4.736472	breaker	-0.1881825
-5.037502	breakers	-0.1812254
-5.037502	breakfast	-0.20343
-5.338532	breaking	-0.2082637
-5.037502	breaks	-0.3141936
-5.338532	breast	-0.2082976
-4.224589	breath	-0.2631038
-5.338532	breathable	-0.2082577
-4.38429	breathe	-0.187558
-4.861411	breather	-0.1700762
-4.639562	breathes	-0.4104843
-4.224589	breathing	-0.3815296
-5.338532	bred	-0.2017043
-5.338532	breezy	-0.2071347
-4.08326	brenda	-0.4767999
-4.162441	brendan	-0.3562133
-5.338532	brew	-0.2083175
-3.876134	brian	-0.4087049
-5.338532	bribe	-0.1711386
-3.876134	brice	-0.4415372
-5.037502	brick	-0.3178342
-5.338532	brides-in-waiting	-0.1711386
-5.338532	brides-to-be	-0.205169
-4.38429	bridge	-0.2308134
-5.338532	brief	-0.2083155
-4.435442	briefcase	-0.2656137
-4.493434	bright	-0.1947629
-5.338532	brighten	-0.2067411
-5.338532	brighter	-0.2080943
-5.338532	brightest	-0.2082936
-4.861411	brilliant	-0.1710583
-3.506023	bring	-0.5302602
-4.560381	bringing	-0.1880448
-4.736472	brings	-0.2012774
-4.38429	bristol	-0.4829379
-4.861411	brit	-0.2661251
-5.037502	britain	-0.2016234
-5.338532	britania	-0.1711386
-5.037502	british	-0.205163
-4.493434	bro	-0.3665649
-5.338532	broadcasting	-0.2082956
-5.338532	brochures	-0.205169
-5.338532	brody	-0.1711386
-4.639562	brogden	-0.5080521
-4.224589	broke	-0.2380192
-5.338532	broke-off	-0.2069849
-4.29714	broken	-0.3411177
-4.493434	broker	-0.1881687
-5.338532	brokerage	-0.2083095
-5.338532	bronzi	-0.1994638
-5.338532	brooks	-0.1904569
-5.338532	brothel	-0.1711386
-3.630962	brother	-0.6182833
-5.037502	brotherhood	-0.2806792
-4.38429	brothers	-0.1771251
-3.891374	brought	-0.2848001
-4.192404	brown	-0.2830473
-5.338532	brownie	-0.2083135
-5.338532	brozi	-0.1994638
-5.338532	brrr	-0.204653
-5.338532	bruised	-0.2083175
-5.338532	brummie	-0.2083155
-5.338532	bruv	-0.1904569
-5.338532	bubble	-0.1711386
-5.338532	bubbleship	-0.2083075
-5.037502	bubbling	-0.206235
-5.338532	bubbly	-0.1994638
-4.435442	bucharest	-0.367474
-5.037502	buck	-0.3167153
-4.639562	bucket	-0.3029707
-4.435442	bucks	-0.2672259
-5.037502	bud	-0.1871841
-5.338532	buddhists	-0.1711386
-5.338532	buddies	-0.1711386
-4.108083	buddy	-0.83569
-5.338532	budge	-0.1711386
-5.037502	budget	-0.2016477
-5.338532	budweiser	-0.1904569
-5.037502	buffalo	-0.1671429
-4.861411	buffet	-0.2407616
-5.037502	bug	-0.2042149
-5.338532	bugging	-0.2071347
-4.560381	build	-0.2314393
-4.059779	building	-0.2456523
-4.736472	buildings	-0.1378736
-4.38429	built	-0.1933861
-5.338532	bulges	-0.1904569
-5.338532	bulk	-0.2083036
-5.037502	bull	-0.2081801
-5.037502	bulleit	-0.1711342
-4.338532	bullet	-0.3374434
-4.560381	bullets	-0.2011481
-4.162441	bullshit	-0.4511672
-5.338532	bully	-0.1711386
-4.639562	bum	-0.1932251
-5.338532	bum-chum	-0.2077115
-5.338532	bump	-0.1904569
-5.338532	bumping	-0.2080545
-5.338532	bumps	-0.1711386
-5.338532	bums	-0.1994638
-4.338532	bunch	-1.038202
-5.338532	bung	-0.2042873
-5.338532	bunk	-0.1711386
-5.338532	bunked	-0.2079449
-4.38429	bunker	-0.4705427
-5.338532	bunks	-0.1711386
-5.338532	bunny	-0.1904569
-5.338532	bureau	-0.1711386
-5.338532	burger	-0.2082936
-5.338532	burglar	-0.1994638
-5.037502	burglary	-0.1994414
-4.493434	buried	-0.1687277
-4.134412	burn	-0.2887943
-4.861411	burned	-0.2035791
-5.338532	burner	-0.2055861
-5.338532	burnett	-0.1711386
-4.639562	burning	-0.1709302
-5.338532	burns	-0.1711386
-5.338532	burton	-0.206149
-5.338532	bury	-0.2080425
-4.162441	bus	-0.296438
-5.338532	bush	-0.2082876
-5.338532	bushes	-0.1711386
-3.457719	business	-0.4180793
-5.037502	businessman	-0.1711277
-5.338532	businessmen	-0.1904569
-4.736472	busted	-0.2211431
-5.338532	busting	-0.206227
-4.192404	busy	-0.3384461
-2.539192	but	-0.6502479
-5.338532	butcher	-0.2081362
-5.338532	butjust	-0.2080864
-4.861411	butt	-0.2070449
-5.037502	butterflies	-0.2019105
-4.639562	button	-0.1847885
-5.338532	buttons	-0.2058706
-4.037502	buy	-0.1770545
-5.338532	buyer	-0.206149
-4.736472	buying	-0.2219237
-4.861411	buys	-0.2058366
-5.338532	buzz	-0.2079449
-4.736472	buzzes	-0.378224
-4.38429	buzzing	-0.5615263
-3.148201	by	-0.3470471
-4.493434	bye	-0.3724896
-4.861411	bye-bye	-0.22152
-5.338532	bylaws	-0.1711386
-4.861411	c	-0.2781826
-5.338532	c-17	-0.1711386
-5.338532	c-4	-0.1711386
-4.861411	c.i.a.	-0.207915
-5.338532	c17	-0.1711386
-4.493434	cab	-0.3926957
-5.338532	cabin	-0.2083095
-4.639562	cabinet	-0.3154161
-5.338532	cached	-0.2077195
-4.016313	cachet	-0.4587855
-5.037502	cactus	-0.3178501
-5.338532	caddies	-0.2066231
-5.037502	cadillac	-0.1681753
-3.996109	caesar	-0.2761091
-4.736472	cafe	-0.2806748
-5.338532	caffeine	-0.2042873
-4.861411	cage	-0.4483156
-5.338532	cairo	-0.1711386
-5.338532	cajole	-0.2017043
-5.338532	cajun	-0.2081721
-5.037502	cake	-0.2806792
-5.338532	cakewalk	-0.1711386
-5.037502	calamity	-0.2042049
-5.338532	calcium	-0.1904569
-5.338532	calculated	-0.2079827
-5.338532	calculations	-0.2066571
-5.338532	caldwell	-0.1711386
-5.037502	calendar	-0.1614824
-5.338532	calf	-0.2018034
-5.338532	california	-0.2082757
-3.088112	call	-0.6860872
-5.338532	call--	-0.1526834
-3.648336	called	-0.2829208
-5.037502	caller	-0.2999975
-3.923559	calling	-0.2854836
-4.560381	calls	-0.2222988
-3.907168	calm	-0.8144716
-5.338532	calmly	-0.2080824
-5.037502	calvin	-0.3178561
-4.435442	cam	-0.2527072
-5.338532	camcorders	-0.1711386
-3.370049	came	-0.5708361
-5.338532	camel	-0.2017043
-4.560381	camera	-0.2611722
-5.338532	cameras	-0.1994638
-4.259351	cameron	-0.2800806
-5.037502	camino	-0.1812254
-4.560381	camp	-0.2304132
-5.037502	campaign	-0.2017751
-5.338532	campfire	-0.2082239
-5.037502	campus	-0.2806792
-2.448111	can	-0.6603428
-5.338532	can--	-0.1526834
-5.338532	canada	-0.1711386
-5.338532	canaveral	-0.205169
-5.338532	cancellation	-0.1711386
-4.861411	cancelled	-0.1846863
-5.338532	cancer	-0.2051288
-5.338532	candidate	-0.1711386
-5.338532	candidates	-0.2082199
-5.338532	candle	-0.2018034
-5.338532	candles	-0.1994638
-4.493434	candy	-0.2596925
-5.037502	cannabis	-0.1904549
-5.338532	cannonball	-0.1526834
-3.923559	cannot	-0.2621072
-5.338532	canteen	-0.1711386
-5.338532	canton	-0.1904569
-4.639562	canvas	-0.2756471
-5.338532	canyons	-0.2056001
-4.861411	cap	-0.2693347
-4.736472	capable	-0.7277543
-5.338532	cape	-0.2083175
-5.037502	capital	-0.3146694
-5.338532	capitalism	-0.1711386
-5.338532	capitalist	-0.2082896
-5.338532	capped	-0.1711386
-4.736472	capsule	-0.2762847
-4.560381	captain	-0.4439624
-5.338532	captive	-0.1904569
-5.338532	captivity	-0.2051288
-5.338532	capture	-0.2077195
-5.037502	captured	-0.1991689
-5.338532	capturing	-0.2051288
-3.248627	car	-0.5254003
-5.338532	caravaggio	-0.2018034
-5.338532	caravan	-0.2051288
-5.338532	carbon	-0.2083175
-4.259351	card	-0.2882954
-5.338532	cards	-0.2058706
-3.56768	care	-0.6047513
-5.338532	cared	-0.206149
-4.861411	career	-0.1702632
-3.976804	careful	-0.6131072
-5.037502	carefully	-0.1677163
-5.338532	careless	-0.2081422
-5.037502	cares	-0.2060849
-5.338532	caretaker	-0.2083095
-5.338532	caretakers	-0.1711386
-5.037502	cargo	-0.2806792
-5.338532	carnegies	-0.1904569
-5.338532	carney	-0.1711386
-3.958321	carol	-1.036785
-5.338532	carolina	-0.1711386
-5.338532	carpet	-0.1711386
-5.338532	carpets	-0.1711386
-4.861411	carried	-0.4853292
-5.037502	carries	-0.2999975
-4.560381	carry	-0.2332605
-4.639562	carrying	-0.193456
-4.134412	cars	-0.4476589
-5.338532	carting	-0.2076657
-4.435442	carver	-0.2191149
-5.037502	carville	-0.206231
-3.630962	case	-0.5581111
-5.037502	cases	-0.151643
-3.976804	cash	-0.3602934
-5.338532	cast	-0.2028596
-5.037502	casualties	-0.2806792
-4.639562	cat	-0.3112604
-5.338532	catastrophe	-0.2077415
-4.259351	catch	-0.25543
-5.037502	catches	-0.2057965
-5.338532	catchphrase	-0.1711386
-5.338532	catfish	-0.2058706
-5.338532	catholic	-0.2083016
-5.037502	cats	-0.151643
-4.493434	caught	-0.2071902
-3.940592	cause	-0.3612742
-5.338532	caused	-0.1711386
-5.037502	causes	-0.1994821
-5.338532	causing	-0.2080425
-5.037502	cauterize	-0.3151267
-4.639562	caution	-0.1810184
-5.338532	cave	-0.2082996
-4.639562	cb	-0.3527543
-5.037502	cct	-0.2999975
-5.037502	cdc	-0.1681906
-4.861411	celebrate	-0.22152
-4.861411	celebrating	-0.1680704
-5.037502	celebration	-0.151643
-5.338532	celebrations	-0.1526834
-5.338532	celebrity	-0.1994638
-4.259351	cell	-0.2996636
-4.861411	cellphone	-0.1903781
-5.338532	cellphones	-0.1711386
-4.259351	cells	-0.3132852
-5.338532	cellular	-0.2082916
-5.338532	celluloid	-0.1904569
-5.338532	cement	-0.1711386
-4.861411	cemetery	-0.161458
-5.338532	centennial	-0.2083135
-4.736472	center	-0.1658928
-4.861411	central	-0.2082976
-5.338532	centralhub	-0.1711386
-4.861411	centre	-0.22152
-5.338532	centrifuge	-0.1711386
-4.639562	cents	-0.3521014
-5.338532	centuries	-0.1711386
-4.861411	century	-0.1638477
-5.037502	ceo	-0.1985643
-4.134412	cerberus	-0.3878295
-4.736472	ceremony	-0.2223775
-5.338532	cert	-0.1904569
-4.435442	certain	-0.1796079
-4.435442	certainly	-0.2082897
-5.338532	certificates	-0.2058706
-5.338532	cezanne	-0.1711386
-5.338532	chaff	-0.1711386
-4.338532	chain	-0.4373649
-5.037502	chair	-0.2071647
-5.037502	chairman	-0.1988738
-5.338532	challenges	-0.1955266
-4.435442	chamber	-0.2049071
-5.338532	chambers	-0.2082617
-4.560381	champagne	-0.2114107
-3.657291	chance	-0.6357224
-4.736472	chances	-0.2004948
-3.666434	change	-0.3773694
-3.996109	changed	-0.3638005
-4.560381	changes	-0.2720947
-4.736472	changing	-0.1597974
-4.560381	channel	-0.3181288
-4.560381	channels	-0.3126513
-5.338532	chanson	-0.2083115
-5.338532	chanting	-0.1711386
-5.037502	chaos	-0.1711104
-5.338532	chap	-0.1711386
-5.338532	chapel	-0.1904569
-5.338532	chaperone	-0.2072346
-5.338532	chapter	-0.2051288
-4.736472	character	-0.2080207
-5.037502	charade	-0.1967025
-4.224589	charge	-0.3077291
-5.037502	charged	-0.1988596
-4.861411	charges	-0.2313595
-5.037502	charging	-0.1614824
-4.736472	chariot	-0.2619296
-5.338532	charisma	-0.2083095
-4.861411	charity	-0.2409765
-4.259351	charles	-0.3557315
-4.338532	charleston	-0.3788036
-4.639562	charlie	-0.2432822
-5.037502	charlotte	-0.1977671
-4.560381	charm	-0.2683617
-5.338532	charmer	-0.1904569
-5.338532	charming	-0.1711386
-5.338532	charmless	-0.1711386
-5.037502	chart	-0.1651873
-5.037502	charter	-0.1651873
-4.861411	chartreuse	-0.4483156
-4.861411	chase	-0.2043396
-5.338532	chased	-0.1955266
-5.037502	chasing	-0.2028576
-5.037502	chat	-0.1615046
-4.861411	chattanooga	-0.2313595
-4.861411	chatter	-0.276112
-4.435442	chattering	-0.2814659
-5.037502	chauffeur	-0.1614824
-4.736472	cheap	-0.2217673
-5.037502	cheat	-0.2027123
-5.037502	cheated	-0.1951942
-5.338532	cheater	-0.1711386
-5.338532	cheatin	-0.2076657
-4.736472	cheating	-0.3581217
-3.639562	check	-0.2861409
-5.037502	checked	-0.1698478
-5.338532	checkin	-0.2076657
-4.493434	checking	-0.3877263
-5.338532	checkmate	-0.1711386
-5.037502	checkpoint	-0.2083115
-5.338532	checks	-0.2082836
-4.736472	cheek	-0.7220892
-5.338532	cheeks	-0.1711386
-5.037502	cheeky	-0.2078891
-5.338532	cheer	-0.2076757
-5.037502	cheerful	-0.1614824
-4.736472	cheering	-0.2551001
-4.435442	cheers	-0.3675344
-4.639562	cheese	-0.1282113
-5.338532	cheeseburger	-0.1904569
-5.338532	cheesed	-0.2072565
-5.338532	cheesy	-0.1711386
-5.037502	chef	-0.1614824
-4.861411	chelmsford	-0.1710561
-5.338532	chemical	-0.2083175
-5.338532	chemo	-0.1711386
-4.736472	cheque	-0.2123243
-5.338532	cheri	-0.1994638
-5.037502	cherry	-0.2078611
-5.338532	chest	-0.2083175
-5.037502	chewing	-0.2065111
-5.338532	chez	-0.2082219
-5.037502	chicago	-0.1711082
-4.560381	chicken	-0.1949261
-4.861411	chickie	-0.2764902
-4.736472	chickies	-0.1467199
-4.435442	chief	-0.5719058
-3.940592	child	-0.5331827
-5.037502	childhood	-0.1904279
-4.016313	children	-0.4737155
-4.736472	chili	-0.1928641
-4.639562	chill	-0.2461901
-5.338532	chilly	-0.1711386
-4.736472	chimes	-0.2577589
-5.338532	chimpanzees	-0.1711386
-5.037502	chimps	-0.206879
-5.338532	china	-0.1711386
-5.338532	chinese	-0.1904569
-5.338532	chink	-0.2069849
-5.338532	chino	-0.20818
-4.861411	chip	-0.2050606
-5.037502	chips	-0.2806792
-4.736472	chirping	-0.2396105
-5.338532	chit-chat	-0.2077115
-4.861411	chivalry	-0.1665358
-5.338532	chloride	-0.1904569
-5.338532	cho	-0.1711386
-4.736472	chocolate	-0.1415314
-3.861411	choice	-0.5241992
-5.338532	choices	-0.1711386
-5.338532	choir	-0.2077415
-4.224589	choking	-0.9002951
-5.338532	cholesterol	-0.2018034
-4.861411	chomped	-0.4848886
-4.435442	choose	-0.1722442
-5.037502	chop	-0.1904528
-4.736472	chopper	-0.693764
-5.338532	chops	-0.1711386
-4.493434	chose	-0.2738199
-5.037502	chosen	-0.3112449
-5.037502	chow	-0.3178282
-5.037502	chrissy	-0.2806792
-4.134412	christ	-0.3902577
-5.338532	christian	-0.1711386
-5.338532	christians	-0.1904569
-4.338532	christmas	-0.3434888
-4.861411	chronicle	-0.1612139
-5.338532	chubby	-0.2082418
-4.861411	chuck	-0.2349939
-5.338532	chuckle	-0.2075021
-3.996109	chuckles	-1.206081
-4.560381	chuckling	-0.9496424
-5.338532	chuff	-0.1711386
-4.38429	church	-0.2339796
-4.736472	cia	-0.2047715
-5.338532	ciao	-0.1711386
-5.338532	cib-1	-0.1711386
-5.338532	cigarette	-0.1994638
-5.037502	cipher	-0.2018903
-4.861411	circle	-0.1485432
-5.338532	circles	-0.1711386
-4.736472	circumstances	-0.2190245
-5.338532	circumstantial	-0.1711386
-4.736472	circus	-0.3601278
-5.037502	citadel	-0.1640352
-5.338532	citations	-0.1711386
-5.338532	cities	-0.2082856
-5.338532	citizens	-0.1711386
-3.923559	city	-0.3404476
-5.338532	civic	-0.2083135
-4.639562	civil	-0.3155963
-5.037502	civilian	-0.2082717
-5.338532	civilians	-0.1711386
-4.639562	civilization	-0.2406939
-5.338532	claim	-0.202795
-5.338532	claiming	-0.2063811
-5.338532	claims	-0.2051288
-5.037502	clamouring	-0.3160518
-5.338532	clamped	-0.2056001
-5.338532	clams	-0.1904569
-5.037502	clan	-0.2011397
-5.338532	clang	-0.2065111
-5.037502	clanging	-0.3160518
-5.037502	clangs	-0.3160518
-5.037502	clans	-0.3174576
-5.338532	clapper	-0.1711386
-5.338532	clapping	-0.2065111
-5.338532	clarified	-0.206217
-5.338532	clarifying	-0.1711386
-3.940592	clark	-0.5732937
-5.338532	clarke	-0.206811
-5.338532	clasped	-0.1994638
-4.639562	class	-0.1509344
-5.338532	class-b	-0.2083055
-4.861411	class-meet	-0.2691232
-4.639562	classic	-0.1703524
-4.861411	classical	-0.2780471
-4.861411	classified	-0.2313595
-5.338532	classmates	-0.2079668
-5.037502	classroom	-0.151643
-5.037502	classy	-0.1711212
-4.736472	clatter	-0.3157756
-4.861411	clattering	-0.4836882
-4.435442	clatters	-0.5756378
-5.037502	clay	-0.1519402
-5.338532	clayborne	-0.2083135
-3.876134	clean	-0.3388951
-5.338532	cleaned	-0.2071747
-5.338532	cleaner	-0.1711386
-4.736472	cleaning	-0.1578576
-3.69508	clear	-0.462719
-4.192404	cleared	-0.2668917
-5.338532	clearing	-0.1994841
-4.736472	clearly	-0.1690679
-5.037502	clears	-0.3178501
-5.037502	clegg	-0.151643
-4.560381	clever	-0.2213225
-5.338532	cleverly	-0.2079169
-4.639562	click	-0.2463704
-4.639562	clicking	-0.6839771
-4.134412	clicks	-0.8416643
-4.38429	client	-0.1790687
-4.38429	clients	-0.158392
-5.338532	cliff	-0.2069569
-5.338532	climactic	-0.2081721
-5.037502	climbed	-0.2058526
-5.338532	cling	-0.2017043
-5.338532	clinging	-0.2083135
-5.037502	clinic	-0.1994048
-4.861411	clinical	-0.4854886
-5.338532	clinking	-0.2080445
-4.736472	clinks	-0.3157756
-5.338532	clipped	-0.2074182
-5.338532	clips	-0.1711386
-4.493434	clock	-0.1461871
-5.037502	clocks	-0.2082657
-5.037502	clone	-0.1983993
-5.338532	cloned	-0.1994841
-4.560381	cloning	-0.2747615
-3.614256	close	-0.5600407
-4.224589	closed	-0.3356304
-4.108083	closer	-0.3680981
-4.224589	closes	-1.120234
-5.338532	closest	-0.2080664
-5.338532	closet	-0.2083016
-4.493434	closing	-0.3067331
-4.134412	clothes	-0.2421894
-5.037502	cloud	-0.2806792
-4.861411	clouding	-0.2681927
-5.338532	cloudless	-0.2080206
-5.338532	clouds	-0.2082996
-5.338532	clout	-0.2080943
-4.493434	clown	-0.4457392
-4.861411	clowns	-0.2652251
-4.259351	club	-0.2850272
-4.861411	clue	-0.2037683
-5.338532	clues	-0.205169
-4.861411	clutch	-0.1512411
-5.037502	clyde	-0.1705088
-5.338532	co-exist	-0.1711386
-4.861411	co-pilot	-0.1836482
-5.338532	coach	-0.2069849
-4.639562	coast	-0.2088091
-5.037502	coat	-0.2806792
-4.08326	cobra	-0.5226718
-4.861411	cocaine	-0.2313595
-4.736472	cock	-0.167819
-5.037502	cocking	-0.2064051
-4.861411	cocks	-0.2762821
-4.861411	cocksucker	-0.147463
-5.338532	cocktail	-0.1711386
-3.976804	code	-0.5431612
-5.338532	coded	-0.2082777
-4.560381	codes	-0.5235213
-3.958321	codex	-0.4526531
-5.338532	coexist	-0.1711386
-3.923559	coffee	-0.2537491
-4.861411	coin	-0.2370199
-4.861411	coincidence	-0.147463
-4.861411	coke	-0.1960084
-4.736472	cokes	-0.2611836
-4.059779	cold	-0.3378979
-5.338532	colder	-0.2082358
-5.338532	collapse	-0.2051288
-5.338532	collapsing	-0.1711386
-5.037502	colleague	-0.2079947
-4.736472	colleagues	-0.3573678
-4.38429	collect	-0.1662032
-4.861411	collection	-0.1599956
-5.338532	collective	-0.2083016
-5.338532	collectively	-0.2082996
-4.435442	college	-0.1875917
-4.38429	colonel	-0.3734334
-5.037502	colonial	-0.3178461
-5.338532	colonization	-0.2056141
-4.639562	colony	-0.1301402
-4.435442	color	-0.4023422
-5.338532	colorado	-0.1994638
-5.338532	colorless	-0.2080824
-5.338532	colors	-0.1904569
-4.493434	colton	-0.3692373
-5.037502	colts	-0.1866359
-5.037502	columbo	-0.1711039
-5.037502	com	-0.2082358
-5.338532	comb	-0.1994638
-4.861411	combat	-0.1994231
-5.338532	combat-ready	-0.2076976
-5.037502	combination	-0.3146694
-5.037502	combine	-0.2806792
-5.338532	combined	-0.2069849
-5.338532	combines	-0.1955266
-4.560381	combs	-0.5138803
-2.610178	come	-1.110503
-3.976804	comes	-0.1975006
-5.338532	comet	-0.1994638
-5.037502	comets	-0.1886704
-4.560381	comfortable	-0.1569034
-5.338532	comforted	-0.1711386
-5.037502	comin	-0.3172063
-3.262985	coming	-0.5773193
-4.861411	comm	-0.2780471
-4.016313	command	-0.3518741
-4.037502	commander	-0.4536798
-4.639562	commander-in-chief	-0.3124861
-5.338532	commando	-0.2056001
-5.037502	commandos	-0.1711342
-5.338532	commands	-0.2056001
-5.037502	comment	-0.1684701
-5.037502	commentary	-0.2003796
-5.338532	comments	-0.1904569
-5.338532	commerce	-0.2082816
-4.435442	commercial	-0.4423465
-5.037502	commie	-0.2082956
-4.861411	commission	-0.1670071
-5.037502	commissions	-0.151643
-5.338532	commit	-0.1994841
-5.338532	commitment	-0.1904569
-4.861411	committed	-0.2338042
-4.736472	common	-0.2082279
-4.639562	communicate	-0.2007242
-5.037502	communicating	-0.3165255
-4.861411	communication	-0.2768599
-4.560381	communications	-0.2217484
-5.338532	communist	-0.1711386
-5.338532	community	-0.2082916
-5.338532	compact	-0.2083155
-5.037502	companies	-0.3147096
-3.820018	company	-0.4946298
-5.338532	comparable	-0.2083115
-5.338532	compare	-0.1711386
-4.736472	compared	-0.7243297
-5.037502	comparing	-0.2070029
-5.338532	comparison	-0.2017043
-5.338532	comparisons	-0.1904569
-5.338532	compartment	-0.2082956
-5.037502	compass	-0.1711234
-5.338532	compassion	-0.1711386
-4.861411	compatibility	-0.2410091
-4.736472	compatible	-0.2806748
-5.338532	compelled	-0.2017043
-5.338532	compensation	-0.206149
-4.560381	competition	-0.2736909
-5.338532	competitive	-0.2080864
-5.338532	complain	-0.2078731
-5.037502	complaints	-0.3178183
-4.08326	complete	-0.1561021
-4.108083	completely	-0.1940977
-5.037502	completing	-0.3090247
-5.338532	complex	-0.1711386
-4.736472	complicated	-0.1657215
-5.037502	complication	-0.2806792
-4.861411	compliment	-0.1704632
-5.037502	compliments	-0.2052312
-5.037502	comply	-0.1614824
-5.037502	components	-0.2044521
-5.338532	compose	-0.2082
-5.338532	composed	-0.2051288
-5.037502	composition	-0.2007325
-4.493434	compound	-0.1778086
-5.338532	compounds	-0.1711386
-4.861411	comprende	-0.2313595
-4.861411	compromise	-0.1613493
-5.037502	compromised	-0.2806792
-5.338532	compulsory	-0.206149
-4.338532	computer	-0.193386
-5.338532	computers	-0.2066571
-5.037502	comrade	-0.1711364
-5.338532	comrades	-0.2081621
-5.338532	con-men	-0.1711386
-5.037502	conceal	-0.1962686
-4.861411	conceived	-0.1678846
-5.037502	concentrate	-0.3177744
-5.338532	concept	-0.2051288
-4.736472	concern	-0.1425638
-4.736472	concerned	-0.359632
-4.861411	concerns	-0.2410047
-5.037502	concert	-0.1704263
-5.338532	concession	-0.2076477
-5.338532	conclude	-0.2082538
-5.338532	conclusion	-0.2073624
-5.338532	condescend	-0.2017043
-4.560381	condition	-0.1994362
-5.338532	conditions	-0.2042873
-5.338532	condo	-0.1711386
-5.338532	condom	-0.1711386
-5.338532	condominiums	-0.1711386
-5.037502	condor	-0.3178461
-5.338532	conduct	-0.2077774
-5.338532	conducted	-0.2077694
-5.338532	conducting	-0.1994638
-5.338532	conductor	-0.1711386
-5.338532	confederacy	-0.2083155
-4.861411	conference	-0.1684003
-5.037502	conferences	-0.151643
-5.037502	confess	-0.1323214
-5.338532	confidence	-0.1904569
-5.338532	confident	-0.1973567
-4.861411	confidential	-0.4483156
-4.435442	confirm	-0.1636727
-5.037502	confirmation	-0.2042853
-4.493434	confirmed	-0.4225448
-4.639562	confirms	-0.1981261
-5.338532	conflagration	-0.2049382
-4.736472	conflict	-0.3573132
-5.338532	confucius	-0.1711386
-4.639562	confused	-0.3116438
-5.338532	congenita	-0.1711386
-5.338532	congrats	-0.1904569
-4.338532	congratulations	-0.3489649
-5.037502	congress	-0.151643
-5.338532	congressman	-0.2017043
-5.338532	congressmen	-0.1904569
-5.338532	conjectures	-0.207542
-4.639562	connect	-0.5179138
-5.338532	connected	-0.1711386
-4.736472	connection	-0.1608585
-5.338532	conniving	-0.2079149
-4.224589	connor	-0.3836569
-5.338532	conrad	-0.2083155
-4.736472	conscience	-0.2186635
-5.338532	conscientious	-0.2083175
-5.338532	conscientiously	-0.2082896
-5.338532	conscious	-0.1904569
-5.338532	consciously	-0.2083175
-5.037502	consciousness	-0.151643
-5.338532	consecutive	-0.2083175
-5.037502	consequence	-0.2071188
-4.861411	consequences	-0.1505523
-4.861411	conservatory	-0.1415383
-5.338532	conserve	-0.2082876
-4.861411	consider	-0.1680289
-5.338532	considerably	-0.2083175
-4.639562	considered	-0.1903822
-5.037502	considering	-0.1688477
-5.338532	consistent	-0.205169
-5.037502	console	-0.1965511
-5.338532	conspire	-0.2028596
-4.861411	constant	-0.1516385
-5.037502	constantly	-0.3176728
-5.338532	constitution	-0.1711386
-5.338532	consuelo	-0.1526834
-5.338532	consultant	-0.205179
-5.338532	consulting	-0.2054658
-5.338532	consumed	-0.1711386
-5.338532	consumer	-0.2083175
-5.338532	consumers	-0.2069849
-3.861411	contact	-0.4364212
-5.338532	contacts	-0.1711386
-5.338532	contagion	-0.1994638
-5.037502	containment	-0.2056041
-5.338532	contains	-0.2082338
-5.037502	contaminated	-0.1711364
-5.338532	contemplate	-0.2073624
-5.037502	contemplating	-0.317318
-5.338532	contest	-0.2083175
-4.192404	continue	-0.2594452
-5.338532	continued	-0.2017043
-3.820018	continues	-0.5644134
-4.861411	continuing	-0.2410069
-4.38429	contract	-0.2679161
-5.037502	contractors	-0.3172621
-5.338532	contracts	-0.2071347
-5.338532	contrary	-0.2017043
-5.338532	contrast	-0.1526834
-5.338532	contribute	-0.1711386
-3.747468	control	-0.6251492
-5.338532	controlled	-0.1711386
-5.338532	controllers	-0.1711386
-5.338532	controls	-0.2066571
-5.338532	controversy	-0.1711386
-5.338532	conundrum	-0.2068051
-5.037502	convention	-0.1687735
-5.338532	conventional	-0.2083115
-5.338532	converging	-0.2076477
-4.38429	conversation	-0.214461
-5.338532	conversational	-0.2083175
-5.037502	conversations	-0.1691682
-5.037502	convertible	-0.151643
-5.338532	convicted	-0.2082916
-5.338532	conviction	-0.206149
-4.861411	convince	-0.1943907
-5.338532	convinced	-0.2042873
-5.037502	convincing	-0.1708933
-4.493434	cook	-0.1982789
-5.338532	cooked	-0.2082458
-4.861411	cookie	-0.2410134
-4.560381	cookies	-0.2082423
-5.037502	cookin	-0.3172063
-4.639562	cooking	-0.1981328
-4.016313	cool	-0.6668047
-5.338532	cool-lookin	-0.2076657
-5.338532	cooler	-0.2080943
-5.037502	cooley	-0.311344
-4.108083	coop	-0.9147044
-3.54614	cooper	-1.047025
-5.338532	cooperate	-0.2069849
-4.861411	coordinate	-0.2762882
-5.338532	coordinated	-0.1711386
-4.29714	coordinates	-0.2556705
-4.08326	cop	-0.564824
-5.338532	copied	-0.2082976
-4.736472	copies	-0.1457479
-5.338532	copilot	-0.2018034
-5.338532	copperfield	-0.2081721
-4.259351	cops	-0.3963644
-3.940592	copy	-0.3983856
-5.037502	copy-	-0.1101643
-5.338532	cor	-0.2083155
-5.037502	cora	-0.1614824
-4.560381	core	-0.1665029
-5.338532	corinthians	-0.2082338
-4.639562	corn	-0.3135646
-3.940592	cornel	-0.6766441
-4.639562	corner	-0.2925242
-5.338532	cornered	-0.1711386
-4.736472	cornish	-0.3573678
-5.037502	coroner	-0.311344
-5.037502	corpse	-0.2042049
-4.560381	correct	-0.2550498
-4.736472	corrected	-0.1605696
-5.338532	correction	-0.1904569
-5.338532	corrections	-0.1904569
-5.338532	correctly	-0.1711386
-5.338532	correspondence	-0.2082796
-5.338532	correspondent	-0.2056141
-5.037502	corridor	-0.2044903
-5.037502	corroborated	-0.2042149
-5.037502	cortez	-0.3141936
-5.338532	cory	-0.1904569
-4.560381	cos	-0.4655142
-4.224589	cost	-0.3732634
-4.861411	costs	-0.2074941
-5.338532	costumes	-0.1711386
-4.736472	cotty	-0.3412946
-4.861411	couch	-0.1676988
-5.037502	cough	-0.1990204
-4.38429	coughing	-0.4638984
-4.861411	coughs	-0.4836882
-3.07136	could	-0.3681718
-5.037502	coulda	-0.2063031
-3.758749	couldn	-1.587129
-4.259351	council	-0.2183526
-5.037502	counsel	-0.2082836
-4.861411	counselor	-0.1513547
-4.162441	count	-0.3152016
-5.338532	countdown	-0.1711386
-5.338532	counted	-0.1994841
-5.338532	counter-orbital	-0.2083155
-5.037502	countermand	-0.2806792
-5.338532	counterpart	-0.2083115
-5.338532	counties	-0.1711386
-4.560381	counting	-0.4411602
-4.861411	countries	-0.1696736
-3.758749	country	-0.3414343
-5.338532	countryside	-0.1904569
-4.861411	county	-0.1515704
-5.037502	coup	-0.2806792
-5.338532	coupe	-0.1711386
-3.861411	couple	-0.6158524
-5.037502	couples	-0.2057785
-5.338532	courier	-0.1904569
-3.725748	course	-0.6205834
-4.639562	court	-0.1395952
-5.037502	courtesy	-0.2047715
-5.338532	courthouse	-0.1711386
-5.037502	courts	-0.1702915
-5.037502	courtside	-0.1994597
-5.338532	courtyard	-0.2082318
-5.037502	cousin	-0.1984645
-5.037502	cousins	-0.2806792
-3.976804	cover	-0.3882167
-4.736472	coverage	-0.3955162
-4.736472	covered	-0.218037
-5.338532	covers	-0.1711386
-5.037502	covert	-0.2083095
-5.338532	coveted	-0.2083175
-5.338532	cow	-0.1711386
-5.037502	coward	-0.1681906
-4.639562	cowboy	-0.2040584
-5.338532	cowboys	-0.205179
-5.338532	cower	-0.2056001
-5.037502	cox	-0.1991486
-4.861411	coxy	-0.1706979
-4.38429	crack	-0.2079498
-5.037502	cracked	-0.3166753
-5.338532	cracker	-0.2056141
-5.338532	crackerjack	-0.1711386
-4.736472	cracking	-0.2061329
-4.736472	crackling	-0.7291366
-5.037502	crackpot	-0.1711212
-5.338532	cracks	-0.2080445
-5.338532	cradle	-0.1904569
-4.493434	craft	-0.2210766
-5.338532	cranberries	-0.1711386
-5.037502	crank	-0.2806792
-5.037502	cranks	-0.2048177
-4.493434	crap	-0.2729151
-4.736472	crash	-0.2127905
-5.037502	crashed	-0.2027849
-5.037502	crashes	-0.3160518
-4.861411	crawford	-0.4483156
-5.338532	crawled	-0.2071347
-5.338532	crazier	-0.1711386
-3.876134	crazy	-0.4673494
-4.861411	creaking	-0.2778558
-4.861411	creaks	-0.2047756
-4.639562	cream	-0.2085053
-5.037502	creases	-0.1677163
-5.037502	create	-0.3124002
-4.493434	created	-0.2418246
-5.338532	creation	-0.1711386
-5.338532	credibility	-0.1711386
-5.338532	credit	-0.2082956
-5.338532	creepier	-0.1711386
-5.338532	creeping	-0.2083175
-5.037502	creeps	-0.1614824
-5.037502	creepy	-0.1704763
-5.338532	creepylooking	-0.2083175
-4.736472	crescent	-0.7308931
-4.338532	crew	-0.3081248
-5.338532	crews	-0.2066571
-5.037502	cries	-0.1698478
-4.493434	crime	-0.18426
-5.338532	crimes	-0.2051288
-4.435442	criminal	-0.1912918
-4.861411	criminals	-0.2059628
-5.338532	crippling	-0.2083155
-5.338532	crisis	-0.205179
-5.037502	critical	-0.2082558
-5.037502	crock	-0.1681906
-5.338532	crocodile	-0.2083115
-5.037502	crook	-0.151643
-5.338532	crooks	-0.2080744
-5.338532	crop	-0.1711386
-4.736472	cross	-0.1977099
-4.560381	crossed	-0.2297131
-5.338532	crosses	-0.1994638
-5.338532	crossing	-0.1994841
-5.338532	crow	-0.205169
-4.38429	crowd	-0.3049411
-5.338532	crowds	-0.2051288
-5.338532	crude	-0.2083036
-4.861411	cruel	-0.1671407
-5.338532	cruise-ship	-0.2083135
-5.338532	crumble	-0.205169
-5.338532	crunching	-0.2065111
-5.338532	crusader	-0.204653
-5.338532	crushes	-0.1711386
-4.338532	cry	-0.1638209
-5.338532	crybaby	-0.1711386
-4.259351	crying	-0.3064584
-5.338532	cryo-sleep	-0.206149
-5.338532	crystalline	-0.2083155
-5.338532	crystals	-0.1711386
-5.338532	cub	-0.2083055
-5.338532	cuban	-0.1904569
-5.338532	cuda	-0.1904569
-5.338532	cuddle	-0.2071747
-4.861411	cue	-0.1515999
-5.338532	cultural	-0.2083175
-5.037502	culture	-0.1871736
-4.338532	cunt	-0.2497653
-5.338532	cuntish	-0.2077096
-4.861411	cunts	-0.2370199
-4.861411	cup	-0.2375386
-5.037502	cups	-0.2999975
-5.338532	curative	-0.2083055
-5.338532	curb	-0.1994638
-4.560381	cure	-0.4245379
-5.037502	cure-all	-0.2806792
-5.338532	curfew	-0.1904569
-4.861411	curious	-0.2313595
-5.338532	curled	-0.202795
-4.736472	current	-0.2595397
-5.037502	currently	-0.2083075
-5.338532	curry	-0.1711386
-4.639562	curse	-0.2495663
-5.338532	cursing	-0.2076657
-5.037502	curtain	-0.1900894
-5.338532	cusp	-0.1711386
-4.861411	custody	-0.4483156
-4.861411	customer	-0.2066231
-5.037502	customers	-0.16936
-5.338532	customization	-0.1994638
-3.794464	cut	-0.4531094
-4.38429	cute	-0.5445483
-5.338532	cuts	-0.2082876
-5.338532	cutters	-0.1994638
-4.736472	cutting	-0.2586582
-5.338532	cyber-blast	-0.2077275
-5.338532	cycles	-0.2051288
-5.338532	cyclist	-0.2077415
-4.736472	d	-0.206925
-5.037502	d-listed	-0.1897569
-5.037502	d.c.	-0.262224
-5.338532	d.d.o.	-0.2049382
-5.037502	d.n.a.	-0.1519198
-4.861411	da	-0.22152
-5.338532	dabbling	-0.2056001
-3.399013	dad	-0.6545747
-4.162441	daddy	-0.1354077
-5.338532	daffodils	-0.1994638
-5.037502	daft	-0.1710908
-4.736472	daily	-0.3978794
-5.338532	dallas	-0.1711386
-4.639562	dam	-0.2449115
-5.037502	damage	-0.2069829
-5.338532	damaged	-0.2082378
-3.553202	damn	-0.3082309
-5.037502	damnation	-0.2073404
-5.338532	damned	-0.1711386
-5.338532	dan	-0.204653
-4.134412	dance	-0.2494572
-5.338532	dancin	-0.2076657
-4.493434	dancing	-0.2446054
-5.338532	dander	-0.1711386
-4.861411	dang	-0.254576
-4.259351	danger	-0.3270799
-5.037502	danger-close	-0.2806792
-5.037502	dangerclose	-0.2806792
-4.08326	dangerous	-0.2434852
-5.338532	dangerously	-0.2082139
-5.338532	daniels	-0.1994638
-4.560381	danil	-0.1884515
-4.29714	darcy	-0.2027639
-4.736472	dare	-0.3783637
-5.338532	daring	-0.2076577
-4.38429	dark	-0.2133058
-5.338532	darkened	-0.2083036
-5.037502	darker	-0.2078611
-5.037502	darkest	-0.3177764
-4.736472	darkness	-0.1612006
-5.338532	darlin	-0.2076657
-4.259351	darling	-0.4625068
-5.037502	darpa	-0.2806792
-5.338532	darting	-0.2072565
-4.861411	darts	-0.1614736
-4.639562	dash	-0.2327735
-5.338532	dash-dash-dash	-0.1711386
-5.338532	dash-dot	-0.1711386
-5.338532	dashes	-0.1904569
-4.08326	data	-0.3443587
-4.861411	database	-0.2383471
-4.192404	date	-0.3837114
-5.338532	datebook	-0.2079668
-4.736472	dates	-0.693764
-5.338532	dating	-0.2082916
-3.833382	daughter	-0.5552006
-5.338532	daughter-in-law	-0.1711386
-5.037502	daughters	-0.1677163
-4.560381	dave	-0.2583633
-4.736472	david	-0.2224557
-5.037502	davies	-0.1676616
-4.861411	davis	-0.2313595
-5.037502	dawn	-0.2806792
-3.162441	day	-0.3630145
-3.705064	days	-0.4274344
-5.037502	dc	-0.2806792
-4.736472	dcpd	-0.2029575
-5.338532	ddo	-0.1711386
-5.037502	de	-0.2083115
-5.037502	deacon	-0.3170427
-5.338532	deactivate	-0.2083115
-5.338532	deactivated	-0.1711386
-5.037502	deactivation	-0.2082617
-3.499683	dead	-0.59423
-5.338532	deadline	-0.1711386
-5.037502	deadly	-0.3178322
-5.037502	deaf	-0.2806792
-5.338532	deafening	-0.2082657
-3.725748	deal	-0.5242146
-5.037502	dealer	-0.2806792
-4.435442	dealing	-0.5759519
-4.861411	deals	-0.155682
-5.338532	dealt	-0.2069849
-4.162441	dear	-0.2776543
-5.338532	dearest	-0.2083175
-5.338532	dearly	-0.1711386
-3.833382	death	-0.4042168
-5.338532	debatable	-0.1711386
-5.037502	debate	-0.2806792
-5.037502	debates	-0.2055721
-5.338532	debauchery	-0.1711386
-5.037502	debrief	-0.151643
-5.338532	debris	-0.2017043
-4.435442	debt	-0.2733496
-5.037502	debtors	-0.1704263
-5.037502	debts	-0.1710387
-5.338532	debuted	-0.2058706
-5.037502	decadence	-0.2999975
-5.037502	decades	-0.1693818
-5.338532	deceased	-0.1994638
-5.338532	decelerate	-0.1711386
-5.338532	decency	-0.1904569
-4.861411	decent	-0.1962461
-4.435442	decide	-0.2479586
-4.493434	decided	-0.2185022
-5.338532	decides	-0.2074382
-5.338532	deciding	-0.2074382
-4.560381	decision	-0.269536
-5.338532	decisions	-0.2042873
-4.560381	decitabine	-0.2800685
-4.861411	deck	-0.2370199
-5.338532	declare	-0.2083095
-4.861411	declared	-0.2053716
-5.338532	declining	-0.2028596
-5.338532	decor	-0.2079169
-5.338532	decorum	-0.1711386
-5.338532	decreasing	-0.1711386
-5.338532	decrypt	-0.1994638
-5.338532	dedicated	-0.2017043
-5.338532	deed	-0.205179
-5.037502	deem	-0.3178561
-4.435442	deep	-0.2187904
-5.037502	deeper	-0.1708499
-5.338532	deepest	-0.206891
-4.435442	deeply	-0.6025493
-5.037502	deer	-0.1681753
-5.338532	default	-0.1711386
-5.037502	defeat	-0.2082458
-5.338532	defeatist	-0.2082896
-5.037502	defector	-0.2024297
-5.338532	defence	-0.1711386
-5.037502	defend	-0.3177406
-5.338532	defense	-0.2083055
-5.338532	defenses	-0.2066571
-5.338532	defensive	-0.2083155
-5.338532	deferiprone	-0.1526834
-5.338532	deferred	-0.1711386
-5.037502	deficiency	-0.2806792
-4.861411	define	-0.1944709
-5.338532	defining	-0.2028596
-4.08326	definitely	-0.2255881
-5.338532	deflated	-0.2082179
-5.338532	degas	-0.1711386
-5.338532	degenerate	-0.2017043
-5.338532	degeneration	-0.1711386
-5.037502	degenerative	-0.3178501
-5.338532	degrading	-0.2017043
-4.861411	degree	-0.2313595
-4.493434	degrees	-0.2232235
-5.338532	dehydrated	-0.1711386
-5.037502	deity	-0.3177724
-5.338532	delancy	-0.2018034
-5.037502	delay	-0.1904549
-5.338532	delays	-0.1711386
-5.338532	delegation	-0.1711386
-5.338532	delhi	-0.2082378
-5.338532	delicate	-0.1711386
-5.037502	delicious	-0.2806792
-4.639562	delighted	-0.3661298
-5.037502	deliver	-0.1615046
-5.037502	delivered	-0.1988067
-5.338532	delivering	-0.1994841
-4.560381	delivery	-0.1923598
-4.560381	delphine	-0.2757997
-5.338532	delphinei	-0.206227
-4.493434	delta	-0.2883898
-5.338532	delusional	-0.1904569
-4.736472	demand	-0.2193634
-5.338532	demanded	-0.1904569
-5.338532	demanding	-0.2082777
-5.338532	demands	-0.1711386
-5.338532	demilitarized	-0.2083016
-5.338532	demise	-0.1711386
-5.338532	demolitions	-0.1994638
-4.861411	demon	-0.1710453
-5.338532	demons	-0.1711386
-5.338532	demonstrate	-0.2017043
-5.338532	denmark	-0.1711386
-5.338532	dentist	-0.2067411
-4.736472	denying	-0.2546732
-5.338532	depart	-0.2065111
-5.338532	departed	-0.2070628
-4.736472	department	-0.1389785
-5.338532	departmental	-0.2083175
-5.037502	departure	-0.1894596
-5.338532	depend	-0.2083016
-5.338532	depending	-0.2058706
-4.639562	depends	-0.3706727
-5.037502	deployed	-0.1681753
-5.338532	deployment	-0.1711386
-4.736472	deposit	-0.2054197
-5.338532	deposits	-0.1904569
-5.338532	depot	-0.2075021
-5.037502	depravity	-0.2046992
-5.338532	depressurize	-0.1711386
-5.338532	depressurizing	-0.1711386
-5.338532	deprived	-0.2051288
-5.338532	deranged	-0.1994638
-5.338532	derivative	-0.205179
-5.338532	derive	-0.2083135
-5.037502	derived	-0.3171883
-5.338532	derriere	-0.2042873
-4.493434	dervish	-0.2336256
-4.861411	dervishes	-0.1832812
-5.338532	descending	-0.1711386
-5.037502	descent	-0.2076836
-5.037502	describe	-0.2006757
-5.338532	described	-0.2076976
-5.338532	describes	-0.202795
-5.338532	description	-0.1711386
-5.338532	desecrate	-0.2028596
-4.435442	desert	-0.1429575
-4.162441	deserve	-0.3062529
-4.861411	deserved	-0.2349939
-5.338532	deserves	-0.2080405
-5.338532	design	-0.2083175
-5.338532	designator	-0.1994638
-4.861411	designed	-0.1982933
-5.037502	designer	-0.2082577
-5.338532	designing	-0.2077774
-4.493434	desire	-0.1075415
-4.29714	desk	-0.193678
-4.736472	desperate	-0.1646458
-5.338532	desperately	-0.2081621
-4.861411	despite	-0.1949293
-5.338532	despondent	-0.1711386
-5.037502	destination	-0.1681906
-5.037502	destined	-0.3112449
-5.338532	destiny	-0.1711386
-4.736472	destro	-0.1394543
-4.134412	destroy	-0.2762991
-4.435442	destroyed	-0.2623484
-5.338532	destroying	-0.2082657
-5.037502	destruction	-0.3146694
-4.560381	detach	-0.1846212
-4.736472	detail	-0.693764
-4.639562	details	-0.1890934
-5.338532	detained	-0.2080106
-5.037502	detected	-0.3124002
-5.338532	detecting	-0.2083095
-4.192404	detective	-0.405163
-5.338532	detention	-0.1711386
-5.037502	detonate	-0.2076178
-5.338532	detour	-0.204653
-5.338532	devastated	-0.1711386
-5.037502	develop	-0.3178541
-5.037502	developed	-0.1651873
-5.037502	deviate	-0.3171883
-4.861411	device	-0.2757396
-5.338532	devices	-0.1904569
-4.435442	devil	-0.2102358
-5.037502	dharavi	-0.3090044
-5.338532	diablo	-0.1526834
-5.338532	diagnoses	-0.2056141
-5.338532	diagnosis	-0.1711386
-5.037502	diagnostics	-0.3178242
-5.338532	dialling	-0.2065111
-5.037502	dialogue	-0.3160518
-4.861411	diamond	-0.2777302
-5.338532	diana	-0.1904569
-5.037502	diaper	-0.2806792
-5.037502	diaz	-0.2806792
-5.338532	dicey	-0.1904569
-4.338532	dick	-0.242893
-5.338532	dick-splash	-0.1711386
-5.338532	dickhead	-0.1711386
-5.338532	dickheads	-0.1711386
-5.037502	dicks	-0.1700958
-5.338532	dickswinging	-0.2083175
-4.861411	dicky	-0.1711299
-5.037502	dictionary	-0.2031499
-2.821336	did	-0.7367314
-2.969316	didn	-2.367132
-3.379491	die	-0.485588
-4.162441	died	-0.2182462
-5.338532	diego	-0.2080067
-4.861411	dies	-0.1515999
-5.338532	diesel	-0.2083175
-4.493434	diet	-0.7344868
-4.560381	difference	-0.1382365
-3.833382	different	-0.2480354
-5.338532	differential	-0.2018034
-4.861411	differently	-0.149169
-4.736472	difficult	-0.2029665
-5.338532	difficulty	-0.2069849
-4.736472	dig	-0.1577547
-4.861411	digging	-0.2370199
-5.338532	digging.-	-0.1526834
-5.338532	dignified	-0.1711386
-5.338532	dignity	-0.205169
-5.037502	dime	-0.3154112
-4.861411	dimension	-0.2366211
-4.493434	dimensions	-0.1930145
-5.338532	dimes	-0.2078631
-5.338532	dined	-0.2054658
-5.037502	diner	-0.2056402
-5.338532	dinging	-0.2065111
-4.639562	dings	-0.6839771
-5.338532	dining	-0.2083095
-4.108083	dinner	-0.6024607
-5.037502	dip	-0.1681753
-5.338532	diplomatic	-0.1904569
-5.338532	dipped	-0.1904569
-5.338532	dipping	-0.2077115
-5.037502	dipshit	-0.151643
-5.037502	direct	-0.2082697
-5.338532	directed	-0.2083155
-5.037502	direction	-0.2999975
-5.037502	directive	-0.2054357
-4.861411	directly	-0.2534388
-4.38429	director	-0.2022622
-5.338532	directors	-0.1711386
-4.736472	dirt	-0.2180611
-4.435442	dirty	-0.2329755
-5.338532	disable	-0.1994841
-4.861411	disabled	-0.2349939
-5.338532	disagreement	-0.204653
-4.639562	disappear	-0.2101156
-4.639562	disappeared	-0.2556868
-5.338532	disappearing	-0.2080545
-5.338532	disappears	-0.1526834
-5.338532	disappoint	-0.2054658
-4.560381	disappointed	-0.2825606
-5.037502	disappointing	-0.2081681
-5.338532	disapprovingly	-0.2075021
-5.338532	disarm	-0.202795
-5.338532	disarmament	-0.1711386
-5.037502	disaster	-0.1676616
-5.338532	disastrous	-0.2082637
-5.338532	disbanded	-0.1711386
-5.338532	discard	-0.1994841
-5.338532	discharge	-0.1711386
-5.338532	discharged	-0.1711386
-5.338532	discharging	-0.1955266
-5.037502	discipline	-0.1681753
-5.338532	disclosure	-0.1711386
-5.338532	discouraged	-0.1711386
-5.338532	discover	-0.2083115
-5.338532	discovered	-0.2042873
-5.338532	discovering	-0.2042873
-5.338532	discovers	-0.2042873
-5.338532	discretion	-0.2082996
-5.037502	discuss	-0.2050406
-5.338532	discussing	-0.206227
-5.338532	discussion	-0.1711386
-4.560381	disease	-0.1848689
-5.338532	diseases	-0.1711386
-5.338532	disgrace	-0.1711386
-5.338532	disgraceful	-0.2082737
-5.338532	disguise	-0.1711386
-5.338532	disgust	-0.2065111
-4.639562	disgusting	-0.2116742
-5.338532	dish	-0.202795
-5.338532	disharmony	-0.2056001
-5.338532	disillusioned	-0.206149
-5.338532	disintegrate	-0.2056001
-5.338532	disloyal	-0.2079149
-5.338532	disorientation	-0.2056141
-5.338532	dispatch	-0.2083135
-5.338532	disposable	-0.2083095
-5.338532	disrespect	-0.205179
-5.338532	disrespectful	-0.2017043
-5.338532	disrupt	-0.1994841
-5.338532	disrupted	-0.206217
-5.338532	dissimilar	-0.1904569
-4.861411	distance	-0.156484
-4.861411	distant	-0.2081641
-5.338532	distillery	-0.2083095
-5.037502	distinct	-0.3178561
-5.338532	distinctly	-0.2065111
-5.037502	distinguished	-0.2083036
-5.338532	distorted	-0.2080445
-5.338532	distorting	-0.2083155
-5.338532	distortions	-0.2017043
-5.338532	distracted	-0.205179
-5.338532	distraction	-0.1711386
-4.861411	distress	-0.2778199
-5.338532	distribution	-0.1711386
-5.338532	district	-0.2083075
-5.037502	disturb	-0.2066911
-5.037502	disturbance	-0.2043054
-5.338532	disturbing	-0.1955266
-5.338532	divers	-0.1711386
-5.037502	diversion	-0.1101643
-5.338532	diversity	-0.1711386
-5.037502	divert	-0.3178422
-5.338532	divide	-0.1994841
-5.338532	divided	-0.1904569
-5.338532	divine	-0.2082657
-5.338532	division	-0.2078711
-4.861411	divorce	-0.1584679
-5.037502	divorced	-0.151643
-5.338532	divorcing	-0.1955266
-5.037502	djinns	-0.2014858
-5.338532	dmz	-0.1711386
-4.736472	dna	-0.3146554
-2.409113	do	-0.923187
-4.736472	doc	-0.351134
-5.338532	dock	-0.1711386
-5.338532	docket	-0.1711386
-4.639562	docking	-0.315644
-3.820018	doctor	-0.473814
-5.338532	doctors	-0.1994638
-4.861411	document	-0.2313595
-5.338532	documents	-0.1904569
-5.338532	dod	-0.2082239
-5.338532	dodge	-0.1994638
-5.338532	dodged	-0.2028596
-5.338532	dodgy	-0.2083175
-3.370049	does	-0.5645721
-3.38429	doesn	-1.955106
-4.162441	dog	-0.3582193
-4.736472	dogging	-0.1579538
-5.037502	dogs	-0.151643
-4.861411	doin	-0.4848427
-3.189313	doing	-0.5497784
-4.736472	doke	-0.3795062
-4.639562	dollar	-0.1483489
-4.861411	dollars	-0.1480515
-5.338532	dolph	-0.205169
-4.861411	dom	-0.1705067
-5.338532	dominating	-0.1994841
-4.861411	dominic	-0.1608385
-5.338532	domino	-0.2082916
-5.338532	dominos	-0.1994638
-2.404539	don	-2.930563
-4.736472	donald	-0.2183635
-3.329932	done	-0.4135066
-4.435442	donna	-0.1362377
-4.639562	donor	-0.1986317
-5.338532	donovan	-0.2083095
-5.338532	doofus	-0.2080565
-5.338532	doomed	-0.1711386
-3.430047	door	-0.4916322
-4.560381	doorbell	-0.3250213
-4.016313	doors	-0.2973256
-5.037502	doorway	-0.2059307
-5.338532	doozy	-0.1711386
-4.435442	dope	-0.4262108
-5.338532	dormant	-0.2082279
-5.338532	dosage	-0.2017043
-5.037502	dot	-0.2806792
-5.338532	dot-dash-dot-dot	-0.1711386
-5.338532	dot-dot	-0.205179
-5.338532	dot-dot-dash-dot	-0.1711386
-5.338532	dots	-0.205169
-5.338532	dotty	-0.2083175
-3.996109	double	-0.2734948
-5.037502	double-glazing	-0.1711277
-5.338532	doubleglazed	-0.2083155
-4.861411	doubleglazing	-0.2081382
-4.338532	doubt	-0.1808251
-5.338532	doubtful	-0.1711386
-5.338532	doubts	-0.1711386
-5.037502	douche	-0.151643
-5.338532	dough	-0.1904569
-2.854232	down	-0.9347718
-5.338532	down.i	-0.2082856
-5.338532	downfield	-0.2056141
-5.338532	downgrades	-0.1711386
-4.736472	downstairs	-0.211762
-5.338532	downturn	-0.2056001
-4.338532	doyle	-0.3089821
-5.338532	doyouknowwhereheis	-0.1994638
-5.338532	doyouread	-0.1994638
-5.338532	dozen	-0.2083155
-5.338532	dr	-0.2083175
-3.506023	dr.	-0.9087346
-5.338532	draft	-0.1711386
-5.338532	drag	-0.2055861
-5.338532	dragging	-0.1994841
-5.338532	dragons	-0.1994638
-5.338532	dragunov	-0.1711386
-5.338532	dragunovs	-0.205169
-5.037502	drain	-0.2806792
-5.037502	drama	-0.206143
-5.338532	dramamine	-0.1711386
-5.037502	dramatic	-0.2081681
-5.338532	drastically	-0.1711386
-5.338532	drawback	-0.1711386
-5.338532	drawer	-0.1711386
-5.338532	drawing	-0.2082916
-3.940592	dream	-0.4853251
-5.338532	dreamcoat	-0.2056001
-5.338532	dreamed	-0.2051288
-4.560381	dreaming	-0.2810309
-4.38429	dreams	-0.3059935
-5.338532	dreary	-0.2083135
-4.29714	dress	-0.1382499
-4.861411	dressed	-0.1584523
-5.037502	dressing	-0.2071148
-4.861411	dreyfus	-0.147463
-5.338532	dried	-0.2083175
-5.338532	driftin	-0.2076657
-4.736472	drill	-0.1636601
-5.338532	drills	-0.1711386
-3.833382	drink	-0.2075936
-5.037502	drinker	-0.151643
-4.134412	drinking	-0.5817058
-4.736472	drinks	-0.2031338
-5.037502	dripping	-0.3160518
-5.338532	drivable	-0.1711386
-3.758749	drive	-0.4354897
-5.037502	driven	-0.2079708
-4.38429	driver	-0.3498336
-4.639562	drives	-0.3471238
-5.037502	driveway	-0.1771186
-5.338532	drivin	-0.2076657
-4.29714	driving	-0.1574243
-3.996109	drone	-0.3093592
-3.976804	drones	-0.2495133
-3.69508	drop	-0.3596094
-5.338532	dropout	-0.1904569
-4.493434	dropped	-0.2633522
-4.736472	dropping	-0.2528723
-5.037502	drops	-0.3160518
-4.639562	drove	-0.1925461
-5.338532	drown	-0.2082757
-4.493434	drug	-0.1697846
-4.38429	drugs	-0.09750719
-4.29714	drunk	-0.3509379
-5.037502	drunkard	-0.3176071
-4.736472	drunken	-0.3172621
-5.037502	drunks	-0.2070708
-4.861411	dry	-0.2005824
-5.338532	dsp	-0.2083135
-4.861411	dual	-0.2781905
-5.338532	dubbed	-0.1526834
-5.037502	duck	-0.1709671
-5.338532	ducky	-0.1711386
-4.259351	dude	-0.3861712
-5.338532	dudes	-0.1904569
-5.037502	duds	-0.2043798
-4.38429	due	-0.5439302
-5.037502	dug	-0.1681753
-4.259351	duke	-0.295215
-5.338532	dukes	-0.2051288
-5.338532	dull	-0.1526834
-4.560381	dumb	-0.2204007
-4.861411	dumb-ass	-0.2370199
-5.338532	dumber	-0.1711386
-5.338532	dumbest	-0.2083115
-4.560381	dump	-0.3076343
-5.037502	dumped	-0.1704067
-5.338532	dumpster	-0.2058706
-5.338532	dunes	-0.2065331
-4.192404	during	-0.2923273
-4.224589	dust	-0.2750704
-5.338532	dusty	-0.1711386
-4.861411	duties	-0.1599956
-4.493434	duty	-0.1344093
-5.338532	dv27	-0.2083175
-4.861411	dvd	-0.2383471
-5.338532	dwarf	-0.2083155
-5.338532	dwarves	-0.1904569
-5.338532	dwell	-0.2056001
-5.338532	dyin	-0.2076657
-4.493434	dying	-0.2095702
-4.861411	dynamite	-0.2713527
-5.338532	dyno	-0.2081422
-5.037502	dysfunctional	-0.1904424
-4.861411	e	-0.2055139
-3.907168	each	-0.6888177
-4.861411	ear	-0.1660926
-4.192404	earl	-0.3436552
-4.162441	earlier	-0.404842
-4.192404	early	-0.5289708
-4.736472	earned	-0.2266901
-5.338532	earphones	-0.2065111
-5.338532	earpiece	-0.2083016
-5.338532	earplugs	-0.1711386
-4.38429	ears	-0.2488273
-3.606138	earth	-0.5920008
-5.338532	earthquakes	-0.2083175
-5.338532	earths	-0.1711386
-4.560381	ease	-0.1881428
-4.861411	easier	-0.1812636
-5.338532	easily	-0.2067571
-5.338532	easing	-0.2071747
-4.259351	east	-0.1536304
-5.338532	easter	-0.2083175
-5.338532	eastern	-0.2083036
-3.77033	easy	-0.459432
-3.976804	eat	-0.1398882
-5.037502	eaten	-0.2080884
-4.861411	eating	-0.205528
-5.338532	echelon	-0.2082398
-4.736472	echo	-0.2029665
-5.338532	echo-mike	-0.205179
-5.338532	eclectic	-0.1711386
-5.338532	ecology	-0.2073624
-5.338532	economy	-0.2083175
-5.338532	ecstasy	-0.1711386
-4.38429	eddie	-0.195814
-5.338532	edgar	-0.1711386
-4.560381	edge	-0.4401564
-4.639562	editor	-0.4070966
-4.192404	edmunds	-0.6416184
-5.338532	educated	-0.1711386
-5.037502	edward	-0.2078831
-5.338532	eejit	-0.1711386
-5.338532	eerie	-0.2081721
-5.037502	effect	-0.2806792
-4.338532	effective	-0.9040406
-5.338532	effects	-0.2083175
-5.338532	efficient	-0.1711386
-5.338532	effing	-0.2082796
-4.560381	efforts	-0.2312618
-5.037502	egg	-0.2806792
-5.338532	eggheads	-0.2065331
-5.338532	eggs	-0.2069849
-5.037502	eglitis	-0.1988738
-5.338532	ego	-0.2083175
-5.338532	egypt	-0.205169
-4.016313	eh	-1.3035
-4.162441	eight	-0.2210645
-4.639562	eight-ball	-0.2327735
-5.338532	eighteen	-0.2083175
-5.037502	eighth	-0.3178222
-5.338532	eighty	-0.204653
-5.338532	einsargen	-0.1711386
-5.037502	einstein	-0.1836651
-4.108083	either	-0.593688
-4.639562	eject	-0.2427294
-4.38429	el	-0.3652851
-5.338532	elbow	-0.1994638
-5.338532	elder	-0.2017043
-5.338532	elect	-0.2081521
-4.736472	electric	-0.2596313
-5.037502	electrical	-0.2083135
-5.338532	electrician	-0.1711386
-4.639562	electricity	-0.3528101
-5.037502	electronic	-0.3177127
-5.338532	electronically	-0.1711386
-5.338532	electronics	-0.1711386
-5.338532	element	-0.2051288
-5.037502	elements	-0.1999636
-4.861411	elephant	-0.2313595
-4.224589	elevator	-0.2227657
-5.338532	elevators	-0.1711386
-4.338532	elf	-0.413924
-5.338532	eliminate	-0.1994841
-5.338532	eliminated	-0.1711386
-4.861411	elite	-0.2781766
-4.08326	elizabeth	-0.2405671
-3.923559	ellen	-0.64834
-5.338532	ellesmere	-0.1711386
-4.639562	ellie	-0.1367219
-5.338532	elope	-0.2069849
-3.539192	else	-0.5050251
-5.338532	elsewhere	-0.1904569
-5.338532	elusive	-0.205169
-4.037502	em	-0.3054286
-4.736472	embarrass	-0.3021279
-4.560381	embarrassed	-0.4356559
-5.338532	embarrassing	-0.2055861
-5.338532	embedded	-0.2069849
-5.338532	embodied	-0.2082856
-5.338532	embodiment	-0.2051288
-5.338532	embody	-0.1994841
-5.037502	embrace	-0.1988067
-5.037502	embroiled	-0.3151407
-5.037502	emeli	-0.2083155
-5.338532	emerald	-0.2082677
-4.38429	emergency	-0.1833912
-4.736472	emil	-0.730933
-5.338532	emma	-0.2083115
-5.338532	emotion	-0.2056141
-5.338532	emotional	-0.2083036
-5.338532	empathy	-0.2083155
-5.338532	emphasis	-0.2058706
-5.338532	employed	-0.2028596
-4.639562	employee	-0.2330748
-5.037502	employees	-0.3138279
-5.338532	employer	-0.1711386
-5.037502	emptier	-0.317635
-4.736472	empty	-0.2028281
-5.338532	emr	-0.1711386
-4.338532	en	-1.041371
-5.338532	enabled	-0.1711386
-5.338532	enamoured	-0.2051288
-5.338532	enchiladas	-0.1904569
-5.338532	enclosed	-0.2056001
-5.037502	encoded	-0.2055781
-5.338532	encodes	-0.1526834
-4.861411	encountered	-0.2741382
-5.338532	encounters	-0.2051288
-5.338532	encouragement	-0.2065111
-5.037502	encouraging	-0.2806792
-5.338532	encyclopaedia	-0.1711386
-3.648336	end	-0.5464574
-5.338532	endears	-0.1955266
-5.037502	ended	-0.2068031
-5.338532	ending	-0.1711386
-5.037502	endless	-0.3178561
-4.493434	ends	-0.1718456
-4.435442	endurance	-0.2109606
-4.639562	enemies	-0.1260601
-4.108083	enemy	-0.4718702
-4.560381	energy	-0.2169181
-5.338532	enforced	-0.2083175
-5.338532	enforcement	-0.1994638
-5.338532	eng	-0.1973567
-4.38429	engage	-0.4330009
-4.861411	engaged	-0.1783304
-5.338532	engaging	-0.2082816
-5.338532	engin	-0.205179
-3.820018	engine	-0.4884632
-4.861411	engineer	-0.1708043
-5.338532	engineered	-0.1904569
-5.037502	engineering	-0.2073564
-5.338532	engineers	-0.1711386
-4.259351	engines	-0.2035006
-4.560381	english	-0.2088829
-5.338532	englishman	-0.1711386
-5.338532	englishmen	-0.205169
-4.08326	enjoy	-0.4037994
-4.639562	enjoyed	-0.2419526
-4.435442	enjoying	-0.1917128
-5.338532	enlighten	-0.2054658
-5.338532	enlist	-0.2056001
-5.338532	enlisted	-0.1994841
-3.435442	enough	-0.5563303
-5.338532	enrichment	-0.2083115
-4.861411	ensure	-0.2672153
-4.639562	enter	-0.2450502
-4.639562	entered	-0.3127025
-4.639562	entering	-0.2391588
-5.338532	enterprise	-0.2058706
-5.037502	entertaining	-0.1101643
-5.338532	entertainment	-0.2081681
-5.338532	enthusiasm	-0.1711386
-4.134412	entire	-0.2190272
-5.338532	entirely	-0.2083175
-5.338532	entitled	-0.2017043
-5.037502	entrance	-0.2806792
-5.037502	entrepreneur	-0.3146694
-5.338532	entrepreneurial	-0.2083075
-5.338532	entrusted	-0.2069849
-5.037502	entry	-0.2806792
-5.338532	envelope	-0.1711386
-4.736472	environment	-0.1558529
-5.338532	environments	-0.2017043
-5.338532	enzyme	-0.2083175
-5.338532	enzymes	-0.2067691
-5.037502	eos	-0.3178442
-5.037502	equals	-0.3090044
-4.560381	equation	-0.198526
-4.639562	equipment	-0.168254
-5.338532	equipped	-0.2017043
-4.435442	er	-0.4195483
-5.037502	era	-0.3146694
-5.338532	ergo	-0.2065431
-5.338532	erm	-0.1904569
-5.338532	erotic	-0.2082916
-5.338532	errand	-0.1711386
-5.338532	erratic	-0.205169
-5.338532	error	-0.1904569
-5.338532	errr	-0.205179
-5.338532	erupted	-0.2056001
-5.037502	es	-0.2082817
-5.338532	escalate	-0.1711386
-4.560381	escape	-0.3220303
-5.338532	escaped	-0.1711386
-5.338532	escapes	-0.2042873
-4.861411	escaping	-0.274301
-4.861411	escort	-0.2631681
-4.861411	eskimo	-0.1639007
-4.560381	eskimos	-0.1394496
-4.224589	especially	-0.3407696
-5.338532	espionage	-0.2051288
-5.338532	essential	-0.2056001
-4.493434	essex	-0.1994128
-5.037502	establish	-0.2073584
-5.037502	established	-0.2806792
-5.338532	establishment	-0.1711386
-4.338532	estate	-0.2538108
-5.338532	esther	-0.2076238
-5.037502	estimated	-0.2076577
-5.338532	estuary	-0.2079169
-4.736472	et	-0.1711017
-5.037502	eta	-0.1835618
-4.861411	eternity	-0.2370199
-5.037502	etiquette	-0.2034159
-5.037502	eubanks	-0.2999975
-5.037502	eureka	-0.3141936
-5.037502	euro	-0.3176629
-5.338532	european	-0.2083016
-4.338532	euros	-0.251963
-4.639562	ev	-0.3538456
-5.338532	evac	-0.2075021
-4.861411	evacuate	-0.2693428
-5.338532	evacuation	-0.2082976
-5.338532	evaluated	-0.1711386
-4.108083	evan	-0.4993053
-5.037502	evasive	-0.151643
-4.736472	eve	-0.351134
-3.198653	even	-0.1746201
-3.996109	evening	-1.07516
-5.338532	evenings	-0.1904569
-4.639562	event	-0.1634526
-4.736472	events	-0.2069769
-4.29714	eventually	-0.277497
-3.409113	ever	-0.1769264
-5.338532	everest	-0.1711386
-3.342897	every	-0.4341521
-3.77033	everybody	-0.2331042
-5.338532	everyday	-0.2067691
-3.606138	everyone	-0.261844
-3.379491	everything	-0.4546932
-4.29714	everywhere	-0.4103617
-5.338532	eviction	-0.2083016
-4.435442	evidence	-0.2028597
-4.338532	evil	-0.4545527
-4.493434	evolution	-0.2087478
-5.037502	evolutionary	-0.3178461
-5.338532	evolved	-0.2082856
-4.639562	ex	-0.2959504
-5.338532	ex-cop	-0.1711386
-5.338532	ex-husband	-0.1711386
-5.338532	ex-mercenary	-0.1904569
-5.338532	ex-military	-0.2082577
-5.338532	ex-mites	-0.1711386
-5.338532	ex-musicians	-0.1711386
-5.338532	ex-president	-0.1711386
-5.338532	ex-special	-0.2083075
-5.338532	ex-wdcpd	-0.1904569
-5.338532	ex-wife	-0.1904569
-5.338532	exact	-0.2082856
-3.747468	exactly	-0.4826112
-5.338532	exaggerated	-0.1711386
-5.037502	example	-0.1676616
-5.338532	examples	-0.205179
-5.338532	exasperated	-0.2083175
-5.338532	exband	-0.2083135
-5.338532	excel	-0.2056001
-4.493434	excellent	-0.2455528
-4.29714	except	-0.2725998
-5.338532	exception	-0.1711386
-5.037502	exchange	-0.151643
-4.639562	excited	-0.2480602
-4.861411	excites	-0.2624643
-5.338532	exciting	-0.206149
-4.259351	exclaims	-0.6720167
-5.338532	excluding	-0.1994841
-5.037502	exclusive	-0.3178561
-5.037502	exclusively	-0.3112449
-5.338532	excruciating	-0.1904569
-3.940592	excuse	-1.108717
-5.338532	excused	-0.2082498
-5.037502	execs	-0.1966882
-5.037502	execute	-0.1688477
-5.338532	executed	-0.2072346
-5.338532	executing	-0.1711386
-5.037502	executions	-0.1677053
-5.338532	executive	-0.1994638
-4.861411	exercise	-0.2313595
-5.338532	exercises	-0.2066571
-5.338532	exercising	-0.2075021
-5.338532	exfil	-0.1711386
-4.38429	exhales	-0.4430843
-5.338532	exhaust	-0.1904569
-4.736472	exhausted	-0.3601669
-5.338532	exhausting	-0.2081242
-5.338532	exile	-0.1994638
-5.338532	exiled	-0.2017043
-4.29714	exist	-0.2888893
-5.338532	existed	-0.1711386
-4.639562	existence	-0.1941747
-5.338532	exists	-0.2082796
-5.338532	exit	-0.1711386
-5.338532	exiting	-0.2071747
-5.338532	exits	-0.1526834
-5.338532	exorcism	-0.1711386
-5.037502	exotic	-0.2806792
-5.037502	expand	-0.2806792
-5.037502	expansion	-0.2067891
-4.224589	expect	-0.1751276
-5.338532	expectancy	-0.2051288
-5.037502	expected	-0.151643
-4.493434	expecting	-0.408791
-5.338532	expedite	-0.206217
-5.338532	expedition	-0.1711386
-5.338532	expeditions	-0.1711386
-5.338532	expense	-0.2083115
-5.338532	expenses	-0.1711386
-4.560381	expensive	-0.1467015
-4.639562	experience	-0.1471306
-5.338532	experiencing	-0.2077694
-5.338532	experiment	-0.1711386
-5.037502	experimental	-0.2082338
-5.338532	experimenting	-0.2076657
-5.338532	expert	-0.2058706
-5.338532	expertise	-0.2058706
-5.338532	experts	-0.2066571
-4.38429	explain	-0.2436821
-4.861411	explained	-0.1608985
-5.338532	explaining	-0.2074182
-5.338532	explains	-0.202795
-4.639562	explode	-0.5080521
-5.037502	exploration	-0.1706501
-5.338532	explored	-0.1994638
-4.861411	explorers	-0.22152
-4.861411	explosion	-0.4483156
-5.338532	exponential	-0.1711386
-4.639562	exposed	-0.3406765
-5.338532	expression	-0.1711386
-5.338532	extend	-0.1955266
-5.037502	extends	-0.2016861
-5.338532	extinct	-0.1711386
-5.338532	extinction	-0.1711386
-5.338532	extortionate	-0.2082996
-4.736472	extra	-0.2080465
-4.736472	extract	-0.2475288
-5.338532	extracted	-0.1711386
-4.639562	extraction	-0.2015291
-5.338532	extraordinaire	-0.1711386
-4.493434	extremely	-0.2367765
-5.338532	extremity	-0.2051288
-4.162441	eye	-0.6634716
-5.037502	eye-watering	-0.1903947
-4.736472	eyeball	-0.1769366
-5.338532	eyecatching	-0.1711386
-5.338532	eyed	-0.1994638
-5.338532	eyelids	-0.2082856
-3.54614	eyes	-0.5899484
-5.338532	f-35s	-0.2083115
-5.037502	f.t.d.	-0.1876376
-5.338532	f35s	-0.2083115
-5.338532	faa	-0.1711386
-5.338532	fabric	-0.2056141
-5.338532	fabulous	-0.1711386
-3.715283	face	-0.5700968
-5.037502	faces	-0.2806792
-5.338532	facial	-0.2082617
-4.435442	facility	-0.3982129
-4.639562	facing	-0.3511896
-4.224589	fact	-0.6271715
-5.037502	factor	-0.1704936
-5.338532	factory	-0.1711386
-5.338532	facts	-0.2082677
-5.338532	fade	-0.1526834
-4.639562	fades	-0.5623959
-4.736472	fading	-0.2025125
-4.639562	fail	-0.3706727
-5.338532	fail-safe	-0.2056001
-4.560381	failed	-0.2373241
-4.639562	failure	-0.1946217
-5.338532	failures	-0.2051288
-5.037502	faint	-0.1711277
-5.338532	fainted	-0.2083155
-4.259351	fair	-0.336392
-5.338532	fairground	-0.2083175
-5.338532	fairy	-0.2083135
-3.996109	faith	-0.4736857
-5.338532	fake	-0.2080565
-5.037502	faked	-0.2001016
-5.338532	falcon	-0.204653
-4.192404	fall	-0.2952684
-4.736472	fallen	-0.3607359
-4.560381	falling	-0.1596749
-5.338532	fallout	-0.1711386
-5.037502	falls	-0.1687735
-4.560381	false	-0.3250871
-5.338532	falsehoods	-0.1994638
-5.037502	falsified	-0.2806792
-5.338532	falstaff	-0.1711386
-5.338532	fame	-0.1526834
-4.861411	families	-0.1596303
-3.614256	family	-0.2501189
-5.338532	famine	-0.1711386
-4.861411	famous	-0.276014
-4.560381	fan	-0.1901263
-5.338532	fancied	-0.2076757
-5.037502	fancies	-0.2082518
-4.224589	fancy	-0.1763766
-4.560381	fans	-0.2370794
-5.338532	fantasies	-0.1711386
-4.639562	fantastic	-0.3116591
-4.861411	fantasy	-0.1677053
-4.861411	faora	-0.4483156
-5.338532	faora-ui	-0.1711386
-5.338532	faoraui	-0.1711386
-3.614256	far	-0.3330198
-5.037502	faraway	-0.3178382
-5.338532	fare	-0.1994638
-4.639562	farm	-0.2435523
-4.861411	farmer	-0.4483156
-4.639562	farmers	-0.2362085
-4.736472	farming	-0.2611836
-4.38429	farrell	-0.2055011
-4.861411	farther	-0.1707109
-5.338532	farting	-0.2056001
-5.037502	fascinating	-0.2076378
-5.338532	fascism	-0.205169
-5.037502	fashion	-0.205167
-4.059779	fast	-0.2364686
-5.338532	fast-drop	-0.2083175
-4.29714	faster	-0.4935059
-5.037502	fastest	-0.3174137
-4.435442	fat	-0.2913737
-5.338532	fatality	-0.2083175
-4.493434	fate	-0.4365117
-4.861411	fateful	-0.2778398
-3.56768	father	-0.3861374
-5.338532	father-daughter	-0.2083155
-5.338532	fathering	-0.2082777
-4.861411	fathers	-0.1084555
-4.08326	fault	-0.5602646
-4.639562	favor	-0.3052526
-4.493434	favorite	-0.1994823
-5.338532	favors	-0.1711386
-4.560381	favour	-0.2107737
-5.338532	favourable	-0.2082378
-4.639562	favourite	-0.2080685
-5.338532	fax	-0.2082916
-5.338532	faxed	-0.2079668
-5.037502	fbi	-0.1681906
-4.192404	fear	-0.272577
-4.861411	fearful	-0.4854826
-4.861411	feast	-0.1998214
-5.037502	fed	-0.1698913
-4.861411	federal	-0.2080784
-5.338532	feds	-0.2083155
-4.560381	fee	-0.2928605
-5.338532	feeble	-0.2081262
-4.639562	feed	-0.1614469
-5.338532	feedback	-0.1994638
-4.736472	feeding	-0.1947217
-5.037502	feeds	-0.170398
-3.35176	feel	-0.3271649
-5.338532	feelin	-0.2076657
-3.807053	feeling	-0.2237681
-4.736472	feelings	-0.2387085
-4.338532	feels	-0.2427513
-4.224589	feet	-0.2295371
-4.192404	fell	-0.2766849
-5.037502	fella	-0.1687735
-4.861411	fellas	-0.22152
-5.338532	fellate	-0.1994841
-4.639562	fellow	-0.2486343
-4.162441	felt	-0.4132883
-5.338532	fema	-0.1904569
-4.736472	female	-0.2596054
-4.861411	females	-0.2748553
-4.736472	fence	-0.1051162
-5.338532	ferrari	-0.1711386
-5.338532	ferretylooking	-0.2082996
-4.861411	fetch	-0.2753147
-4.736472	fever	-0.3573569
-3.657291	few	-0.3375428
-5.338532	ffl	-0.1711386
-5.338532	fianc	-0.1711386
-5.338532	fiance'	-0.1526834
-5.338532	fiancé	-0.1526834
-5.338532	fibre	-0.1711386
-5.338532	fiddle	-0.20818
-5.037502	fide	-0.2082797
-4.29714	field	-0.4530726
-5.037502	fields	-0.2806792
-5.338532	fife	-0.206149
-5.338532	fifteenth	-0.2051288
-4.861411	fifth	-0.2075799
-5.338532	fifty	-0.2082896
-5.338532	figgered	-0.1711386
-3.940592	fight	-0.2368357
-4.861411	fighter	-0.171106
-4.435442	fighting	-0.2112791
-4.134412	figure	-0.3532689
-4.38429	figured	-0.1800325
-4.435442	file	-0.1773825
-5.037502	filed	-0.1898401
-5.037502	files	-0.3090044
-4.861411	filing	-0.4854866
-5.338532	filings	-0.2078711
-4.861411	fill	-0.2035831
-4.736472	filled	-0.2550176
-5.338532	fillers	-0.1711386
-5.338532	filling	-0.2076657
-4.861411	film	-0.2726499
-5.338532	filter	-0.206149
-5.338532	filth	-0.1711386
-4.338532	final	-0.2278411
-5.338532	finale	-0.1711386
-4.134412	finally	-0.1955966
-5.338532	finance	-0.1711386
-4.493434	financial	-0.2368382
-3.093019	find	-0.5681909
-5.338532	finder	-0.2018034
-5.037502	finders	-0.2083155
-4.38429	finding	-0.1868661
-4.861411	finds	-0.2741503
-3.582657	fine	-0.8055753
-4.861411	finest	-0.208188
-4.560381	finger	-0.2712668
-5.338532	finger-bang	-0.2081163
-4.736472	fingering	-0.1603517
-4.736472	fingerprints	-0.1378619
-4.435442	fingers	-0.190633
-4.08326	finish	-0.3597191
-4.38429	finished	-0.1350958
-5.338532	finishes	-0.1711386
-5.338532	finney	-0.204653
-3.705064	fire	-0.3985519
-5.338532	firearm	-0.1711386
-5.338532	firearms	-0.1711386
-4.639562	fired	-0.3090981
-4.639562	firefly	-0.2067619
-5.338532	fireplace	-0.1711386
-5.338532	firepower	-0.1711386
-5.338532	fires	-0.2065111
-5.338532	firewood	-0.2076477
