
\data\
ngram 1=13294
ngram 2=52619
ngram 3=18939

\1-grams:
-2.352474	!	-1.630612
-2.692974	"	-0.55579
-4.483611	#	-0.6069508
-4.22037	$	-0.2747154
-4.386701	%	-0.2755528
-2.921318	'	-0.3719661
-2.584612	(	-0.4975501
-2.584612	)	-0.9829242
-4.960732	*	-0.255994
-1.689879	,	-0.6842311
-2.124567	-	-0.5600409
-5.261762	--	-0.2657942
-4.784641	---	-0.2657813
-5.562792	--அது	-0.2172181
-5.562792	-1-9-3-3-4	-0.1985598
-5.562792	-10	-0.1985598
-5.562792	-20	-0.1862961
-5.562792	-3	-0.1985598
-5.261762	-3711	-0.2926155
-4.863822	-49	-0.2383026
-5.562792	-50-50	-0.2135817
-5.562792	-8	-0.2186275
-5.261762	-834-5571	-0.2780579
-5.562792	-don	-0.2181078
-5.562792	-fuckingவர	-0.04971156
-5.562792	-gargantua-வின	-0.04971156
-5.562792	-monkeying	-0.2186251
-5.562792	-oh	-0.2096673
-5.562792	-oi	-0.1862961
-5.562792	-priors	-0.2096673
-5.562792	-thumper	-0.2184254
-5.261762	-w-நாங	-0.1292097
-5.562792	-அங	-0.04971156
-5.562792	-அடமானதுல	-0.2167743
-5.261762	-அதன	-0.1292097
-4.960732	-அது	-0.2164877
-5.261762	-அந	-0.1292097
-5.562792	-அப	-0.04971156
-5.562792	-அவங	-0.04971156
-5.562792	-அவன	-0.2183945
-5.562792	-அவர	-0.04971156
-5.562792	-அவளால	-0.04971156
-5.562792	-அவளின	-0.04971156
-5.562792	-ஆசிரியர	-0.04971156
-5.261762	-ஆனா	-0.2182054
-5.562792	-ஆம	-0.04971156
-5.261762	-ஆமா	-0.2096576
-5.562792	-ஆமாம	-0.04971156
-5.562792	-ஆவிகள	-0.04971156
-4.960732	-இது	-0.2070753
-5.562792	-இதோபாருங	-0.04971156
-5.562792	-இன	-0.04971156
-5.261762	-இப	-0.1292097
-5.085671	-இல	-0.4024366
-5.261762	-இலவச	-0.298071
-5.562792	-ஈட	-0.04971156
-5.562792	-ஈனப	-0.04971156
-5.085671	-உதவி	-0.5710232
-5.562792	-உன	-0.04971156
-5.562792	-உனக	-0.04971156
-4.960732	-உள	-0.4995645
-5.261762	-எங	-0.1292097
-5.562792	-எந	-0.04971156
-4.562792	-என	-0.8724755
-5.562792	-எனக	-0.04971156
-5.562792	-எல	-0.04971156
-5.562792	-ஏஞ	-0.04971156
-5.261762	-ஏன	-0.1292097
-5.085671	-ஐ	-0.2160875
-5.562792	-ஐந	-0.04971156
-4.960732	-ஒரு	-0.2560214
-5.562792	-ஒருவரை-	-0.2186109
-5.261762	-ஓ	-0.2891653
-5.261762	-க	-0.1292097
-5.562792	-கப	-0.04971156
-5.562792	-கருந	-0.04971156
-5.562792	-கான	-0.04971156
-5.562792	-காற	-0.04971156
-5.261762	-குறிச	-0.1292097
-5.562792	-குழைந	-0.04971156
-5.562792	-கேட	-0.04971156
-5.261762	-கொஞ	-0.1292097
-5.562792	-சட	-0.04971156
-5.562792	-சமாளிக	-0.04971156
-4.784641	-சரி	-0.3493846
-5.562792	-சிஸ	-0.04971156
-5.261762	-சொல	-0.1292097
-5.562792	-டக	-0.04971156
-5.562792	-டா	-0.2128477
-5.261762	-டிக	-0.1292097
-5.562792	-டிராகனா	-0.2135817
-5.562792	-டேட	-0.04971156
-5.261762	-த	-0.1292097
-5.562792	-தயாராக	-0.2172729
-5.562792	-தவிர	-0.1862961
-5.562792	-திரு	-0.2179888
-5.562792	-தூசி	-0.1985598
-5.562792	-நட	-0.04971156
-5.562792	-நரகம	-0.04971156
-5.562792	-நா	-0.2096673
-4.416664	-நான	-1.007174
-5.261762	-நாம	-0.1292097
-5.562792	-நீ	-0.2185942
-4.784641	-நீங	-0.8097452
-5.562792	-நேரா	-0.2186275
-5.261762	-பத	-0.1292097
-5.562792	-பரவாயில	-0.04971156
-5.261762	-பள	-0.1292097
-5.562792	-பின	-0.04971156
-5.562792	-பிரபலமான	-0.2186275
-5.562792	-போதைய	-0.2186263
-5.562792	-மட	-0.04971156
-5.562792	-முதல	-0.04971156
-5.562792	-முதலாளி	-0.1985598
-5.562792	-முறை	-0.2186216
-5.562792	-மேல	-0.04971156
-5.562792	-மேலும	-0.04971156
-5.562792	-யார	-0.04971156
-5.562792	-யாரு	-0.2135817
-5.562792	-யுஆல	-0.04971156
-5.562792	-ரோட	-0.04971156
-5.562792	-றொன	-0.04971156
-5.562792	-ல	-0.04971156
-5.562792	-லின	-0.04971156
-5.562792	-வலதுபுறம	-0.04971156
-5.562792	-வால	-0.04971156
-5.562792	-வாழ	-0.04971156
-5.085671	-வின	-0.4024366
-5.261762	-விமானத	-0.1292097
-5.562792	-விருந	-0.04971156
-5.562792	-விற	-0.04971156
-5.562792	-வெறும	-0.04971156
-5.562792	-ஸார	-0.04971156
-5.562792	-ஹரிரி	-0.2185491
-5.261762	-ஹோட	-0.1292097
-1.345256	.	-1.781874
-2.578715	..	-0.7145668
-2.23851	...	-0.7655986
-5.562792	.....	-0.2186049
-5.562792	.1	-0.2161137
-5.562792	.அதை	-0.2186228
-5.562792	.அவன	-0.04971156
-5.562792	.இதென	-0.04971156
-5.562792	.இப	-0.04971156
-5.562792	.உன	-0.04971156
-5.562792	.ஏ	-0.2174815
-5.085671	.ஏ.	-0.1980043
-5.562792	.ஏ.விழுங	-0.04971156
-5.261762	.ஐ.	-0.298084
-5.562792	.ஒஹ	-0.04971156
-5.562792	.சரியாயிடும	-0.04971156
-5.562792	.சொல	-0.04971156
-5.085671	.ஜி.ஐ	-0.5390211
-5.085671	.டப	-0.4024366
-5.562792	.திரும	-0.04971156
-5.562792	.நண	-0.04971156
-5.562792	.நான	-0.04971156
-5.562792	.பி.	-0.2186109
-5.562792	.பி.ஐ	-0.2177591
-5.562792	.வின	-0.04971156
-3.654307	/	-0.855128
-5.261762	0-2-0	-0.2981114
-4.240573	00	-0.3428337
-5.562792	00மணிக	-0.04971156
-5.562792	01	-0.2185895
-5.562792	0200	-0.2185491
-4.784641	0l	-0.9781414
-4.018724	1	-0.5216736
-5.261762	1,000	-0.2176233
-5.562792	1,700	-0.2185479
-5.562792	1-a	-0.2096673
-5.562792	1.848	-0.1985598
-5.562792	1.99	-0.2186263
-3.929324	10	-0.2050521
-5.085671	10,000	-0.2498979
-5.562792	10-2	-0.2096673
-5.562792	10-20	-0.1985598
-5.562792	10-ஐ	-0.2184254
-4.261762	100	-0.2272299
-5.261762	100,000	-0.297939
-5.562792	100பவுண	-0.04971156
-5.562792	10200	-0.1985598
-5.562792	104	-0.1985598
-5.261762	109	-0.218272
-5.562792	109என	-0.04971156
-5.261762	10k	-0.2981244
-5.562792	10th	-0.2185027
-5.562792	10கடன	-0.04971156
-5.562792	10மில	-0.04971156
-5.562792	10ல	-0.04971156
-4.483611	11	-0.2810345
-5.562792	110	-0.2186109
-5.261762	110,000	-0.2956166
-5.562792	11130	-0.2181055
-5.085671	1150	-0.2649226
-5.562792	116	-0.1985598
-4.386701	12	-0.1912937
-5.562792	12-பேர	-0.04971156
-5.562792	12.000.000	-0.217709
-5.562792	124	-0.1985598
-5.562792	12கிரகங	-0.04971156
-4.60855	13	-0.2280663
-5.261762	135.000	-0.213429
-4.784641	14	-0.2089156
-4.562792	15	-0.2944076
-5.261762	15,000	-0.2977785
-5.562792	15-ஆக	-0.217709
-5.085671	150	-0.2095872
-5.562792	15நிமிடங	-0.04971156
-5.562792	16	-0.2153564
-5.562792	1642	-0.2096673
-4.863822	166	-0.2177864
-4.562792	17	-0.1996016
-5.261762	17,000	-0.2981019
-5.562792	170	-0.1985598
-5.562792	17000	-0.2177245
-5.085671	172	-0.2160743
-5.562792	172அமைந	-0.04971156
-5.562792	172கண	-0.04971156
-4.863822	18	-0.2184028
-5.261762	18,000	-0.297939
-5.562792	180	-0.218624
-5.562792	1812	-0.2186228
-5.261762	185	-0.2173146
-5.261762	1858	-0.2173409
-5.562792	1861	-0.2165021
-4.784641	19	-0.2678371
-5.261762	1910	-0.2972453
-5.562792	1948	-0.2181733
-5.562792	1952	-0.1862961
-5.562792	1980	-0.2144082
-5.261762	1983	-0.2095314
-5.562792	1989	-0.2177472
-5.562792	1989,	-0.1862961
-5.562792	1994	-0.1985598
-4.100394	2	-0.4767507
-4.863822	2,000	-0.5338002
-5.562792	2-ம	-0.04971156
-5.562792	2.2	-0.2186263
-4.240573	20	-0.2316192
-5.261762	20,000	-0.2981149
-5.085671	200	-0.1862615
-5.562792	2000	-0.2186275
-5.562792	200ருபாய	-0.04971156
-5.562792	200ரூபாய	-0.04971156
-5.562792	2013	-0.2181078
-5.562792	2015	-0.2186275
-5.261762	2016	-0.2980175
-5.562792	2017	-0.1862961
-5.562792	207	-0.2185514
-5.562792	2077	-0.1862961
-5.562792	20க	-0.04971156
-4.960732	21	-0.2473474
-5.562792	212	-0.2185491
-5.562792	2155764	-0.2161137
-4.960732	22	-0.2362545
-5.562792	22185	-0.218624
-5.562792	22மில	-0.04971156
-5.261762	23	-0.218605
-4.659702	24	-0.4860129
-5.085671	25	-0.2084876
-5.261762	250	-0.1984353
-5.261762	254-41	-0.2981244
-4.960732	26	-0.236323
-4.863822	27	-0.2483757
-5.562792	273	-0.2179722
-5.562792	274436	-0.1862961
-4.960732	28	-0.2153875
-5.562792	28.500	-0.2185788
-5.562792	29	-0.2185348
-4.960732	2o	-0.2962079
-4.358672	3	-0.2132201
-4.960732	3,000	-0.6684626
-5.562792	3,2,1	-0.2186251
-4.332344	30	-0.2888921
-5.562792	30,	-0.1862961
-5.261762	30,000	-0.2780579
-5.085671	300	-0.2180507
-5.261762	3000	-0.2980745
-5.261762	309	-0.2780579
-5.562792	30கள	-0.218624
-4.960732	31	-0.1890541
-5.562792	318	-0.2135817
-5.261762	32	-0.2135805
-5.562792	325	-0.1985598
-4.960732	33	-0.4509788
-5.085671	35	-0.2499066
-5.261762	360	-0.2128248
-5.085671	37	-0.2158662
-5.562792	37க	-0.04971156
-5.562792	37வயது	-0.1862961
-4.717694	38	-0.3166876
-5.261762	380	-0.2981125
-5.562792	381	-0.2186192
-5.562792	3amடாட	-0.04971156
-5.562792	3எஸ	-0.04971156
-5.085671	3ம	-0.4024366
-5.562792	3மே	-0.2096673
-4.358672	4	-0.2634862
-5.562792	4.98	-0.1985598
-4.562792	40	-0.2553058
-5.562792	40,	-0.1862961
-5.562792	400	-0.2184135
-5.562792	4000	-0.1985598
-5.562792	4163	-0.1985598
-5.261762	418	-0.2974703
-5.261762	42	-0.2182411
-5.562792	43	-0.2185479
-5.562792	44	-0.1985598
-5.562792	44,17	-0.2172729
-5.085671	45	-0.2499078
-5.562792	45முற	-0.04971156
-5.562792	47	-0.2184956
-4.863822	48	-0.2486016
-5.562792	486	-0.1985598
-4.358672	49	-0.5392751
-4.332344	5	-0.3435517
-5.261762	5,000	-0.2182625
-5.562792	5,99	-0.2186263
-5.562792	5.4	-0.218511
-4.448849	50	-0.2155137
-5.085671	50,000	-0.1982622
-4.960732	50-50	-0.4328271
-5.562792	50-yardவரிஇருந	-0.04971156
-4.416664	500	-0.3188982
-5.562792	500ல	-0.04971156
-5.562792	50மில	-0.04971156
-5.562792	51	-0.2186085
-4.863822	52	-0.2219229
-5.562792	5305	-0.2186204
-5.562792	55-ஆக	-0.2186156
-5.562792	56	-0.2184361
-5.562792	5773எம	-0.04971156
-4.562792	6	-0.3377821
-5.562792	6-0-2-8	-0.2161137
-4.386701	60	-0.2242032
-5.562792	60,000	-0.2165021
-5.261762	60-40	-0.2980912
-5.562792	60.850	-0.1985598
-5.261762	600	-0.2161102
-5.562792	60பெரிய	-0.2096673
-5.562792	61	-0.2185491
-5.562792	61.000,	-0.1862961
-5.261762	62	-0.298109
-5.562792	65	-0.1985598
-5.562792	650,000	-0.1985598
-4.960732	67	-0.2474639
-5.562792	68	-0.1985598
-5.562792	6லிருந	-0.04971156
-4.521399	7	-0.4742558
-5.261762	7,000	-0.2160863
-5.562792	7.62	-0.1985598
-5.562792	70,000	-0.2096673
-5.261762	719	-0.2096017
-5.562792	72	-0.2185491
-5.261762	73	-0.2186061
-5.261762	75	-0.2185812
-5.562792	750,	-0.1862961
-5.562792	750,000	-0.2096673
-5.085671	764	-0.1984203
-5.085671	78	-0.571349
-4.332344	8	-0.3126169
-5.085671	80	-0.1891508
-5.562792	80-90	-0.2184409
-4.960732	800	-0.2475112
-4.863822	808080	-0.7543397
-5.562792	850ஒரு	-0.2186275
-5.562792	86	-0.2182684
-5.562792	892இப	-0.04971156
-5.562792	8எஸ	-0.04971156
-4.448849	9	-0.3430145
-5.562792	9,000	-0.2161185
-5.562792	9,38	-0.2184171
-5.085671	9-9-9	-0.5512848
-4.659702	90	-0.3871949
-4.659702	900	-0.6457784
-5.562792	911	-0.2161137
-5.261762	941	-0.2956119
-5.261762	95	-0.218599
-5.261762	950	-0.2780579
-5.562792	95இருந	-0.04971156
-5.562792	9மாசத	-0.04971156
-2.843461	:	-0.6302925
-4.562792	;	-0.2069173
-1.144209	</s>
-99	<s>	-0.9127531
-5.263309	<unk>
-3.929324	=	-0.5014901
-1.937274	?	-1.967876
-3.422913	[	-0.3310055
-3.422913	]	-1.303707
-5.562792	_	-0.2182244
-4.784641	a	-0.2139952
-5.261762	a.	-0.2657942
-5.562792	a.d.f	-0.217497
-5.085671	a1	-0.2499091
-5.261762	a14	-0.2096224
-5.562792	aah	-0.1985598
-5.562792	aahhhh	-0.2166955
-4.717694	aasim	-0.2141945
-4.562792	abdi	-0.2804399
-5.085671	abdikarim	-0.2496625
-5.562792	ada	-0.2096673
-5.562792	adam	-0.2096673
-5.562792	adeline	-0.1985598
-5.562792	adio	-0.2186097
-5.562792	advanced	-0.2186275
-5.261762	afrh	-0.2978463
-5.085671	against	-0.5713431
-5.562792	age	-0.2186275
-5.261762	aggravating	-0.2780579
-5.562792	agh	-0.1985598
-5.562792	agreed	-0.2135817
-5.562792	agriculture	-0.2177472
-5.085671	ah	-0.249533
-5.562792	ah-ஆ	-0.218593
-5.562792	ahhh	-0.2166955
-5.261762	ahஅது	-0.2981209
-5.261762	ahநீங	-0.1292097
-5.562792	ahபயணிகள	-0.04971156
-5.261762	ai	-0.2891653
-5.562792	air	-0.2186275
-5.562792	aircom	-0.2186049
-5.261762	aka	-0.2186192
-5.562792	alibis	-0.2165021
-5.261762	all	-0.298122
-4.416664	am	-0.8497039
-4.201065	amelia	-1.091483
-5.562792	amelia-விடம	-0.04971156
-5.562792	amobarbital	-0.2172729
-4.717694	and	-0.2186144
-5.562792	angel	-0.1985598
-5.562792	angena	-0.2135817
-5.562792	angola	-0.1985598
-5.562792	apollo	-0.218599
-5.562792	approach	-0.2186263
-5.261762	april	-0.2186109
-5.261762	arashikage	-0.2186061
-5.562792	are	-0.2186275
-5.562792	arm	-0.1985598
-5.562792	as	-0.2186216
-4.332344	asshole	-0.2885017
-5.562792	assholes	-0.2179067
-5.261762	asswipe	-0.2780579
-4.960732	at	-0.2119953
-5.562792	atom	-0.2096673
-5.261762	attaboy	-0.2780579
-5.562792	auld	-0.2167695
-5.562792	auldlangsyne	-0.1862961
-5.562792	auldஅறிமுகம	-0.04971156
-5.562792	aurevoir	-0.2096673
-5.261762	autorotating	-0.2780579
-5.085671	awfully	-0.2184825
-5.261762	azacitidine	-0.2891653
-4.863822	b	-0.39295
-5.562792	b-ஐ	-0.2185669
-5.562792	b.	-0.218624
-5.261762	babbles	-0.2969951
-5.562792	bad	-0.2170642
-5.562792	bag	-0.2178841
-5.562792	baldy	-0.1985598
-5.261762	bama	-0.2186121
-4.071431	banir	-0.2799895
-5.562792	baseball	-0.1985598
-4.562792	baxford	-0.29827
-5.261762	beatrice	-0.2122161
-5.562792	because	-0.2186263
-5.261762	beech	-0.2975036
-4.784641	beeping	-0.5062026
-5.562792	belle	-0.2180055
-5.562792	bentoutofshape	-0.2177186
-5.562792	beverage	-0.2096673
-5.562792	bholenath	-0.2186275
-5.562792	biding	-0.1985598
-5.562792	billy	-0.2180055
-5.261762	binary	-0.1985585
-5.562792	bitch	-0.1985598
-4.562792	bitches	-0.208082
-5.562792	bitchesஉடைக	-0.04971156
-5.085671	black	-0.2699757
-5.562792	blackhawks	-0.2096673
-5.562792	blares	-0.2184647
-4.717694	blaring	-0.3636571
-5.562792	blazing	-0.2186204
-4.863822	bloodlines	-0.2704994
-5.562792	bmw	-0.1985598
-5.261762	bo	-0.2956119
-5.562792	boathouse	-0.2172729
-5.562792	bob	-0.2180055
-5.562792	bogeys	-0.2186251
-5.261762	bollocks	-0.1925034
-5.562792	bolt	-0.2186275
-5.562792	boneyard	-0.2177186
-5.562792	braggin	-0.2181078
-5.562792	brain	-0.2186014
-5.562792	brake	-0.2185716
-3.994591	brand	-0.521381
-5.562792	brand-இன	-0.04971156
-5.562792	brand-ஐ	-0.2182339
-5.562792	brand-க	-0.04971156
-5.562792	branda	-0.2096673
-5.562792	brasபறித	-0.04971156
-4.131429	brice	-0.3807504
-5.562792	briceசந	-0.04971156
-4.960732	brogden	-0.2270299
-5.562792	brogdenசட	-0.04971156
-5.261762	brozi	-0.2930799
-5.562792	brrr	-0.2166955
-5.562792	bruv	-0.2096673
-5.562792	bubbleship	-0.2186026
-5.261762	buffet	-0.2095775
-5.562792	burn	-0.2186204
-5.562792	burning	-0.2186275
-5.562792	but	-0.2186263
-5.261762	buzzes	-0.2085119
-5.261762	bye-bye	-0.2891653
-5.261762	c17	-0.2972167
-5.562792	caddies	-0.2170642
-5.562792	cameron	-0.2180055
-5.562792	campfire	-0.2180995
-5.261762	can	-0.297606
-5.562792	canகூட	-0.2185324
-5.562792	car	-0.218624
-5.562792	caravaggio	-0.2180995
-5.562792	carnegies	-0.2096673
-5.562792	cartin	-0.2181078
-5.562792	carville	-0.2180055
-3.846789	case	-1.030289
-5.562792	case.நான	-0.04971156
-5.562792	catchphrase	-0.2167695
-5.562792	chamber	-0.217497
-5.085671	chartreuse	-0.2499028
-5.085671	chattanooga	-0.1930395
-5.562792	cheatin	-0.2181078
-4.960732	cheering	-0.2561439
-5.562792	cheeseburger	-0.2096673
-5.562792	cheesed	-0.2173051
-5.562792	cheri	-0.2185633
-5.562792	cherryபோன	-0.04971156
-5.562792	chino	-0.2186133
-5.085671	chomped	-0.2446232
-5.261762	choosers	-0.2962724
-5.562792	christmas	-0.217709
-4.22037	chuckles	-1.407548
-4.784641	chuckling	-0.9775306
-5.562792	cib-1	-0.1985598
-5.562792	clamouring	-0.217497
-5.261762	clanging	-0.2969951
-5.261762	clangs	-0.2969951
-5.562792	clasped	-0.2177209
-5.562792	class	-0.2172729
-4.960732	clattering	-0.4517256
-4.717694	clatters	-0.7522473
-5.562792	clayborne	-0.2185348
-5.562792	cleaner-ஆக	-0.2185134
-5.562792	clinking	-0.2184647
-4.960732	clinks	-0.2968306
-5.562792	clock	-0.2166955
-5.562792	close	-0.2186192
-5.562792	cloudlessநாள	-0.04971156
-5.562792	clyde	-0.2180055
-5.562792	cocking	-0.217497
-5.562792	cockingதுப	-0.04971156
-5.261762	cocksucker	-0.1965349
-4.960732	cokes	-0.2686679
-5.562792	cold	-0.2096673
-5.562792	college	-0.2186275
-5.562792	colon	-0.217497
-5.562792	colonization	-0.217497
-5.261762	colts	-0.2183493
-5.562792	columbo	-0.2184932
-5.562792	com	-0.2185669
-5.562792	come	-0.2186204
-5.261762	comin	-0.2780579
-4.960732	comm	-0.2241492
-4.960732	computer	-0.6678584
-5.562792	comஹார	-0.04971156
-5.261762	condor	-0.298021
-5.562792	congenita	-0.1862961
-5.562792	console	-0.218624
-5.562792	consuelo	-0.1862961
-5.562792	contrast	-0.1862961
-5.562792	cool	-0.1985598
-4.358672	coop	-0.6280468
-3.541603	cooper	-1.20317
-5.261762	cooper-இடம	-0.1292097
-5.562792	cooper-டம	-0.04971156
-5.562792	cop	-0.2165021
-5.261762	copilot	-0.2972071
-5.085671	coughs	-0.570222
-5.562792	could	-0.2186251
-5.261762	country	-0.2891653
-5.562792	cower	-0.2167695
-5.562792	crackerjack	-0.1985598
-5.562792	cranberries	-0.1985598
-5.085671	creaks	-0.2176721
-5.562792	crybaby	-0.1985598
-5.562792	cuda	-0.2167695
-5.562792	cuntish	-0.2184968
-5.562792	cursin	-0.2181078
-5.562792	cutters	-0.2183517
-4.147819	d	-0.6327285
-5.562792	d-பட	-0.04971156
-4.863822	d900d9	-0.7543397
-5.562792	dabbling	-0.2167743
-4.358672	dad	-0.437863
-5.261762	dang	-0.2972226
-5.261762	dangerclose	-0.2780579
-4.784641	danil	-0.2090213
-5.562792	dark	-0.2186216
-4.960732	dash	-0.2250332
-5.562792	dash-dash-dash	-0.1985598
-5.562792	dash-dot	-0.1985598
-5.562792	datebook	-0.2186061
-5.261762	day	-0.186291
-5.085671	dc	-0.2678502
-4.960732	dcpd	-0.1924075
-5.261762	ddo	-0.2981054
-5.562792	deafening	-0.2186037
-5.562792	debrief	-0.2096673
-4.784641	decitabine	-0.2213742
-5.562792	deer	-0.2184849
-5.261762	defector	-0.198307
-5.562792	deferiprone	-0.2185503
-5.562792	delancy	-0.2180995
-5.562792	delhi	-0.218599
-4.863822	delphine	-0.2480545
-5.261762	delphinei	-0.2923458
-5.562792	demolitions	-0.2177186
-5.562792	denyin	-0.2181078
-5.562792	depressives	-0.1985598
-5.261762	desire	-0.2096576
-4.863822	destro	-0.2190465
-5.261762	dicks	-0.2185954
-5.562792	did	-0.2186263
-5.562792	die	-0.2185954
-5.562792	dig	-0.218624
-5.562792	dined	-0.1985598
-5.562792	dmz	-0.2183565
-4.960732	do	-0.2101074
-5.085671	doc	-0.188564
-5.562792	dog	-0.217709
-5.261762	doke	-0.209031
-5.562792	dolph	-0.2178841
-5.261762	dom	-0.2179996
-4.717694	donald	-0.4297654
-5.562792	doofus	-0.2185086
-4.960732	door	-0.2179388
-5.562792	door-இயங	-0.04971156
-5.562792	dot	-0.1985598
-5.562792	dot-dash-dot-dot	-0.1985598
-5.562792	dot-dot	-0.2161137
-5.562792	dot-dot-dash-dot	-0.1985598
-5.261762	down.i	-0.297832
-5.562792	downfield	-0.2161185
-4.521399	doyle	-0.3522105
-5.562792	doyle-இடம	-0.04971156
-5.562792	dr	-0.2186275
-4.044278	dr.	-0.9984135
-5.562792	dragunov	-0.1985598
-5.562792	dragunovs	-0.2178841
-5.562792	driftin	-0.2181078
-5.562792	drill	-0.2186204
-5.562792	drivable	-0.2128477
-5.562792	driveway	-0.217348
-5.562792	dudes	-0.2096673
-5.562792	dumbest	-0.2185954
-5.562792	dvd	-0.1985598
-5.562792	dwell	-0.2186228
-5.261762	dying	-0.2981173
-5.562792	dநீங	-0.04971156
-5.562792	earpiece	-0.2186192
-5.562792	earplugs	-0.2183481
-5.562792	east	-0.2096673
-5.562792	edmund-இன	-0.04971156
-4.717694	edmunds	-0.2139435
-4.784641	edmunds-இன	-0.8097452
-5.562792	edmunds-ஐ	-0.2186144
-5.261762	eglitis	-0.2129512
-5.085671	eight	-0.247276
-5.562792	einsargen	-0.2186037
-5.562792	einstein-இன	-0.04971156
-5.562792	el	-0.2186275
-4.784641	elevator	-0.2434801
-5.261762	em	-0.2096454
-5.261762	emeliசாண	-0.1292097
-5.261762	emptier	-0.297983
-5.562792	emr	-0.1985598
-5.261762	en	-0.2981185
-5.562792	enchiladas	-0.2096673
-5.562792	end	-0.2186275
-5.085671	endurance	-0.2185907
-5.562792	endurance-இன	-0.04971156
-5.085671	endurance-ஐ	-0.2185633
-5.562792	endurance-ன	-0.04971156
-5.562792	enemies	-0.1862961
-5.562792	eng	-0.2186275
-4.960732	engine	-0.2565256
-5.562792	engines	-0.2186275
-5.562792	enjoyin	-0.2181078
-5.261762	eosசெயற	-0.1292097
-5.562792	er	-0.2161137
-5.562792	es	-0.2186192
-5.261762	eta	-0.1891699
-5.261762	eubanks	-0.2891653
-5.261762	eureka	-0.2155588
-4.960732	ev	-0.4235629
-5.562792	evac	-0.2185503
-5.261762	everyone	-0.297606
-5.562792	ex-mites	-0.1985598
-5.562792	exasperated	-0.2186275
-5.562792	excel	-0.2185907
-4.562792	exclaims	-1.040261
-5.562792	exfil	-0.2174481
-4.60855	exhales	-0.9988683
-5.562792	exile	-0.2135817
-5.562792	experimentin	-0.2181078
-5.261762	f35s	-0.2780579
-5.562792	faa	-0.2186216
-5.562792	fads	-0.2183505
-5.562792	fair	-0.1985598
-5.562792	fallin	-0.2181078
-5.085671	faora	-0.2489745
-5.261762	faoraui	-0.2962724
-5.562792	feds	-0.2096673
-5.085671	fellas	-0.2405204
-5.562792	ffl	-0.2172729
-5.562792	fillin	-0.2180329
-5.562792	find	-0.218618
-5.562792	fine	-0.2186085
-5.562792	fire	-0.1862961
-5.261762	firefly	-0.2975036
-5.562792	fireபோல	-0.2172181
-5.562792	five	-0.2096673
-5.562792	flappy	-0.2185705
-5.261762	flint	-0.2975036
-5.261762	flintgroans	-0.2969951
-5.261762	flutinas	-0.2976714
-5.562792	flutters	-0.2184647
-5.562792	follow	-0.218618
-5.562792	followin	-0.2181078
-5.562792	fonz	-0.2172729
-5.261762	foresaw	-0.2981244
-5.562792	forked	-0.2186275
-5.261762	fountaining	-0.2960002
-5.562792	four	-0.2161137
-5.562792	franklins	-0.2174481
-5.562792	freakin	-0.2181078
-5.562792	frisk	-0.2167695
-5.562792	frisked	-0.1985598
-5.562792	front	-0.2149335
-4.863822	frump	-0.2162966
-5.562792	frumps	-0.2183945
-5.261762	frypan	-0.2096139
-4.960732	ftd	-0.2888995
-4.562792	fucked	-0.1513927
-5.261762	fucker	-0.1835913
-5.261762	fuckers	-0.2164651
-4.182581	fuckin	-0.9853498
-3.442218	fucking	-0.3606942
-5.562792	fucking-தெரியும	-0.04971156
-5.562792	fuckingdick	-0.1862961
-5.562792	fuckingoh	-0.1862961
-5.562792	fuckinஇருக	-0.04971156
-5.562792	fuckinதான	-0.04971156
-5.562792	fucks	-0.2128477
-5.085671	fue	-0.2405204
-4.60855	fueisha	-1.171115
-5.562792	fundraisers	-0.2185942
-5.562792	g	-0.217497
-4.960732	gagging	-0.28801
-5.562792	galaxy	-0.217497
-5.562792	gardner	-0.2177186
-4.784641	gargantua	-0.2624277
-5.562792	gargantua-இன	-0.04971156
-5.562792	gargantua-க	-0.04971156
-4.784641	gasps	-0.5062026
-5.085671	geac	-0.2603816
-5.562792	gearshiftகிளிக	-0.04971156
-5.562792	gentle	-0.2186275
-5.562792	george	-0.2180055
-4.960732	get	-0.1506794
-5.562792	getaway	-0.2185146
-5.261762	giggled	-0.2974977
-5.085671	giovanna	-0.5713454
-5.562792	girl	-0.2180055
-4.659702	glock	-0.9523833
-4.332344	go	-0.5780941
-5.562792	god	-0.1985598
-5.261762	goddamned	-0.2980888
-5.261762	goff	-0.2178817
-5.562792	gone	-0.2177472
-5.261762	good	-0.2186263
-5.085671	goodbye	-0.5623923
-5.562792	goodbyeசொல	-0.04971156
-5.562792	google	-0.2165021
-5.562792	gordon	-0.2180055
-5.562792	gotcha	-0.1985598
-5.562792	gps-ஐ	-0.2186275
-5.562792	grand	-0.2186192
-5.562792	gravity	-0.217497
-5.562792	great	-0.2186263
-4.562792	greely	-0.310452
-5.562792	greelyவழக	-0.04971156
-4.960732	greenhorn	-0.2299889
-4.358672	groaning	-0.9117762
-4.261762	groans	-0.9859497
-5.562792	growls	-0.217497
-5.562792	grub	-0.218593
-4.448849	grunts	-1.198059
-5.261762	gtc	-0.2780579
-5.562792	gunning	-0.1985598
-5.261762	gurgling	-0.2891653
-5.261762	gwenny	-0.2780579
-5.261762	h	-0.297606
-5.562792	h-ite	-0.2135817
-5.562792	h-உதவி	-0.1862961
-5.562792	h.q.	-0.2183327
-5.562792	h9	-0.217497
-5.562792	ha-ஹெக	-0.04971156
-5.562792	hablo	-0.2186228
-5.562792	had	-0.2186275
-5.562792	hajmola	-0.2167695
-5.261762	halfeaten	-0.298122
-5.562792	hallucinated	-0.1985598
-5.562792	hamilton	-0.2180055
-5.261762	hang	-0.2972453
-5.261762	hangin	-0.2167122
-5.261762	hanginநான	-0.1292097
-5.085671	hanley	-0.2173993
-5.562792	happenin	-0.2181078
-5.562792	happy	-0.2186275
-5.562792	hardass	-0.2177186
-5.562792	has	-0.2186275
-5.261762	hatch	-0.2171954
-5.562792	heartache	-0.2177186
-5.562792	heater	-0.2185158
-5.562792	heavy	-0.217497
-4.30752	heh	-0.609175
-5.562792	heh-heh-heh	-0.1985598
-5.562792	hellhole	-0.2184135
-4.863822	hello	-0.7462598
-5.261762	hemorrhaging	-0.2969796
-5.261762	her	-0.1891699
-5.261762	here	-0.297606
-5.562792	herpe	-0.2183874
-5.261762	hev	-0.2961936
-5.261762	hev-	-0.2657942
-4.483611	hey	-0.9646291
-5.261762	hey.hey	-0.2961936
-5.562792	hey.நம	-0.04971156
-5.562792	hi	-0.2096673
-5.562792	hi-டெஸ	-0.04971156
-4.863822	hillbilly	-0.2278039
-5.562792	hit.he	-0.2184468
-5.562792	hittinஇருக	-0.04971156
-5.261762	hiya	-0.1891699
-5.562792	hlb	-0.2186085
-5.562792	hm	-0.2096673
-5.562792	hoenig	-0.2096673
-5.261762	hole-ஐ	-0.218096
-5.562792	hole-க	-0.04971156
-5.562792	hols	-0.1985598
-5.562792	holy	-0.2186263
-5.562792	hombre	-0.1862961
-5.261762	home	-0.1985585
-5.562792	homie	-0.2186275
-5.261762	honks	-0.2979628
-5.562792	honky-tonking	-0.2186144
-5.261762	honky-டோன	-0.1292097
-4.863822	hoo-ஆ	-0.4188008
-5.085671	hookers	-0.1920362
-5.261762	horatius	-0.2980329
-4.960732	horn	-0.4529921
-5.261762	hornhonks	-0.2969951
-5.261762	hoss	-0.1985
-5.562792	hostiles	-0.1985598
-5.562792	hot	-0.2186275
-4.521399	how	-1.259499
-5.562792	howdy	-0.1985598
-5.562792	huh	-0.2135817
-5.562792	humblin	-0.2181078
-5.562792	hungover	-0.2172729
-5.562792	hungoverதெரியும	-0.04971156
-5.562792	hunsky	-0.2149335
-5.562792	hursts	-0.2096673
-5.562792	hyah	-0.2166955
-5.562792	hyperdrive	-0.2184896
-5.562792	hypnotherapist	-0.2185645
-4.717694	i	-0.20491
-4.960732	i.d.	-0.2545922
-5.562792	idles	-0.1985598
-5.261762	ifs	-0.2972333
-5.562792	ihop	-0.2186275
-4.960732	ikon4	-0.296895
-5.261762	ilene	-0.1850768
-5.562792	ilir	-0.1985598
-5.261762	immunes	-0.2164245
-5.562792	impious	-0.2186204
-5.261762	imposter	-0.2176555
-4.863822	in	-0.2185942
-5.562792	inbounds	-0.218624
-5.085671	indistinctly	-0.2686926
-5.562792	indistinctlyகத	-0.04971156
-5.562792	indistinctlyதொடர	-0.04971156
-5.562792	ine	-0.217497
-5.261762	innit	-0.2121546
-5.562792	into	-0.218624
-5.562792	invited	-0.218624
-5.562792	iq	-0.2186061
-4.784641	is	-0.2322006
-4.960732	it	-0.6679608
-4.863822	iulian	-0.7549692
-5.261762	jack.jack	-0.2961936
-5.085671	jamaicans	-0.187185
-5.562792	jambalaya	-0.2096673
-4.717694	janson	-0.771104
-5.562792	jeez	-0.1985598
-5.261762	jesse	-0.1985436
-5.562792	jetlag	-0.217709
-5.562792	jimbo	-0.1985598
-5.562792	job	-0.1985598
-5.085671	joe1	-0.5707305
-5.261762	joe2	-0.2975036
-5.562792	joe3	-0.2180055
-5.562792	joe4	-0.2180055
-5.562792	john	-0.2180055
-4.717694	jorel	-0.2519472
-5.261762	jorelகோடக	-0.1292097
-5.562792	ju	-0.2153564
-5.261762	junkshow	-0.1979071
-5.562792	just	-0.2186216
-5.261762	kaiel	-0.2965623
-5.562792	kalashnikovs	-0.2183481
-5.085671	kalel	-0.2498879
-5.562792	kaundanyesya	-0.2161137
-5.261762	kelex	-0.2092157
-5.562792	kelor	-0.2172729
-5.562792	kept	-0.2186275
-4.960732	kerik	-0.1573612
-5.562792	kids	-0.2181078
-5.562792	killzone	-0.2186085
-5.562792	kipp-இன	-0.04971156
-5.562792	kipp-ஐ	-0.2185752
-5.562792	kipp-க	-0.04971156
-5.562792	kipp-ன	-0.04971156
-5.562792	kissin	-0.2181078
-5.562792	knock-knock	-0.1985598
-5.562792	know	-0.2186275
-5.562792	kryptonians	-0.2185396
-5.562792	kuf	-0.2185883
-4.863822	l	-0.2075986
-5.261762	la	-0.2170082
-5.261762	lam	-0.298109
-4.863822	lamஐ	-0.2806815
-5.562792	landings	-0.217497
-5.562792	lapd	-0.1985598
-5.562792	launch	-0.2186275
-5.261762	laura	-0.2180603
-5.562792	law	-0.217497
-5.562792	lawn	-0.2184742
-5.085671	lazarus	-0.1985511
-4.784641	lebreton	-0.4297746
-5.562792	lemanபிரதர	-0.04971156
-5.562792	lemoyne	-0.2185633
-5.562792	letters	-0.2186275
-5.562792	letyouin	-0.2182042
-5.562792	lf	-0.2149335
-5.261762	lifesavers	-0.2956166
-5.261762	light	-0.1862487
-5.562792	lightning	-0.2186275
-5.261762	lise	-0.2176316
-5.085671	little	-0.217447
-4.784641	ll	-0.2340596
-5.562792	llamo	-0.2128477
-4.784641	llir	-0.2580803
-4.863822	llm	-0.3717864
-4.784641	llt	-0.9761474
-5.085671	lnder	-0.189832
-5.562792	lnderlal	-0.2186275
-5.261762	loadmaster	-0.2891653
-5.562792	lock	-0.2170642
-5.562792	locked	-0.1985598
-5.562792	locksmith	-0.2185526
-4.784641	lois	-0.3453654
-5.562792	lois.இதோ	-0.2186216
-5.562792	loiterer	-0.2185396
-4.863822	lon	-0.2054159
-5.562792	lookie	-0.2166955
-4.784641	lordy	-0.3509952
-5.562792	love	-0.2186251
-5.562792	loves	-0.218624
-5.562792	lovesick	-0.2178615
-5.562792	loving	-0.1985598
-5.562792	lowlife	-0.2096673
-4.717694	ls	-0.2855411
-5.261762	lskillin	-0.297606
-5.261762	lsஅங	-0.1292097
-5.562792	lt	-0.217709
-5.085671	luco	-0.2160026
-5.562792	luden	-0.2167695
-5.562792	lunar	-0.2186275
-5.562792	lurking.just	-0.2182684
-4.960732	lz	-0.2165379
-5.261762	lzjayhawk	-0.2780579
-5.562792	lzவெளியேபோ	-0.2166955
-5.562792	m	-0.2186251
-5.562792	m-நான	-0.04971156
-5.562792	ma	-0.2128477
-5.562792	mach	-0.2185871
-5.562792	magnumus	-0.2186275
-5.261762	main	-0.298122
-5.562792	maja	-0.2181078
-5.562792	maketh	-0.1985598
-3.90958	man	-0.6819396
-5.261762	man2	-0.2975036
-5.562792	manassas	-0.2183945
-5.562792	manindistinctlyபேசும	-0.04971156
-5.562792	mankoreanபேசும	-0.04971156
-4.131429	mann	-0.404923
-4.960732	mann-இன	-0.4995645
-5.562792	mann-ஐ	-0.2186275
-5.562792	mann-ம	-0.04971156
-5.562792	manpaமீதுஅறிவித	-0.04971156
-5.562792	many	-0.2186275
-5.562792	manஉருதுபேசும	-0.04971156
-5.085671	manகத	-0.4024366
-5.261762	manடிவிபேசி	-0.2969951
-5.261762	marido	-0.2657942
-5.261762	mars-ஐ	-0.2185859
-4.863822	marti	-0.3833627
-5.562792	marvel	-0.2186192
-5.085671	marwood	-0.2074267
-4.784641	mate	-0.3353212
-4.960732	matilde	-0.4523926
-5.562792	mavis	-0.2185645
-5.562792	mavisபிரவுன	-0.04971156
-5.261762	maxes	-0.2969796
-5.085671	mayday	-0.2590442
-4.863822	mbui	-0.1851435
-5.562792	mcgee	-0.2186061
-5.562792	mcgurkin	-0.2177186
-4.960732	me	-0.1744977
-5.562792	meaning	-0.2186275
-5.562792	meatball	-0.2186263
-5.085671	med	-0.2697926
-5.562792	meds	-0.2183517
-5.562792	memory	-0.2186192
-5.562792	men	-0.218624
-5.562792	meningioma	-0.2182982
-5.562792	meowing	-0.217497
-5.562792	merci	-0.1862961
-5.562792	mermaids	-0.2184135
-5.562792	milk	-0.2186192
-4.521399	miller	-0.4297184
-5.562792	miller-இடம	-0.04971156
-5.261762	miller-இன	-0.1292097
-5.562792	miller-உடையது	-0.2185348
-4.30752	minho	-0.4707193
-5.562792	miserable	-0.2096673
-5.085671	miss	-0.2699733
-5.562792	missions	-0.1985598
-5.261762	mm-hm	-0.2780579
-5.562792	mm-அப	-0.04971156
-5.085671	mm-இருகிறது	-0.5512848
-5.562792	mm-ம	-0.04971156
-5.261762	mmhm	-0.2780579
-4.717694	mmm	-0.3030766
-5.562792	mmm-mmm	-0.1985598
-5.261762	mmm-இருகிறது	-0.2780579
-5.562792	mmmhmm	-0.1985598
-5.562792	mo	-0.2096673
-4.659702	moaning	-0.4967129
-5.085671	moans	-0.570222
-5.261762	mockingly	-0.2969951
-5.562792	modigliani	-0.1985598
-5.562792	moldy	-0.217709
-5.562792	mon	-0.2186275
-5.562792	more	-0.2186275
-4.483611	morel	-0.2234875
-5.562792	mornin	-0.2181078
-4.863822	morse	-0.2431131
-5.562792	morse-ஐ	-0.2184765
-5.261762	morse-க	-0.1292097
-5.562792	mother	-0.2180055
-4.332344	motherfucker	-0.3164712
-4.717694	motherfuckers	-0.2095407
-5.562792	motherfuckerஎன	-0.04971156
-5.562792	motherfuckerபற	-0.04971156
-4.960732	motherfuckin	-0.2975857
-4.483611	motherfucking	-0.2356139
-5.261762	movin	-0.2183755
-4.863822	mr.	-0.501364
-5.562792	mri	-0.2128477
-5.261762	mrk	-0.2981232
-5.562792	mtwapa	-0.2183327
-5.562792	much	-0.2186275
-4.562792	muffled	-0.415604
-5.562792	muhlenberg	-0.2172729
-5.562792	mumbles	-0.217497
-5.562792	munchkin	-0.2161185
-3.723943	murph	-0.9839848
-5.562792	murph-இடம	-0.04971156
-5.562792	murph-ஐ	-0.218492
-5.562792	murph-க	-0.04971156
-5.562792	murph.இங	-0.04971156
-5.562792	murph.நீ	-0.218599
-5.261762	murphy	-0.2180793
-5.085671	murphyயின	-0.4024366
-5.562792	murphக	-0.04971156
-5.562792	mushy	-0.2185978
-5.261762	muss	-0.2969951
-5.261762	mustakeen	-0.2980638
-5.562792	mustakin	-0.2185657
-4.784641	my	-0.2186204
-5.562792	n	-0.2185633
-5.562792	nanomites	-0.2186168
-5.562792	nanomiteபோர	-0.04971156
-5.562792	nap	-0.2185015
-5.085671	nasa	-0.5512848
-5.562792	nasa-வா	-0.2135817
-5.261762	nasa-வின	-0.1292097
-5.562792	naughtier	-0.2170642
-5.562792	nav	-0.2186026
-5.562792	ncic	-0.2185193
-5.085671	negrescu	-0.2558649
-5.562792	nelson	-0.218624
-5.562792	nelson-க	-0.04971156
-5.562792	never	-0.2186275
-5.562792	new	-0.2186263
-5.562792	newsflash	-0.2096673
-5.261762	nigga	-0.2891653
-5.085671	niggah	-0.5623923
-5.261762	niggas	-0.2891653
-5.562792	night	-0.1862961
-5.562792	nine	-0.2161137
-5.562792	niner	-0.1985598
-5.562792	nitrogen	-0.217497
-5.085671	nkomo	-0.5713395
-5.562792	no	-0.2186275
-5.085671	no.65	-0.2170296
-5.562792	no.8	-0.2185027
-5.562792	nobility	-0.2186204
-5.562792	nobody	-0.2181078
-5.562792	nooooo	-0.2166955
-4.863822	norad	-0.3923873
-5.562792	north	-0.1985598
-4.960732	northcom	-0.4421672
-5.085671	not	-0.2160922
-5.261762	nothing	-0.297606
-4.960732	nsa	-0.2934776
-5.261762	nukes	-0.2132834
-5.562792	nukesபயன	-0.04971156
-5.562792	numbskull	-0.2170642
-5.261762	nun	-0.297606
-5.562792	nunchucks	-0.2182982
-4.863822	o	-0.2481616
-4.659702	of	-0.3201696
-5.085671	offa	-0.2176138
-5.562792	ogalvee	-0.1985598
-4.261762	oh	-0.5607423
-5.562792	oh-தலைமை	-0.1985598
-5.562792	ohhh	-0.1862961
-5.562792	ohமலம	-0.04971156
-4.659702	oi	-0.18853
-4.960732	okay	-0.4235629
-5.562792	old	-0.2186275
-4.960732	oms	-0.2535786
-5.562792	on	-0.2096673
-5.562792	on.just	-0.2128477
-5.261762	on.weஜென	-0.1292097
-5.562792	one	-0.2186275
-5.562792	op	-0.1985598
-5.562792	or	-0.2186275
-5.261762	oughta	-0.1827698
-4.483611	outta	-0.3384433
-5.085671	overpass	-0.2684076
-5.562792	overreactions	-0.2185621
-5.562792	overzealous	-0.218599
-4.863822	ow	-0.2368959
-5.562792	p.e.o.c.	-0.2181078
-5.261762	p9ox	-0.2981149
-5.562792	pa	-0.2180055
-5.562792	pam	-0.2096673
-5.562792	pancras	-0.2185075
-5.562792	parihaar	-0.2185907
-4.960732	parthasaarthy	-0.1972584
-5.562792	parthsaarthy	-0.1985598
-5.562792	paso	-0.2185942
-5.562792	passin	-0.2181078
-5.562792	past	-0.2186275
-5.562792	pathology	-0.2177472
-5.562792	paulie	-0.1985598
-5.261762	paஓவர	-0.1292097
-5.562792	paமீது	-0.217497
-5.261762	peeing	-0.2969951
-5.261762	peoc	-0.2176697
-5.562792	pepto-bismol	-0.2167695
-5.085671	pet	-0.2692263
-5.562792	peter	-0.218492
-5.562792	pheno	-0.2161185
-5.562792	pimp	-0.2182244
-5.562792	pimps	-0.2172729
-5.085671	pinged	-0.249812
-5.562792	pings	-0.217497
-4.960732	pissed	-0.2175196
-5.562792	pisser	-0.2165021
-4.562792	plan	-0.458837
-5.562792	plant	-0.2186275
-5.562792	playinஇருந	-0.04971156
-5.085671	please	-0.1889014
-5.562792	plutocratic	-0.2186049
-5.562792	polecat	-0.2186061
-5.562792	politia	-0.2186263
-5.562792	popcorn	-0.2185621
-5.562792	potus	-0.2184849
-5.562792	potusஒருபோங	-0.04971156
-5.562792	pow	-0.2096673
-5.085671	prayin	-0.5712397
-5.562792	presidenteஒருரோல	-0.04971156
-5.562792	pride	-0.2096673
-5.261762	primo	-0.2980377
-5.562792	priorsஒரு	-0.2185431
-5.261762	prizewinning	-0.2981102
-5.562792	probe	-0.2186275
-4.30752	professor	-0.4367914
-5.562792	professor-ரா	-0.2174815
-5.562792	prohibitors	-0.2185716
-5.562792	protection	-0.2186251
-5.562792	protective	-0.2186037
-5.562792	providence	-0.2177186
-5.562792	pso	-0.2182494
-5.562792	pucky	-0.2185823
-5.562792	purchasd	-0.2177186
-5.562792	pusher	-0.2180995
-5.562792	put	-0.2184147
-5.562792	qrt	-0.2167695
-5.562792	quittin	-0.2181078
-4.960732	rage	-0.2891617
-5.562792	ragh	-0.2166955
-5.261762	raka	-0.1965349
-5.562792	ranger	-0.1985598
-5.562792	ranger-க	-0.04971156
-5.562792	rattlesnakes	-0.2186144
-5.562792	rave	-0.218624
-5.562792	re	-0.2167325
-5.261762	reattack	-0.2981149
-5.562792	rec	-0.2186251
-5.562792	reccesசெய	-0.04971156
-5.562792	recon	-0.2170642
-5.562792	reenlisting	-0.2181055
-5.562792	reinsertion	-0.2185503
-5.562792	rem	-0.2186061
-5.562792	renoned	-0.2185514
-5.562792	repairmen	-0.1985598
-5.562792	resist	-0.1985598
-5.261762	retask	-0.298122
-5.562792	retches	-0.217497
-4.863822	revs	-0.4395984
-4.960732	revving	-0.6673499
-5.261762	ridin	-0.297606
-5.562792	riffles	-0.2185586
-4.960732	right	-0.1924075
-5.562792	riverகுளிராகஇருக	-0.04971156
-4.784641	riz	-0.1785727
-5.562792	rock	-0.217497
-5.562792	rockafellers	-0.2161137
-4.863822	rom	-0.508475
-4.332344	romilly	-0.5420282
-5.562792	roxbury	-0.1985598
-5.562792	roy	-0.2181078
-4.60855	ruchowski	-0.3816694
-5.261762	run	-0.2119277
-5.562792	rusakova	-0.2096673
-5.562792	rush	-0.2167743
-5.562792	rusia	-0.217497
-5.562792	russianதலைவர	-0.04971156
-5.085671	rustles	-0.570222
-5.261762	rustling	-0.2969951
-4.483611	s	-0.287105
-5.562792	s-பொருட	-0.04971156
-4.659702	s.	-0.9219099
-5.562792	s.o.b.	-0.1862961
-4.358672	sa	-0.2242879
-5.085671	said	-0.5688388
-5.085671	sakes	-0.2609971
-5.261762	salama	-0.2780579
-5.562792	salud	-0.1862961
-5.085671	sanjar	-0.2184742
-3.872596	saru	-0.4399811
-5.562792	sat	-0.2184135
-5.562792	sat-என	-0.04971156
-5.562792	saturn	-0.217497
-5.562792	saturn-ஐ	-0.218599
-5.562792	sayin	-0.2181078
-5.562792	saதடை	-0.1985598
-5.562792	saபிரகாசமான	-0.2178841
-5.562792	saபூல	-0.04971156
-5.562792	saமேற	-0.04971156
-5.562792	scaredy	-0.2186251
-5.261762	scaredyஉடையை	-0.2657942
-4.784641	scav	-0.241395
-5.562792	scavengers	-0.2179067
-4.659702	scavs	-0.2240839
-5.562792	schmoly	-0.2166955
-5.562792	schoolin	-0.2181078
-5.562792	scrapes	-0.2185146
-5.261762	scythes	-0.2977963
-5.261762	sea	-0.1766342
-5.085671	seatbelt	-0.269776
-5.562792	sec	-0.1985598
-5.562792	secret	-0.1862961
-5.562792	sedata	-0.1985598
-5.562792	see	-0.2135817
-5.562792	seein	-0.1985598
-5.562792	send	-0.2186263
-5.261762	sentries	-0.2171835
-5.085671	serban	-0.1946878
-5.562792	seven	-0.2161137
-5.085671	sh	-0.2376338
-5.562792	shafting	-0.2135817
-5.562792	shakily	-0.218624
-4.60855	shamu	-0.6041158
-5.562792	shashtri	-0.1985598
-5.562792	shat	-0.2135817
-5.562792	she	-0.2186275
-5.261762	shhshhshh	-0.2780579
-5.261762	shit	-0.1985162
-5.562792	shithead	-0.2096673
-5.261762	shithole	-0.1925034
-5.261762	shitting	-0.1975966
-5.085671	shitty	-0.2183041
-5.562792	should	-0.2186275
-5.261762	shoulda	-0.2185099
-5.562792	shurikens	-0.2182982
-5.085671	shushing	-0.570222
-5.562792	sidearm	-0.2185407
-5.562792	siganl	-0.217497
-5.085671	sighing	-0.2688404
-4.261762	sighs	-1.092585
-5.085671	simchak	-0.5623923
-5.562792	sinfin	-0.2128477
-5.562792	singin	-0.2181078
-4.562792	singing	-0.5019934
-5.562792	single	-0.2186275
-5.261762	singularity	-0.2969951
-4.659702	sir	-0.3861654
-5.562792	siree	-0.2096673
-5.562792	siren	-0.2186251
-4.960732	sitrep	-0.2686679
-5.562792	six	-0.2161137
-5.562792	sizzles	-0.217497
-5.562792	slacking	-0.1985598
-5.562792	slowin	-0.218593
-5.562792	smartass	-0.2096673
-5.261762	smarten	-0.209325
-5.562792	snake	-0.2180055
-5.261762	sniffles	-0.2969951
-5.261762	snippy	-0.2891653
-5.562792	snitching	-0.2186073
-5.562792	snuggie	-0.2185396
-5.261762	so	-0.2780579
-5.261762	sobs	-0.2969951
-5.562792	socked	-0.1985598
-5.562792	someone	-0.2181078
-5.562792	someones	-0.2165021
-5.562792	son	-0.2186192
-5.085671	sorry	-0.2609304
-5.085671	soto	-0.2661462
-5.562792	souffle	-0.217497
-5.562792	soul	-0.2135817
-5.562792	soundings	-0.2165021
-5.261762	sovietera	-0.2930799
-5.562792	space	-0.2186275
-4.784641	sparkplug	-0.1885645
-5.562792	spics	-0.2186121
-5.562792	sputtering	-0.217497
-5.562792	sputters	-0.217497
-5.562792	squashed	-0.2186049
-5.261762	squawking	-0.2173325
-5.562792	squeaking	-0.217497
-5.562792	squeegee	-0.1985598
-5.261762	sri	-0.2960002
-5.261762	ssh	-0.2780579
-5.261762	stammers	-0.2969951
-5.261762	stan	-0.2179984
-5.261762	stancroft	-0.2977915
-5.562792	stands	-0.2186228
-5.562792	station	-0.2186275
-5.562792	staunchestஎதிரிகள	-0.04971156
-4.863822	stay	-0.2494923
-5.562792	std	-0.2183874
-5.562792	steelers	-0.2181055
-5.562792	stomping	-0.2186049
-5.562792	stoneacre	-0.2161185
-5.562792	store	-0.218624
-5.261762	straightup	-0.2962724
-5.261762	stratosphere	-0.2174887
-5.562792	strumming	-0.2184884
-5.562792	studies	-0.217497
-5.261762	subcommander	-0.2981244
-5.261762	subseaவால	-0.1292097
-5.562792	sully	-0.2182565
-5.562792	supposing	-0.2096673
-5.562792	suspend	-0.217497
-5.562792	svd	-0.2186275
-5.085671	swanwick	-0.5623923
-5.562792	sweet	-0.2186263
-5.562792	swelteredஆயிரம	-0.04971156
-5.562792	swindled	-0.1985598
-5.261762	swishing	-0.2969951
-5.562792	sylvio	-0.2096673
-4.863822	t	-0.2400359
-5.562792	t-minus	-0.2185776
-5.562792	t.	-0.1862961
-5.562792	takinஉள	-0.04971156
-5.562792	tangos	-0.2166955
-5.562792	taoists	-0.1985598
-5.261762	tarnations	-0.2780579
-3.784641	tars	-0.9182789
-5.562792	tars-ஐ	-0.2185847
-5.562792	tars-க	-0.04971156
-5.562792	tars-ம	-0.04971156
-5.562792	tasker	-0.2167743
-5.562792	tatters	-0.2180995
-4.562792	taylor	-0.5224732
-5.562792	taலோட	-0.04971156
-5.562792	team	-0.217497
-5.562792	telegraphin	-0.2181078
-5.562792	terraforming	-0.1985598
-5.562792	tesseract-ஐ	-0.218593
-4.416664	tet	-0.2746772
-5.562792	tetதான	-0.04971156
-5.562792	tetவரைகிடைக	-0.04971156
-5.562792	than	-0.2186263
-5.562792	thank	-0.2186251
-4.960732	that	-0.2181031
-4.60855	the	-0.2521661
-5.261762	their	-0.2186263
-4.358672	there	-1.229928
-5.562792	they	-0.1862961
-5.562792	thing	-0.2184718
-5.261762	thingy	-0.2134771
-5.562792	thinkin	-0.1985598
-5.562792	those	-0.2186263
-5.562792	though	-0.2186275
-5.562792	thousa--	-0.2186109
-5.562792	three	-0.2161137
-5.085671	thudding	-0.570222
-5.562792	thuddingதாள	-0.217497
-5.562792	thuddingநின	-0.04971156
-4.863822	thuds	-0.7540895
-5.085671	thunder	-0.2186168
-5.562792	time	-0.2186275
-5.562792	tingly	-0.2184849
-5.562792	tinkles	-0.217497
-5.562792	titties	-0.2184968
-5.562792	to	-0.2186275
-4.22037	tom	-0.5040447
-5.562792	tom-ஐ	-0.2186156
-5.562792	touchdown	-0.2166955
-5.562792	town	-0.2186061
-5.085671	towne	-0.1885029
-5.562792	track	-0.2184468
-5.562792	tranquilizing	-0.2186156
-5.562792	transmitter	-0.2186275
-5.562792	transpoசெய	-0.04971156
-5.562792	tremo	-0.2161185
-5.562792	tremoவானொலி	-0.2096673
-5.562792	trixie	-0.2096673
-5.261762	truck	-0.2185705
-5.562792	ts	-0.1862961
-4.960732	tupperware	-0.236125
-5.562792	turnoff	-0.2177209
-5.562792	turntable	-0.2184896
-5.562792	tuscaloosa	-0.2185705
-5.562792	twin1	-0.2180055
-5.562792	twittering	-0.2186168
-5.562792	u.s.s.	-0.2173051
-5.261762	uh	-0.2070997
-4.416664	um	-0.6359102
-5.562792	un	-0.2161185
-5.562792	unbearable	-0.2186275
-5.562792	uncloudyநாள	-0.04971156
-5.562792	undimmed	-0.1862961
-5.085671	unh	-0.2478855
-5.562792	unpunished	-0.2181899
-5.562792	untainted	-0.1985598
-5.261762	unwrap	-0.2923458
-5.562792	unzipping	-0.217497
-4.960732	unzips	-0.28801
-5.562792	upenn	-0.2185598
-5.562792	upsy-வெளிராதவப	-0.04971156
-5.562792	us	-0.2186275
-5.562792	usb	-0.218618
-5.562792	v8	-0.1985598
-5.562792	vacuum	-0.2186275
-5.562792	vaideki	-0.2186275
-5.261762	van	-0.2181816
-5.562792	vanderbilts	-0.2096673
-5.261762	vandervoort	-0.2096624
-5.261762	veiwing	-0.2981066
-5.562792	venable	-0.2185193
-5.562792	vhs	-0.2186263
-5.562792	vi	-0.1985598
-4.960732	victor	-0.2972023
-5.085671	victoria	-0.5707305
-4.30752	vika	-0.6197857
-5.562792	vikaஎன	-0.04971156
-5.562792	vikaசெல	-0.04971156
-5.261762	vittles	-0.2980971
-5.261762	vocalizing	-0.2173087
-5.562792	voiceprints	-0.2183517
-5.261762	vsஉங	-0.1292097
-5.562792	wabashபீரங	-0.04971156
-5.261762	waco	-0.1891699
-5.085671	wailing	-0.2687343
-5.562792	wails	-0.217497
-5.562792	wait	-0.2166955
-5.261762	waitin	-0.2172205
-5.261762	wakey-wa	-0.2980757
-5.562792	walking	-0.2135817
-5.562792	warm	-0.2186275
-5.562792	warmhole	-0.217497
-5.562792	warned	-0.2186275
-5.562792	was	-0.2186275
-5.562792	wasteland	-0.2167743
-4.960732	watch	-0.1924075
-5.562792	water	-0.2186251
-5.562792	way	-0.1985598
-4.201065	wckd	-0.2800082
-5.261762	wdcpd	-0.1891699
-5.261762	we	-0.2186263
-5.562792	wgn	-0.2186263
-5.562792	wh-யார	-0.04971156
-5.562792	wha	-0.1862961
-5.562792	wha-நீங	-0.04971156
-5.562792	whacked	-0.1985598
-5.261762	what	-0.2186252
-5.562792	wheaten	-0.1862961
-5.562792	wheelhouse	-0.2185158
-5.562792	when	-0.218624
-4.562792	where	-1.040872
-5.261762	whimpering	-0.2969951
-5.562792	whimpers	-0.217497
-5.562792	whir	-0.217497
-4.717694	whirring	-0.7524082
-5.085671	whirrs	-0.570222
-5.562792	whirs	-0.217497
-4.960732	whispering	-0.6673499
-5.261762	who	-0.2186228
-4.960732	whoo	-0.6665484
-5.562792	whoo-hoo	-0.2166955
-5.562792	whorehouse	-0.2185859
-5.562792	whose	-0.2186275
-4.659702	why	-0.9537216
-5.562792	wifely	-0.2186275
-5.562792	wifey	-0.2170642
-4.960732	will	-0.2185063
-5.562792	wilmont	-0.2178841
-5.562792	wined	-0.2128477
-5.261762	winging	-0.2962724
-5.562792	wingman	-0.218555
-5.562792	wise	-0.2186275
-5.085671	wolf	-0.2186121
-4.562792	woman	-0.4581174
-5.562792	wonderin	-0.2181078
-5.562792	words	-0.2186275
-4.659702	worldwide7477	-0.2856047
-4.784641	wormhole	-0.2051512
-5.261762	wormhole-இல	-0.1292097
-5.562792	wormhole-ஐ	-0.2185158
-5.562792	wow	-0.1985598
-5.562792	writin	-0.2128477
-5.562792	written	-0.1985598
-5.562792	y.	-0.1862961
-5.562792	yaah	-0.2166955
-5.562792	yabbering	-0.1985598
-4.60855	yeah	-0.3115868
-5.261762	yeonsak	-0.2135348
-5.562792	yes	-0.1985598
-5.562792	yessa	-0.1985598
-4.784641	yorbetal	-0.237056
-5.085671	you	-0.2610166
-5.562792	youngstown	-0.2096673
-5.562792	yourself	-0.2096673
-5.562792	youtube	-0.2165021
-5.562792	yowling	-0.217497
-5.261762	zandar	-0.2780579
-4.416664	zartan	-0.2636088
-5.562792	zartanஜனாதிபதியாக	-0.2180055
-5.261762	zip	-0.2096406
-4.100394	zod	-0.3229343
-5.562792	zodசரணடைந	-0.04971156
-5.261762	zubarain	-0.2891653
-4.562792	£	-0.2333388
-5.562792	à	-0.2180055
-5.562792	ஃ	-0.1985598
-5.562792	ஃஜ	-0.04971156
-4.483611	ஃப	-0.9450262
-4.240573	ஃபக	-1.173506
-5.261762	ஃபண	-0.1292097
-5.261762	ஃபன	-0.1292097
-5.562792	ஃபனி	-0.2166955
-5.085671	ஃபயர	-0.4024366
-5.085671	ஃபவுல	-0.4024366
-5.562792	ஃபா	-0.2096673
-5.261762	ஃபாஅணி	-0.2891653
-4.960732	ஃபாக	-0.4995645
-5.261762	ஃபார	-0.1292097
-5.261762	ஃபாரல	-0.1292097
-5.562792	ஃபாரெல	-0.04971156
-5.562792	ஃபால	-0.04971156
-5.261762	ஃபாஸ	-0.1292097
-4.960732	ஃபிட	-0.4995645
-5.562792	ஃபிடில	-0.04971156
-5.562792	ஃபின	-0.04971156
-5.562792	ஃபியர	-0.04971156
-5.085671	ஃபிராங	-0.4024366
-4.332344	ஃபிரான	-1.086355
-5.562792	ஃபிரெஞ	-0.04971156
-5.085671	ஃபிலிப	-0.4024366
-4.60855	ஃபிளாஷ	-0.8310828
-5.085671	ஃபிளை	-0.1951459
-5.562792	ஃபீனிக	-0.04971156
-4.960732	ஃபீல	-0.4995645
-5.562792	ஃபூல	-0.04971156
-5.562792	ஃபெயில	-0.04971156
-5.562792	ஃபெராரி	-0.2184135
-5.562792	ஃபெல	-0.04971156
-5.085671	ஃபோகஸ	-0.4024366
-5.261762	ஃபோன	-0.1292097
-5.562792	ஃபோனில	-0.04971156
-4.562792	ஃபோர	-0.8724755
-5.562792	ஃபோஸ	-0.04971156
-5.261762	ஃபைட	-0.1292097
-5.562792	ஃபைண	-0.04971156
-5.562792	ஃபைபர	-0.04971156
-5.261762	ஃபோன	-0.1292097
-4.960732	ஃபோர	-0.4995645
-5.562792	அ	-0.217497
-4.448849	அக	-0.9772109
-5.562792	அககு	-0.1985598
-5.261762	அகம	-0.1292097
-5.562792	அகராதி	-0.2182339
-5.562792	அகராதியில	-0.04971156
-5.562792	அகராதில	-0.2177472
-4.60855	அகற	-0.8310828
-5.562792	அகவுறையின	-0.04971156
-2.991083	அங	-2.403955
-4.085671	அச	-1.322445
-5.085671	அசாதாரண	-0.2180115
-4.332344	அசிங	-1.086355
-5.261762	அசுத	-0.1292097
-5.261762	அசுரன	-0.1292097
-5.261762	அசுரனை	-0.2141693
-5.562792	அசெம	-0.04971156
-4.30752	அஜீஸ	-1.109836
-4.483611	அஞ	-0.9450262
-4.057642	அட	-0.5826401
-4.284039	அடக	-1.132113
-5.261762	அடங	-0.1292097
-4.960732	அடச	-0.4995645
-4.332344	அடடா	-0.6122137
-4.960732	அடடே	-0.4420868
-5.562792	அடத	-0.04971156
-5.261762	அடப	-0.1292097
-5.562792	அடமான	-0.2096673
-5.562792	அடமானங	-0.04971156
-5.562792	அடமானத	-0.04971156
-5.562792	அடமானபற	-0.04971156
-5.562792	அடாரி	-0.2185574
-4.416664	அடி	-0.2013699
-4.131429	அடிக	-1.278241
-4.483611	அடிச	-0.9450262
-4.717694	அடித	-0.6029315
-4.332344	அடிப	-1.086355
-5.562792	அடிபணிந	-0.04971156
-5.562792	அடிமை	-0.2165021
-5.085671	அடிமைகள	-0.4024366
-5.261762	அடிமையாகி	-0.1959255
-5.562792	அடியாட	-0.04971156
-5.261762	அடியில	-0.04965545
-5.562792	அடியிலே	-0.217709
-5.562792	அடியுங	-0.04971156
-5.562792	அடியும	-0.04971156
-5.562792	அடியே	-0.2172729
-5.562792	அடியை	-0.2186109
-4.717694	அடுக	-0.6029315
-3.756612	அடுத	-1.643996
-5.562792	அடுததவங	-0.04971156
-5.261762	அடுப	-0.1292097
-5.261762	அடேய	-0.1292097
-4.863822	அடைக	-0.5863041
-5.085671	அடைகிறேன	-0.4024366
-5.562792	அடைகிறோம	-0.04971156
-5.562792	அடைஞ	-0.04971156
-4.717694	அடைத	-0.6029315
-4.483611	அடைந	-0.9450262
-4.960732	அடைப	-0.4995645
-4.164852	அடைய	-0.2111666
-5.085671	அடையாள	-0.2154067
-5.562792	அடையாளங	-0.04971156
-5.261762	அடையாளத	-0.1292097
-5.261762	அடையாளபொய	-0.1292097
-4.261762	அடையாளம	-1.153302
-5.562792	அடையாளமாக	-0.2167743
-5.085671	அடையாளமும	-0.4024366
-5.562792	அடையிறதுக	-0.04971156
-5.562792	அடையுங	-0.04971156
-5.562792	அடையும	-0.04971156
-5.562792	அடையுரதுக	-0.04971156
-5.562792	அடைவதில	-0.04971156
-5.562792	அடைவோம	-0.04971156
-4.164852	அண	-1.246056
-4.164852	அணி	-0.3002018
-4.60855	அணிந	-0.8310828
-5.562792	அணிபின	-0.04971156
-4.562792	அணிய	-0.3054727
-5.562792	அணியவில	-0.04971156
-5.562792	அணியின	-0.04971156
-5.562792	அணியில	-0.04971156
-5.261762	அணியுங	-0.1292097
-5.562792	அணில	-0.04971156
-5.562792	அணிவகுப	-0.04971156
-4.332344	அணு	-0.2266814
-5.562792	அணுஆயுதங	-0.04971156
-4.659702	அணுக	-0.238426
-5.562792	அணுகபோது	-0.2185312
-5.562792	அணுகல	-0.04971156
-5.261762	அணுகினார	-0.1292097
-5.261762	அணுகுமுறை	-0.1853335
-5.562792	அணுகுமுறைகள	-0.04971156
-5.562792	அணுகுமுறையை	-0.1985598
-5.562792	அணுகுவதை	-0.2131174
-5.562792	அணுகுவார	-0.04971156
-5.261762	அணுசக	-0.1292097
-5.562792	அணுவும	-0.04971156
-5.085671	அணை	-0.2166836
-4.960732	அணைக	-0.4995645
-5.562792	அணைஞ	-0.04971156
-5.261762	அணைத	-0.1292097
-5.562792	அணைதான	-0.04971156
-5.562792	அணைந	-0.04971156
-5.562792	அணைப	-0.04971156
-5.562792	அணையப	-0.04971156
-5.562792	அணையுங	-0.04971156
-5.562792	அணையை	-0.2183814
-4.044278	அத	-0.1985897
-5.562792	அதகப	-0.04971156
-5.562792	அதத	-0.04971156
-3.814604	அதன	-1.586958
-3.628294	அதனால	-0.8337972
-5.562792	அதனாலதான	-0.04971156
-5.562792	அதனுடன	-0.04971156
-5.562792	அதனுள	-0.04971156
-4.60855	அதனை	-0.2216221
-5.562792	அதனைத	-0.04971156
-5.562792	அதர	-0.04971156
-3.971728	அதற	-1.433143
-5.085671	அதவிட	-0.2185966
-5.261762	அதா	-0.2135781
-4.521399	அதான	-0.910264
-3.929324	அதாவது	-0.6641054
-5.562792	அதி	-0.2185823
-3.960732	அதிக	-0.2436494
-5.261762	அதிகப	-0.1292097
-5.562792	அதிகபட	-0.04971156
-5.562792	அதிகபீட	-0.04971156
-4.261762	அதிகம	-1.153302
-5.085671	அதிகமா	-0.2672012
-4.332344	அதிகமாக	-0.2533665
-5.562792	அதிகமாகவா	-0.2135817
-5.085671	அதிகமான	-0.2185419
-5.562792	அதிகமானஜன	-0.04971156
-5.562792	அதிகமாவே	-0.2185277
-5.562792	அதிகராம	-0.04971156
-4.960732	அதிகரிக	-0.4995645
-4.784641	அதிகரித	-0.8097452
-5.562792	அதிகரிப	-0.04971156
-5.562792	அதிகார	-0.2186275
-4.960732	அதிகாரத	-0.4995645
-5.562792	அதிகாரபூர	-0.04971156
-4.863822	அதிகாரம	-0.5863041
-4.483611	அதிகாரி	-0.1722213
-5.562792	அதிகாரிக	-0.04971156
-5.085671	அதிகாரிகள	-0.4024366
-5.562792	அதிகாரிகளால	-0.04971156
-5.562792	அதிகாரியின	-0.04971156
-5.562792	அதிகாரியை	-0.2185479
-5.562792	அதிகாலை	-0.2186263
-5.085671	அதிசயங	-0.4024366
-5.261762	அதிசயம	-0.1292097
-5.261762	அதிசயமாக	-0.2962724
-5.085671	அதிபர	-0.4024366
-3.890694	அதிர	-1.512324
-4.483611	அதில	-0.9450262
-5.562792	அதிலிருந	-0.04971156
-5.562792	அதிஷ	-0.04971156
-2.595244	அது	-0.4711144
-5.562792	அது-பணம	-0.04971156
-5.562792	அதுஅங	-0.04971156
-5.261762	அதுஅனைத	-0.1292097
-5.562792	அதுஅவுட	-0.04971156
-5.562792	அதுஉண	-0.04971156
-5.562792	அதுஉனக	-0.04971156
-5.562792	அதுஎங	-0.04971156
-5.261762	அதுஎனக	-0.1292097
-5.562792	அதுஎப	-0.04971156
-5.562792	அதுஎழுதப	-0.04971156
-5.562792	அதுஐன	-0.04971156
-5.562792	அதுஒரு	-0.2186049
-4.448849	அதுக	-0.9772109
-5.562792	அதுகளுக	-0.04971156
-5.562792	அதுகஷ	-0.04971156
-5.562792	அதுகூடாதுஎன	-0.04971156
-5.261762	அதுங	-0.1292097
-5.562792	அதுசரி	-0.2096673
-5.562792	அதுசீன	-0.04971156
-5.562792	அதுசூடாகஇங	-0.04971156
-5.562792	அதுடெய	-0.04971156
-5.562792	அதுதவறுஎன	-0.04971156
-4.659702	அதுதான	-0.7853254
-5.562792	அதுதானா	-0.2135817
-5.562792	அதுநடக	-0.04971156
-5.562792	அதுநன	-0.04971156
-5.562792	அதுநிரந	-0.04971156
-5.562792	அதுநேரமானால	-0.04971156
-5.562792	அதுனால	-0.2185919
-5.562792	அதுபதில	-0.04971156
-5.562792	அதுபயம	-0.04971156
-5.562792	அதுபற	-0.04971156
-5.562792	அதுபோது	-0.2149335
-5.562792	அதுபையன	-0.04971156
-5.562792	அதுபோக	-0.2096673
-4.863822	அதுல	-0.2161759
-5.562792	அதுவந	-0.04971156
-5.261762	அதுவரை	-0.2183945
-5.261762	அதுவா	-0.213429
-4.60855	அதுவும	-0.8310828
-5.562792	அதுவுமில	-0.04971156
-5.085671	அதுவே	-0.2493872
-5.562792	அதுவேடிக	-0.04971156
-5.261762	அதெல	-0.1292097
-3.983009	அதே	-0.2442403
-5.562792	அதேசமயம	-0.04971156
-5.261762	அதேதான	-0.1292097
-5.562792	அதேதானா	-0.2135817
-5.562792	அதேநேரத	-0.04971156
-5.562792	அதேபுணர	-0.04971156
-5.085671	அதேபோல	-0.4024366
-5.562792	அதேமாதிரி	-0.2161137
-5.562792	அதேவேளை	-0.2096673
-2.757972	அதை	-0.4404219
-5.562792	அதைஃப	-0.04971156
-5.562792	அதைஇழுத	-0.04971156
-5.562792	அதைஒருபுணர	-0.04971156
-5.562792	அதைகண	-0.04971156
-5.562792	அதைகூடநான	-0.04971156
-5.562792	அதைகைவிட	-0.2166955
-5.085671	அதைச	-0.4024366
-5.562792	அதைசமையலறையில	-0.04971156
-5.562792	அதைசிறிதுஉண	-0.04971156
-5.562792	அதைசுற	-0.04971156
-4.717694	அதைசெய	-0.6029315
-5.562792	அதைசெயல	-0.04971156
-4.784641	அதைத	-0.8097452
-5.562792	அதைநன	-0.04971156
-5.562792	அதைநேட	-0.04971156
-4.60855	அதைப	-0.8310828
-5.261762	அதைபற	-0.1292097
-5.562792	அதைபார	-0.04971156
-5.562792	அதைபோலவேஇறுதியில	-0.04971156
-5.562792	அதைமறந	-0.04971156
-5.562792	அதைமிகவும	-0.04971156
-5.261762	அதையெல	-0.1292097
-5.562792	அதையொரு	-0.2184171
-4.863822	அதையே	-0.2439129
-5.562792	அதைவங	-0.04971156
-5.562792	அதைவரலாற	-0.04971156
-5.085671	அதைவிட	-0.1010323
-5.562792	அதைவைத	-0.04971156
-5.562792	அதோ	-0.2096673
-5.562792	அதோட	-0.2183886
-5.562792	அதோடு	-0.2175744
-2.862955	அந	-2.531786
-5.562792	அநாகரீக	-0.2128477
-4.659702	அநேகமாக	-0.2099372
-3.665165	அன	-1.734173
-5.562792	அனர	-0.04971156
-5.562792	அனிச	-0.04971156
-5.261762	அனுசரிக	-0.1292097
-5.562792	அனுதாபத	-0.04971156
-3.665165	அனுப	-1.734173
-5.562792	அனுபவத	-0.04971156
-5.261762	அனுபவம	-0.1292097
-4.521399	அனுபவிக	-0.910264
-5.562792	அனுபவித	-0.04971156
-5.562792	அனுபவியுங	-0.04971156
-4.416664	அனுமதி	-0.2821691
-4.182581	அனுமதிக	-1.229023
-4.863822	அனுமதித	-0.5863041
-5.562792	அனுமானங	-0.04971156
-5.261762	அனுஷ	-0.1292097
-3.112543	அனைத	-2.282869
-5.562792	அனைவரயும	-0.04971156
-5.562792	அனைவரின	-0.04971156
-5.562792	அனைவரிலும	-0.04971156
-4.448849	அனைவருக	-0.9772109
-3.872596	அனைவரும	-1.530053
-4.960732	அனைவரையும	-0.4995645
-3.031313	அப	-2.363837
-5.562792	அபகரிக	-0.04971156
-5.085671	அபத	-0.4024366
-5.562792	அபயக	-0.04971156
-5.562792	அபாய	-0.2184777
-5.562792	அபாயகரமான	-0.2186026
-5.562792	அபாயகரமானவங	-0.04971156
-5.562792	அபாயகரமாயிடும	-0.04971156
-5.562792	அபாயத	-0.04971156
-5.562792	அபாயமாயிருந	-0.04971156
-5.562792	அபாயமில	-0.04971156
-4.960732	அபார	-0.4995645
-5.562792	அபிகாயில	-0.04971156
-5.562792	அபிகைல	-0.04971156
-4.30752	அபிமன	-1.109836
-3.442218	அம	-1.954934
-4.483611	அமர	-0.9450262
-5.562792	அமருங	-0.04971156
-5.261762	அமலாக	-0.1292097
-5.562792	அமுக	-0.04971156
-5.261762	அமெச	-0.1292097
-3.939543	அமெரிக	-1.464551
-5.562792	அமெஸ	-0.04971156
-5.562792	அமை	-0.2166955
-4.284039	அமைக	-1.132113
-5.085671	அமைச	-0.4024366
-4.784641	அமைத	-0.8097452
-4.784641	அமைதி	-0.2400457
-5.562792	அமைதிக	-0.04971156
-5.562792	அமைதிபடுத	-0.04971156
-4.784641	அமைதியா	-0.216195
-4.164852	அமைதியாக	-0.2551093
-5.261762	அமைதியாகவும	-0.1292097
-5.562792	அமைதியாகிவிட	-0.04971156
-5.261762	அமைதியான	-0.2096588
-5.562792	அமைதியானதுதான	-0.04971156
-5.085671	அமைதியாய	-0.4024366
-5.562792	அமைதியின	-0.04971156
-5.261762	அமைதியில	-0.1292097
-5.562792	அமைதியைசொட	-0.04971156
-4.562792	அமைந	-0.8724755
-4.22037	அமைப	-1.192811
-5.562792	அமையலை	-0.2161137
-3.91934	அமையும	-1.484295
-5.261762	அயத	-0.1292097
-3.830399	அர	-1.571445
-4.960732	அரக	-0.4995645
-5.562792	அரங	-0.04971156
-4.60855	அரசாங	-0.8310828
-4.784641	அரசியல	-0.8097452
-5.562792	அரசியலின	-0.04971156
-5.562792	அரசியை	-0.2183945
-4.863822	அரசு	-0.2337379
-5.261762	அரசு-கலை	-0.2981232
-5.562792	அரசுச	-0.04971156
-4.659702	அரட	-0.7853254
-5.085671	அரபு	-0.2688821
-5.261762	அரிதாகவே	-0.2140216
-5.261762	அரிப	-0.1292097
-5.562792	அரிய	-0.2096673
-5.562792	அருகருகே	-0.2172729
-5.261762	அருகாமையில	-0.1292097
-4.448849	அருகில	-0.9772109
-5.261762	அருகிலேயே	-0.2070997
-4.784641	அருகே	-0.1951534
-5.562792	அருங	-0.04971156
-5.261762	அருந	-0.1292097
-5.085671	அருமை	-0.5512848
-5.562792	அருமையா	-0.2167743
-5.562792	அருமையாக	-0.2183279
-5.261762	அருமையான	-0.2185978
-4.332344	அரை	-0.2797225
-5.261762	அரைக	-0.1292097
-4.044278	அற	-1.568136
-5.261762	அறக	-0.1292097
-5.261762	அறநெறி	-0.2956166
-4.332344	அறிக	-1.086355
-5.562792	அறிகிறோம	-0.04971156
-5.261762	அறிகுறி	-0.1984415
-4.659702	அறிகுறிகள	-0.7853254
-5.562792	அறிகுறியாகும	-0.04971156
-5.562792	அறிகுறியும	-0.04971156
-5.562792	அறிகுறியேயில	-0.04971156
-5.562792	அறிஞர	-0.04971156
-5.562792	அறிது	-0.2128477
-4.562792	அறிந	-0.8724755
-5.562792	அறிமுகத	-0.04971156
-4.784641	அறிமுகப	-0.8097452
-4.960732	அறிமுகம	-0.4995645
-5.562792	அறிமுகமானது	-0.2177472
-5.562792	அறிமுகமானார	-0.04971156
-4.416664	அறிய	-0.4994437
-4.863822	அறியப	-0.5863041
-5.562792	அறியல	-0.2161137
-5.562792	அறியாது	-0.2186275
-5.085671	அறியாமை	-0.2160301
-5.562792	அறியும	-0.04971156
-5.562792	அறிவதே	-0.2096673
-5.562792	அறிவான	-0.04971156
-5.261762	அறிவானவள	-0.1292097
-5.085671	அறிவார	-0.4024366
-5.085671	அறிவாளி	-0.1871007
-5.562792	அறிவி	-0.1985598
-5.085671	அறிவிக	-0.4024366
-4.358672	அறிவிப	-1.061532
-4.562792	அறிவியல	-0.8724755
-5.261762	அறிவியலாளர	-0.1292097
-5.261762	அறிவீர	-0.1292097
-5.261762	அறிவு	-0.2167647
-5.261762	அறிவும	-0.1292097
-5.562792	அறிவுரை	-0.2183612
-5.562792	அறிவுரையும	-0.04971156
-5.261762	அறிவுறுத	-0.1292097
-5.562792	அறிவேன	-0.04971156
-5.562792	அறிவோம	-0.04971156
-5.562792	அறுக	-0.04971156
-5.562792	அறுத	-0.04971156
-5.085671	அறுபது	-0.2695274
-4.659702	அறுவடை	-0.2385772
-4.863822	அறுவை	-0.440708
-5.562792	அறுவையான	-0.2165021
-4.164852	அறை	-0.2441934
-5.562792	அறைஉள	-0.04971156
-4.863822	அறைக	-0.5863041
-5.562792	அறைகள	-0.04971156
-5.085671	அறைகளில	-0.4024366
-5.261762	அறைந	-0.1292097
-5.562792	அறைய	-0.2182042
-5.562792	அறையின	-0.04971156
-4.30752	அறையில	-1.304952
-4.960732	அறையை	-0.4529457
-5.562792	அறையைக	-0.04971156
-5.562792	அறையைத	-0.04971156
-2.979594	அல	-2.415414
-5.562792	அலகு	-0.2183481
-4.717694	அலகுகள	-0.6029315
-5.562792	அலகுமற	-0.04971156
-5.085671	அலங	-0.4024366
-5.261762	அலட	-0.1292097
-4.784641	அலபாமா	-0.2401223
-5.261762	அலமாரி	-0.2179627
-5.562792	அலமாரிகள	-0.04971156
-5.562792	அலமாரியில	-0.04971156
-5.562792	அலமாரியைதிறந	-0.04971156
-5.562792	அலறல	-0.04971156
-5.562792	அலறுகிறாள	-0.04971156
-4.562792	அலாரம	-0.8724755
-5.261762	அலி	-0.2981209
-5.562792	அலிசன	-0.04971156
-5.261762	அலுத	-0.1292097
-5.085671	அலுவலக	-0.2185206
-5.261762	அலுவலகங	-0.1292097
-4.131429	அலுவலகத	-1.278241
-4.659702	அலுவலகம	-0.7853254
-5.562792	அலுவலகமும	-0.04971156
-4.717694	அலெக	-0.6029315
-5.085671	அலை	-0.2168936
-5.261762	அலைகள	-0.1292097
-4.960732	அலைந	-0.4995645
-5.562792	அலைய	-0.2167695
-5.562792	அலையா	-0.2185443
-5.562792	அலையின	-0.04971156
-5.261762	அலைவரிசை	-0.1959255
-5.562792	அலைவரிசையிலும	-0.04971156
-5.562792	அள	-0.04971156
-5.562792	அளக	-0.04971156
-5.562792	அளவிடும	-0.04971156
-4.863822	அளவிற	-0.5863041
-4.562792	அளவில	-0.8724755
-5.261762	அளவீடுகளை	-0.2981066
-4.284039	அளவு	-0.1992495
-5.085671	அளவுக	-0.4024366
-5.562792	அளவும	-0.04971156
-5.562792	அளவே	-0.2167743
-5.562792	அளவை	-0.2185134
-4.332344	அளிக	-1.086355
-4.784641	அளித	-0.8097452
-5.562792	அளிப	-0.04971156
-5.562792	அளியுங	-0.04971156
-4.717694	அழ	-0.2079946
-5.085671	அழகா	-0.2167624
-3.960732	அழகாக	-0.5108256
-4.018724	அழகான	-0.2657668
-5.261762	அழகானடென	-0.1292097
-5.562792	அழகானது	-0.1985598
-5.562792	அழகானமோலி	-0.2128477
-5.562792	அழகாய	-0.04971156
-5.562792	அழகி	-0.2165021
-5.261762	அழகிய	-0.2184195
-5.562792	அழகியை	-0.2186263
-4.562792	அழகு	-0.2168791
-5.562792	அழகுஇல	-0.04971156
-5.261762	அழகை	-0.218278
-5.562792	அழகோ	-0.2186168
-5.261762	அழப	-0.1292097
-5.562792	அழமுடியவில	-0.04971156
-4.332344	அழிக	-1.086355
-5.562792	அழிச	-0.04971156
-5.562792	அழிஞ	-0.04971156
-4.386701	அழித	-1.035203
-4.717694	அழிந	-0.6029315
-5.562792	அழிப	-0.04971156
-5.562792	அழியப	-0.04971156
-5.562792	அழியாத	-0.1985598
-5.261762	அழிவு	-0.2969796
-5.261762	அழு	-0.2780579
-4.521399	அழுக	-0.910264
-5.562792	அழுகல	-0.04971156
-5.261762	அழுகிறது	-0.2969951
-5.085671	அழுகிறாய	-0.4024366
-5.562792	அழுகிறாள	-0.04971156
-5.562792	அழுகிறோம	-0.04971156
-5.562792	அழுகுணி	-0.2185562
-5.562792	அழுகும	-0.04971156
-4.863822	அழுகை	-0.2597473
-4.562792	அழுத	-0.8724755
-4.863822	அழுது	-0.232633
-5.562792	அழுதுவிட	-0.04971156
-4.863822	அழும	-0.5863041
-5.562792	அழுமூஞ	-0.04971156
-5.562792	அழுவாய	-0.04971156
-5.562792	அழை	-0.1985598
-3.628294	அழைக	-1.770602
-3.693561	அழைத	-1.706144
-3.687731	அழைப	-1.711896
-4.960732	அழையுங	-0.4995645
-3.756612	அவ	-0.389446
-5.562792	அவகாசம	-0.04971156
-5.562792	அவகிட	-0.04971156
-5.562792	அவகூட	-0.2186109
-3.60855	அவங	-1.790124
-4.784641	அவசர	-0.2373825
-5.261762	அவசரகால	-0.2185847
-4.784641	அவசரத	-0.8097452
-4.659702	அவசரம	-0.7853254
-5.562792	அவசரமாக	-0.2182934
-5.562792	அவசரமும	-0.04971156
-4.448849	அவசியம	-0.9772109
-5.261762	அவசியமில	-0.1292097
-5.261762	அவசியமும	-0.1292097
-5.562792	அவதான	-0.04971156
-3.398439	அவன	-1.130594
-4.960732	அவனது	-0.2184861
-5.562792	அவனா	-0.1985598
-5.562792	அவனால	-0.04971156
-4.659702	அவனிடம	-0.7853254
-5.562792	அவனின	-0.04971156
-4.147819	அவனுக	-1.262447
-4.960732	அவனுடன	-0.4995645
-4.717694	அவனுடைய	-0.2184111
-5.562792	அவனும	-0.04971156
-5.562792	அவனே	-0.2186275
-3.743248	அவனை	-0.3438637
-5.562792	அவனைஎழுப	-0.04971156
-4.960732	அவனைக	-0.4995645
-5.085671	அவனைச	-0.4024366
-5.562792	அவனைத	-0.04971156
-5.085671	அவனைப	-0.4024366
-5.261762	அவனைபார	-0.1292097
-5.562792	அவனையும	-0.04971156
-5.562792	அவனைவிட	-0.2186049
-5.562792	அவனைவெளியேஅழைத	-0.04971156
-4.562792	அவனோட	-0.2156461
-5.562792	அவமானப	-0.04971156
-5.261762	அவமானம	-0.1292097
-5.562792	அவமானமாகவும	-0.04971156
-2.360849	அவர	-2.948991
-5.562792	அவரசகால	-0.2185859
-3.361395	அவரது	-0.3327581
-5.261762	அவரதுஅடுத	-0.1292097
-5.562792	அவரதுஈடுபாடு	-0.2170272
-5.562792	அவரதுஎண	-0.04971156
-5.562792	அவரதுகட	-0.04971156
-5.562792	அவரதுகடவுள	-0.04971156
-5.562792	அவரதுசங	-0.04971156
-5.562792	அவரதுசட	-0.04971156
-5.562792	அவரதுசவுக	-0.04971156
-5.562792	அவரதுதற	-0.04971156
-5.261762	அவரதுபின	-0.1292097
-5.562792	அவரதுபுதியசோகம	-0.04971156
-5.562792	அவரதுமனதில	-0.04971156
-5.261762	அவரதுமூளை	-0.2981161
-5.562792	அவரதுவயதைபற	-0.04971156
-5.562792	அவரதுவீட	-0.04971156
-4.358672	அவரிடம	-1.061532
-5.562792	அவரின	-0.04971156
-5.261762	அவரு	-0.218454
-4.044278	அவருக	-1.362562
-4.960732	அவருடன	-0.4995645
-4.659702	அவருடைய	-0.2180424
-5.261762	அவருடையதற	-0.1292097
-5.085671	அவரும	-0.4024366
-3.112543	அவரை	-0.3401247
-5.562792	அவரைஉடுத	-0.04971156
-5.261762	அவரைக	-0.1292097
-5.562792	அவரைகொலைகிடைத	-0.04971156
-5.562792	அவரைசொல	-0.04971156
-5.261762	அவரைபார	-0.1292097
-5.562792	அவரைபெரியவளைவுஅழைக	-0.04971156
-5.562792	அவரைபெறுக	-0.2166955
-5.562792	அவரையும	-0.04971156
-5.562792	அவரைவைத	-0.04971156
-5.261762	அவரோட	-0.2183493
-4.164852	அவற	-1.246056
-3.128223	அவள	-2.057458
-5.261762	அவளது	-0.2185372
-5.562792	அவளதுஉதடுகள	-0.04971156
-4.483611	அவளிடம	-0.9450262
-5.562792	அவளின	-0.04971156
-4.018724	அவளுக	-1.387385
-4.659702	அவளுடன	-0.7853254
-4.659702	அவளுடைய	-0.1753061
-5.085671	அவளும	-0.4024366
-5.261762	அவளே	-0.2155779
-3.554192	அவளை	-0.2615416
-5.562792	அவளைஅங	-0.04971156
-5.562792	அவளைஏஞ	-0.04971156
-5.562792	அவளைசந	-0.04971156
-5.562792	அவளைப	-0.04971156
-5.562792	அவளைமிஸ	-0.04971156
-5.562792	அவளையும	-0.04971156
-4.717694	அவளோட	-0.2162942
-5.562792	அவளோடதை	-0.2183053
-5.562792	அவளோடு	-0.218624
-4.562792	அவா	-0.4237118
-5.562792	அவியோனிக	-0.04971156
-5.261762	அவிழ	-0.1292097
-5.562792	அவுங	-0.04971156
-4.164852	அவுட	-1.246056
-5.562792	அவுன	-0.04971156
-4.784641	அவென	-0.8097452
-4.071431	அவை	-0.2262772
-4.784641	அவைகள	-0.8097452
-5.562792	அவைகளிடம	-0.04971156
-5.261762	அவைகளுக	-0.1292097
-5.085671	அவைகளை	-0.2180769
-5.562792	அவைகளைக	-0.04971156
-5.562792	அவைகளோடு	-0.2186073
-5.562792	அவையும	-0.04971156
-5.562792	அஸ	-0.04971156
-3.90958	ஆ	-0.9340438
-4.284039	ஆஃப	-1.132113
-4.085671	ஆக	-0.2549002
-5.562792	ஆகணும	-0.04971156
-5.562792	ஆகத	-0.04971156
-5.562792	ஆகனும	-0.04971156
-5.562792	ஆகமாட	-0.04971156
-5.261762	ஆகலாம	-0.1292097
-5.562792	ஆகவிருந	-0.04971156
-5.562792	ஆகவில	-0.04971156
-5.085671	ஆகவும	-0.4024366
-5.562792	ஆகவே	-0.2180329
-5.562792	ஆகவேண	-0.04971156
-5.562792	ஆகஸ	-0.04971156
-5.562792	ஆகா	-0.2186109
-5.562792	ஆகி	-0.2181626
-5.562792	ஆகிய	-0.2186275
-5.562792	ஆகியிருக	-0.04971156
-4.044278	ஆகிறது	-0.7081077
-5.562792	ஆகிறதுகேள	-0.04971156
-5.562792	ஆகிறார	-0.04971156
-4.863822	ஆகிவிட	-0.5863041
-3.730283	ஆகும	-1.669932
-5.562792	ஆகையால	-0.04971156
-4.659702	ஆங	-0.7853254
-3.939543	ஆச	-1.464551
-5.261762	ஆசப	-0.1292097
-5.562792	ஆசாரியர	-0.04971156
-5.562792	ஆசிய	-0.2186002
-5.562792	ஆசியா	-0.2186085
-4.960732	ஆசிர	-0.4995645
-4.448849	ஆசிரியர	-1.163644
-5.562792	ஆசிரியரா	-0.2135817
-5.562792	ஆசிரியரும	-0.04971156
-5.562792	ஆசிரியரே	-0.2161137
-5.562792	ஆசிரியை	-0.2184884
-4.562792	ஆசீர	-0.8724755
-4.863822	ஆசை	-0.1956035
-5.562792	ஆசைகளை	-0.2186097
-5.085671	ஆசைப	-0.4024366
-5.562792	ஆசைய	-0.2186263
-4.784641	ஆஜிஸ	-0.8097452
-4.358672	ஆட	-0.7734382
-5.562792	ஆடஎப	-0.04971156
-4.717694	ஆடம	-0.6029315
-5.562792	ஆடர	-0.04971156
-5.562792	ஆடவும	-0.04971156
-5.562792	ஆடவேண	-0.04971156
-5.562792	ஆடாதே	-0.1862961
-5.562792	ஆடியோ	-0.2135817
-5.562792	ஆடு	-0.2170642
-5.562792	ஆடுகளத	-0.04971156
-5.562792	ஆடுகளை	-0.2182934
-5.562792	ஆடுகின	-0.04971156
-5.562792	ஆடுகிறது	-0.2096673
-5.562792	ஆடுகிறான	-0.04971156
-4.60855	ஆடை	-0.2034063
-5.261762	ஆடைகள	-0.1292097
-5.562792	ஆடைகளை	-0.2186216
-3.364135	ஆண	-2.03248
-5.562792	ஆணி	-0.2184147
-5.562792	ஆணுறுப	-0.04971156
-5.562792	ஆணுறை	-0.2185538
-5.562792	ஆணை	-0.2182982
-5.562792	ஆணையாக	-0.2166955
-5.562792	ஆணையிட	-0.04971156
-5.085671	ஆத	-0.4024366
-5.562792	ஆதரவ	-0.2131174
-5.562792	ஆதரவளிக	-0.04971156
-5.562792	ஆதரவாக	-0.2167695
-5.562792	ஆதரவிற	-0.04971156
-4.784641	ஆதரவு	-0.2121917
-5.562792	ஆதரவுடன	-0.04971156
-5.562792	ஆதரவை	-0.2183588
-4.863822	ஆதரிக	-0.5863041
-5.562792	ஆதரிப	-0.04971156
-5.085671	ஆதாரங	-0.4024366
-4.784641	ஆதாரம	-0.8097452
-5.562792	ஆதாரமாக	-0.2177186
-5.562792	ஆதாவ	-0.04971156
-4.863822	ஆதியாகமம	-0.5863041
-3.90958	ஆன	-1.70274
-5.562792	ஆனதானு	-0.2181864
-4.659702	ஆனது	-0.6512898
-3.79194	ஆனா	-0.2677256
-4.960732	ஆனார	-0.4995645
-2.850985	ஆனால	-2.543732
-4.960732	ஆனாலும	-0.4995645
-4.60855	ஆப	-0.8310828
-4.131429	ஆபத	-1.278241
-5.085671	ஆபரேட	-0.4024366
-4.960732	ஆபாச	-0.1978983
-5.562792	ஆபீசர	-0.04971156
-3.589664	ஆம	-1.808806
-3.939543	ஆமா	-0.7167954
-5.562792	ஆமா.இவ	-0.04971156
-3.112543	ஆமாம	-2.282869
-5.562792	ஆமி	-0.2186263
-4.416664	ஆமென	-1.007174
-5.562792	ஆமைக	-0.04971156
-5.562792	ஆமைய	-0.2186192
-4.164852	ஆய	-0.8436725
-5.562792	ஆயத	-0.04971156
-5.562792	ஆயா	-0.2177186
-5.562792	ஆயிட	-0.04971156
-5.562792	ஆயிடுச	-0.04971156
-5.562792	ஆயிடும	-0.04971156
-5.085671	ஆயிரக	-0.4024366
-4.416664	ஆயிரம	-1.007174
-5.562792	ஆயிரிச	-0.04971156
-5.562792	ஆயிருக	-0.04971156
-5.085671	ஆயிற	-0.4024366
-5.562792	ஆயுட	-0.04971156
-5.261762	ஆயுத	-0.2185693
-4.284039	ஆயுதங	-1.132113
-5.085671	ஆயுதத	-0.4024366
-5.562792	ஆயுதபலம	-0.04971156
-4.863822	ஆயுதம	-0.5863041
-5.562792	ஆயுதமாக	-0.2185253
-5.261762	ஆயுள	-0.1292097
-3.872596	ஆர	-1.530053
-5.562792	ஆரஞ	-0.04971156
-4.085671	ஆரம	-1.322445
-4.358672	ஆராய	-0.7727805
-5.562792	ஆராயலாம	-0.04971156
-5.085671	ஆரோக	-0.4024366
-5.562792	ஆரோன	-0.04971156
-5.562792	ஆரோகியமா	-0.2167743
-4.521399	ஆற	-1.091095
-4.182581	ஆறு	-0.2989358
-5.562792	ஆறுதல	-0.04971156
-5.562792	ஆறுதலா	-0.2167743
-5.562792	ஆறுதலாக	-0.2167743
-3.872596	ஆல	-1.530053
-5.562792	ஆலங	-0.04971156
-5.562792	ஆலன	-0.04971156
-5.562792	ஆலயத	-0.04971156
-5.261762	ஆலிஸ	-0.1292097
-4.659702	ஆலோசகர	-0.7853254
-4.521399	ஆலோசனை	-0.2066382
-5.261762	ஆலோசனையை	-0.2109635
-5.562792	ஆலை	-0.2185193
-5.562792	ஆலோசகரா	-0.2167743
-4.332344	ஆள	-0.8530199
-5.562792	ஆளின	-0.04971156
-5.562792	ஆளில	-0.04971156
-5.562792	ஆளு	-0.1985598
-5.562792	ஆளுங	-0.04971156
-5.562792	ஆளுனு	-0.2161137
-4.60855	ஆழ	-0.8310828
-5.562792	ஆழத	-0.04971156
-4.784641	ஆழமாக	-0.2687319
-5.261762	ஆழமாகமூச	-0.1292097
-5.085671	ஆழமான	-0.1968237
-5.261762	ஆவணங	-0.1292097
-5.261762	ஆவணத	-0.1292097
-5.562792	ஆவதற	-0.04971156
-5.562792	ஆவனாக	-0.2184552
-5.562792	ஆவலுடன	-0.04971156
-4.960732	ஆவார	-0.4995645
-4.332344	ஆவி	-0.3331743
-5.261762	ஆவியா	-0.1984689
-5.085671	ஆவியாக	-0.04825194
-5.562792	ஆவியானவர	-0.04971156
-5.562792	ஆவியை	-0.2177209
-5.085671	ஆஷ	-0.4024366
-5.562792	ஆஷெர	-0.04971156
-5.562792	ஆஷோவ	-0.04971156
-5.562792	ஆஷை	-0.2185621
-5.562792	ஆஷைக	-0.04971156
-4.562792	ஆஸ	-0.8724755
-5.085671	ஆஹா	-0.5623923
-2.698875	இங	-2.695594
-5.261762	இச	-0.1292097
-5.562792	இசட	-0.04971156
-3.79194	இசை	-0.6445878
-4.659702	இசைக	-0.7853254
-5.562792	இசைகாதணிகள	-0.04971156
-5.562792	இசைதாமதப	-0.04971156
-5.562792	இசைநின	-0.04971156
-5.562792	இசைமறைதல	-0.04971156
-5.562792	இசையினால	-0.2186275
-5.562792	இசையில	-0.04971156
-5.562792	இசைவானொலி	-0.2184647
-5.562792	இசைவிழாவுல	-0.2161137
-4.863822	இஞ	-0.5863041
-4.386701	இட	-0.923417
-4.521399	இடங	-0.910264
-3.643714	இடத	-1.755362
-4.416664	இடது	-0.2130192
-4.147819	இடம	-1.262447
-5.562792	இடமாக	-0.2172729
-5.085671	இடமாற	-0.4024366
-5.562792	இடமிருக	-0.04971156
-5.562792	இடமிருந	-0.04971156
-5.562792	இடவும	-0.04971156
-5.261762	இடிப	-0.1292097
-5.261762	இடிபாடுகள	-0.1292097
-5.562792	இடிபாடுகளை	-0.2184433
-5.085671	இடியட	-0.4024366
-5.085671	இடும	-0.4024366
-5.562792	இடை	-0.2186073
-5.085671	இடைகழி	-0.5692271
-5.085671	இடைஞ	-0.4024366
-5.562792	இடைத	-0.04971156
-5.562792	இடைநிற	-0.04971156
-5.085671	இடைநிறுத	-0.4024366
-5.261762	இடைநிலை	-0.1959305
-5.261762	இடைமறித	-0.1292097
-4.960732	இடையில	-0.4995645
-4.960732	இடையூறு	-0.1967174
-5.562792	இடையூறுகளை	-0.2185645
-4.562792	இடையே	-0.1940212
-5.562792	இடையேபிடித	-0.04971156
-5.562792	இடையேயான	-0.2185705
-4.960732	இடைவெளி	-0.2528756
-5.261762	இடைவெளிக	-0.1292097
-5.562792	இடைவெளிகள	-0.04971156
-5.562792	இடைவெளியை	-0.2185871
-4.784641	இடைவேளை	-0.3729177
-5.261762	இடைவேளையின	-0.1292097
-5.562792	இடைவேளையிலா	-0.2135817
-5.085671	இண	-0.4024366
-4.960732	இணக	-0.4995645
-5.562792	இணங	-0.04971156
-5.562792	இணந	-0.04971156
-4.416664	இணைக	-1.007174
-5.562792	இணைத	-0.04971156
-4.784641	இணைந	-0.8097452
-4.863822	இணைப	-0.5863041
-4.960732	இணைய	-0.2364749
-5.562792	இணையத	-0.04971156
-4.960732	இணையும	-0.4995645
-3.939543	இத	-0.2004537
-4.960732	இதன	-0.4995645
-4.717694	இதனை	-0.2161795
-4.960732	இதய	-0.1862525
-5.562792	இதயக	-0.04971156
-4.960732	இதயங	-0.4995645
-4.717694	இதயத	-0.6029315
-4.30752	இதயம	-1.109836
-5.085671	இதர	-0.2185954
-4.416664	இதற	-1.195801
-4.386701	இதில	-1.035203
-5.562792	இதிலிருந	-0.04971156
-2.681979	இது	-0.3898209
-5.562792	இதுy	-0.2096673
-5.562792	இதுஅசுத	-0.04971156
-5.562792	இதுஆதியாகமம	-0.04971156
-5.261762	இதுஉங	-0.1292097
-5.562792	இதுஉண	-0.04971156
-5.562792	இதுஎல	-0.04971156
-5.562792	இதுஏன	-0.04971156
-5.562792	இதுஒரு	-0.2186275
-5.562792	இதுஒருகூண	-0.04971156
-5.261762	இதுஒருசோகபுல	-0.1292097
-5.261762	இதுஒருநல	-0.1292097
-5.562792	இதுஒருநிமிடத	-0.04971156
-4.60855	இதுக	-0.8310828
-5.562792	இதுகேண	-0.04971156
-5.562792	இதுங	-0.04971156
-5.562792	இதுஜாக	-0.04971156
-5.562792	இதுதவிர	-0.2175744
-4.784641	இதுதான	-0.8097452
-5.562792	இதுதானா	-0.2135817
-5.562792	இதுதுடைக	-0.04971156
-5.562792	இதுநன	-0.04971156
-5.562792	இதுநமக	-0.04971156
-5.261762	இதுமிகவும	-0.1292097
-5.261762	இதுமுதல	-0.1292097
-5.562792	இதுமோசமாகஇருந	-0.04971156
-5.562792	இதுராக	-0.04971156
-4.717694	இதுல	-0.2157155
-5.562792	இதுலதான	-0.04971156
-4.261762	இதுவரை	-0.2153211
-5.562792	இதுவரைஅனைத	-0.04971156
-5.562792	இதுவாழ	-0.04971156
-5.562792	இதுவும	-0.04971156
-5.085671	இதுவே	-0.2179936
-5.562792	இதுவேண	-0.04971156
-5.562792	இதென	-0.04971156
-4.717694	இதெல	-0.6029315
-5.261762	இதே	-0.2177043
-5.562792	இதேபோல	-0.04971156
-5.261762	இதோ	-0.298065
-3.567157	இதை	-0.3805385
-5.562792	இதைக	-0.04971156
-5.085671	இதைச	-0.4024366
-5.085671	இதைசெய	-0.4024366
-5.562792	இதைத	-0.04971156
-5.085671	இதைப	-0.4024366
-5.562792	இதையும	-0.04971156
-5.261762	இதையெல	-0.1292097
-5.562792	இதையொட	-0.04971156
-5.562792	இதைவிட	-0.2181293
-4.416664	இதோ	-0.3467413
-5.562792	இதோட	-0.2186061
-2.516688	இந	-2.877578
-2.914432	இன	-2.698059
-5.562792	இனங	-0.04971156
-4.521399	இனத	-0.910264
-4.863822	இனப	-0.5863041
-4.659702	இனம	-0.7853254
-5.562792	இனமாக	-0.2186144
-5.261762	இனவாத	-0.2184052
-3.603751	இனி	-0.2147644
-5.562792	இனிgoசொல	-0.04971156
-5.562792	இனிஇனியஎன	-0.04971156
-4.960732	இனிஇப	-0.4995645
-5.562792	இனிஇல	-0.04971156
-5.562792	இனிஉங	-0.04971156
-5.562792	இனிஎன	-0.04971156
-5.562792	இனிநாம	-0.04971156
-4.659702	இனிப	-0.7853254
-5.562792	இனிமே	-0.2131174
-5.085671	இனிமேல	-0.4024366
-5.085671	இனிமையாக	-0.197342
-5.261762	இனிமையான	-0.218605
-5.562792	இனிமையானவர	-0.04971156
-4.115634	இனிய	-0.2273222
-5.562792	இனியவளே	-0.2186156
-5.562792	இனியவிழுங	-0.04971156
-5.562792	இனியும	-0.04971156
-2.820853	இப	-2.573808
-4.044278	இம	-1.362562
-5.562792	இமைகள	-0.04971156
-3.770401	இயக	-1.630423
-4.00649	இயங	-1.399284
-3.90958	இயந	-1.493841
-4.483611	இயற	-0.9450262
-5.085671	இயல	-0.4024366
-4.784641	இயலாது	-0.9585934
-5.562792	இயலும	-0.04971156
-4.358672	இயேசு	-0.3291871
-5.562792	இயேசுவின	-0.04971156
-5.261762	இயேசுவே	-0.1959255
-5.562792	இரக	-0.04971156
-4.784641	இரகசிய	-0.2429901
-5.261762	இரகசியங	-0.1292097
-5.562792	இரகசியநாக	-0.04971156
-4.863822	இரகசியமாக	-0.3681434
-5.562792	இரசாயன	-0.2170642
-4.284039	இரட	-1.132113
-3.216439	இரண	-2.179388
-5.562792	இரணமான	-0.2186263
-4.031313	இரத	-1.375151
-5.562792	இரநூற	-0.04971156
-5.562792	இரவ	-0.1985598
-5.562792	இரவா	-0.2135817
-5.562792	இரவின	-0.04971156
-4.60855	இரவில	-0.8310828
-3.648978	இரவு	-0.2605568
-5.261762	இரவுக	-0.1292097
-5.562792	இரவுகளில	-0.04971156
-5.562792	இரவுச	-0.04971156
-5.562792	இரவுநான	-0.04971156
-4.784641	இரவும	-0.8097452
-5.562792	இரவுமுழுவதும	-0.04971156
-5.562792	இரவுல	-0.2180007
-5.562792	இரவுஹன	-0.04971156
-5.261762	இரவுஹாங	-0.1292097
-5.261762	இரா	-0.2981244
-5.562792	இராண	-0.04971156
-4.416664	இராணுவ	-0.2287277
-5.562792	இராணுவஅதிகாரி	-0.2180055
-5.562792	இராணுவச	-0.04971156
-5.261762	இராணுவத	-0.1292097
-3.838516	இரு	-0.4897372
-5.562792	இரு.சொல	-0.04971156
-2.370504	இருக	-3.02365
-5.562792	இருகிங	-0.04971156
-5.261762	இருகிறது	-0.2891653
-5.085671	இருகேன	-0.4024366
-5.562792	இருகோம	-0.04971156
-4.131429	இருங	-1.278241
-5.261762	இருட	-0.1292097
-4.659702	இருண	-0.7853254
-5.562792	இருதயத	-0.04971156
-5.261762	இருதயம	-0.1292097
-2.679131	இருந	-2.715312
-5.562792	இருநூற	-0.04971156
-3.562792	இருப	-1.835404
-5.261762	இருபத	-0.1292097
-4.863822	இருபது	-0.248164
-5.085671	இரும	-0.4024366
-4.521399	இருமல	-0.910264
-5.562792	இருமிகிறேன	-0.04971156
-4.863822	இருமுறை	-0.2392872
-5.261762	இருமுறைஇருக	-0.1292097
-5.562792	இருமுறைஒருவாரம	-0.04971156
-5.562792	இருமுறைஞாயிறுகளில	-0.04971156
-5.562792	இருமுறைமேல	-0.04971156
-5.562792	இருள	-0.04971156
-5.261762	இருளாக	-0.296771
-5.562792	இருளில	-0.04971156
-5.562792	இருளுக	-0.04971156
-4.960732	இருவருக	-0.4995645
-4.240573	இருவரும	-1.173506
-5.261762	இருவரையும	-0.1292097
-5.562792	இரைப	-0.04971156
-3.82243	இறக	-1.579271
-4.164852	இறங	-1.246056
-3.57602	இறந	-1.822309
-4.386701	இறப	-1.035203
-5.562792	இறவாத	-0.2185705
-5.562792	இறவாதவேண	-0.04971156
-4.784641	இறுக	-0.8097452
-5.562792	இறுகிய	-0.1985598
-4.448849	இறுதி	-0.4645844
-5.562792	இறுதிக	-0.04971156
-5.562792	இறுதிகணக	-0.04971156
-4.562792	இறுதியாக	-0.2582796
-5.562792	இறுதியாகஉலகின	-0.04971156
-5.261762	இறுதியாகநாம	-0.1292097
-4.284039	இறுதியில	-1.132113
-5.085671	இறைச	-0.4024366
-5.562792	இறையாண	-0.04971156
-5.562792	இறையியல	-0.04971156
-4.521399	இறைவன	-0.910264
-5.562792	இறைவா	-0.2166955
-2.311154	இல	-2.498902
-4.071431	இலக	-1.336233
-5.085671	இலட	-0.4024366
-5.562792	இலத	-0.04971156
-4.201065	இலவச	-0.3057253
-5.562792	இலவசம	-0.04971156
-5.085671	இலவசமா	-0.218536
-5.085671	இலவசமாக	-0.1952249
-5.562792	இலவசமானது	-0.1985598
-4.960732	இலைகள	-0.4995645
-5.562792	இள	-0.2186228
-5.562792	இளநிலை	-0.1985598
-4.358672	இளம	-1.061532
-5.562792	இளமையுடன	-0.04971156
-5.562792	இளவயதினர	-0.04971156
-5.562792	இளவயது	-0.2186121
-5.085671	இளவரசன	-0.4024366
-5.562792	இளவரசனின	-0.04971156
-5.562792	இளவரசனுக	-0.04971156
-5.562792	இளவரசனோட	-0.218624
-5.085671	இளவரசர	-0.1009849
-5.562792	இளவரசருக	-0.04971156
-5.261762	இளவரசரை	-0.2172777
-5.085671	இளவரசி	-0.2610154
-5.562792	இளவரசே	-0.2184968
-5.085671	இளைஞர	-0.4024366
-5.261762	இளைய	-0.2179924
-5.562792	இளையமற	-0.04971156
-4.115634	இழக	-1.293481
-3.770401	இழந	-1.630423
-4.416664	இழப	-1.007174
-5.562792	இழிந	-0.04971156
-4.717694	இழு	-0.3867553
-4.201065	இழுக	-1.211294
-5.562792	இழுகிக	-0.04971156
-4.386701	இழுத	-1.035203
-5.562792	இழுப	-0.04971156
-5.562792	இழுவை	-0.2186014
-5.261762	இழையில	-0.1292097
-3.994591	இவ	-1.308325
-4.960732	இவங	-0.4995645
-4.448849	இவன	-0.9772109
-5.562792	இவனா	-0.1985598
-5.261762	இவனுக	-0.1292097
-5.562792	இவனுங	-0.04971156
-5.562792	இவனை	-0.2186061
-4.60855	இவர	-1.003119
-5.562792	இவரை	-0.2181626
-5.562792	இவற	-0.04971156
-4.784641	இவள	-0.8097452
-4.332344	இவான	-1.086355
-5.562792	இவை	-0.2182934
-5.562792	இவைகள	-0.04971156
-5.261762	இஷ	-0.1292097
-4.22037	இஸ	-1.192811
-4.960732	ஈ	-0.2542279
-5.261762	ஈஎம	-0.1292097
-5.261762	ஈக	-0.1292097
-5.562792	ஈகோ	-0.2186275
-5.085671	ஈட	-0.4024366
-5.562792	ஈடாகஎன	-0.04971156
-5.562792	ஈடியையும	-0.04971156
-5.562792	ஈடு	-0.2186156
-5.562792	ஈடுசெய	-0.04971156
-4.562792	ஈடுபட	-0.1533641
-5.261762	ஈடுபடகூறினார	-0.1292097
-5.562792	ஈடுபடலாம	-0.04971156
-5.562792	ஈடுபடுகிறாள	-0.04971156
-5.562792	ஈடுபடுவாய	-0.04971156
-5.261762	ஈடுபாடுள	-0.1292097
-4.164852	ஈர	-1.246056
-5.261762	ஈரப	-0.1292097
-5.562792	ஈரமாக	-0.04971156
-5.562792	ஈரமான	-0.2170642
-5.085671	ஈராக	-0.4024366
-5.562792	ஈரான	-0.04971156
-5.261762	ஈவ	-0.1292097
-5.562792	ஈஸ	-0.04971156
-5.562792	ஈாப	-0.04971156
-5.562792	உ.பி	-0.2174815
-4.521399	உ.பி.	-0.3403652
-4.960732	உக	-0.4995645
-5.562792	உகந	-0.04971156
-2.489074	உங	-2.905168
-4.863822	உச	-0.5863041
-3.814604	உட	-1.586958
-4.057642	உடன	-1.349597
-5.261762	உடனடி	-0.2184326
-5.562792	உடனடிஉதவி	-0.2186263
-4.448849	உடனடியாக	-0.1951986
-4.717694	உடனே	-0.205053
-4.386701	உடம	-1.035203
-5.261762	உடமைகளை	-0.2174815
-4.562792	உடற	-0.8724755
-4.201065	உடல	-1.211294
-5.085671	உடலில	-0.4024366
-5.261762	உடலை	-0.2185931
-4.960732	உடுத	-0.4995645
-4.863822	உடை	-0.2120684
-4.483611	உடைக	-0.9450262
-5.261762	உடைகள	-0.1292097
-5.562792	உடைகளையும	-0.04971156
-5.562792	உடைஞ	-0.04971156
-4.562792	உடைத	-0.8724755
-4.562792	உடைந	-0.8724755
-5.562792	உடைப	-0.04971156
-5.261762	உடைமை	-0.1891699
-5.085671	உடைய	-0.2185622
-5.562792	உடையது	-0.1985598
-5.562792	உடையலை	-0.1985598
-4.60855	உடையில	-0.8310828
-5.562792	உடையிலா	-0.1985598
-5.562792	உடையும	-0.04971156
-5.085671	உடையை	-0.1847672
-5.562792	உடையைப	-0.04971156
-5.562792	உடையையும	-0.04971156
-3.157959	உண	-2.237623
-3.480007	உணர	-0.6375908
-5.562792	உணரஎன	-0.04971156
-5.562792	உணரக	-0.04971156
-5.261762	உணரச	-0.1292097
-5.562792	உணரப	-0.04971156
-5.562792	உணரமுடியாது	-0.2161137
-5.562792	உணரமுடியும	-0.04971156
-5.562792	உணரவில	-0.04971156
-5.085671	உணரவைக	-0.4024366
-5.562792	உணருகிறேன	-0.04971156
-5.562792	உணருங	-0.04971156
-5.562792	உணருவீர	-0.04971156
-5.261762	உணவக	-0.2780579
-5.562792	உணவகங	-0.04971156
-5.261762	உணவகத	-0.1292097
-5.562792	உணவகம	-0.04971156
-5.562792	உணவளிக	-0.04971156
-5.085671	உணவிற	-0.4024366
-3.960732	உணவு	-0.2417491
-5.562792	உணவுப	-0.04971156
-4.863822	உணவை	-0.2172646
-5.562792	உணவைப	-0.04971156
-4.240573	உத	-1.173506
-5.261762	உதடுகள	-0.1292097
-3.863822	உதவ	-0.5637689
-5.562792	உதவணும	-0.04971156
-5.562792	உதவத	-0.04971156
-5.562792	உதவப	-0.04971156
-5.562792	உதவமுடியாது	-0.1985598
-5.562792	உதவமுடியாதுனு	-0.1985598
-5.562792	உதவறோம	-0.04971156
-5.562792	உதவலாமா	-0.2135817
-5.261762	உதவவில	-0.1292097
-5.562792	உதவவேண	-0.04971156
-5.261762	உதவாக	-0.1292097
-3.756612	உதவி	-0.4607562
-5.562792	உதவிகள	-0.04971156
-5.562792	உதவினா	-0.1985598
-5.562792	உதவியது	-0.1985598
-5.562792	உதவியா	-0.2167743
-5.562792	உதவியாளர	-0.04971156
-5.562792	உதவியாளும	-0.04971156
-5.562792	உதவு	-0.1985598
-5.562792	உதவுகின	-0.04971156
-5.261762	உதவுகிறது	-0.2780579
-5.261762	உதவுகிறேன	-0.1292097
-5.085671	உதவுங	-0.4024366
-4.332344	உதவும	-1.086355
-5.562792	உதவுமாறு	-0.2185253
-5.562792	உதவுவதில	-0.04971156
-5.562792	உதவுவது	-0.2135817
-5.085671	உதவுவேன	-0.4024366
-5.562792	உதாரணங	-0.04971156
-5.562792	உதாரணமாக	-0.2183517
-4.784641	உதைக	-0.8097452
-4.784641	உதைத	-0.8097452
-4.60855	உந	-0.8310828
-2.894406	உன	-2.5004
-3.161392	உனக	-2.234203
-5.085671	உனது	-0.218391
-4.960732	உப	-0.235513
-5.261762	உபகரணங	-0.1292097
-5.562792	உபகரணத	-0.04971156
-5.562792	உபச	-0.04971156
-5.562792	உபசரிப	-0.04971156
-5.085671	உபயோகப	-0.4024366
-5.261762	உபயோகமாக	-0.2962724
-5.562792	உபயோகமான	-0.2184647
-5.085671	உபயோகிக	-0.4024366
-5.562792	உம	-0.04971156
-5.562792	உமிழ	-0.04971156
-3.950008	உயர	-1.454332
-5.562792	உயரடுக	-0.04971156
-5.261762	உயரத	-0.1292097
-5.562792	உயரம	-0.04971156
-4.960732	உயரமான	-0.2555237
-5.562792	உயரிய	-0.2186263
-5.085671	உயரும	-0.4024366
-4.018724	உயிர	-1.387385
-5.562792	உயிரிகளிடம	-0.04971156
-5.562792	உயிரினம	-0.04971156
-5.261762	உயிரியல	-0.1292097
-5.562792	உயிரியலாளர	-0.04971156
-5.562792	உயிரிழக	-0.04971156
-5.562792	உயிருக	-0.04971156
-4.147819	உயிருடன	-1.262447
-5.562792	உயிரேயே	-0.2186251
-4.30752	உயிரோடு	-0.5231042
-5.562792	உயிரோடுஇருந	-0.04971156
-5.562792	உயிரோடே	-0.2167695
-4.483611	உயிரை	-0.4685516
-5.562792	உயிரோட	-0.2165021
-5.562792	உயிரோடத	-0.04971156
-4.960732	உயிரோடு	-0.2147596
-5.562792	உயில	-0.04971156
-5.562792	உரக	-0.04971156
-4.784641	உரத	-0.8097452
-5.562792	உராய	-0.04971156
-4.784641	உரிமம	-0.8097452
-4.22037	உரிமை	-0.326278
-5.085671	உரிமைகளை	-0.2695726
-4.960732	உரிமையாளர	-0.4995645
-4.784641	உரிமையும	-0.8097452
-5.562792	உரிய	-0.2183505
-5.562792	உரியதாகும	-0.04971156
-5.562792	உரியது	-0.1985598
-5.562792	உருகும	-0.04971156
-4.960732	உருட	-0.4995645
-5.562792	உருது	-0.2184742
-5.261762	உருதுகத	-0.1292097
-5.261762	உருளைக	-0.1292097
-5.562792	உருவகப	-0.04971156
-5.562792	உருவகமாக	-0.2177186
-4.717694	உருவம	-0.6029315
-5.562792	உருவமாக	-0.2165021
-4.261762	உருவாக	-1.153302
-5.562792	உருவாகியுள	-0.04971156
-5.562792	உருவாகுததுனா	-0.2128477
-5.261762	உருவானதாகும	-0.1292097
-5.562792	உருவானது	-0.2161185
-5.562792	உருவானீங	-0.04971156
-4.784641	உரை	-0.1886557
-5.562792	உரைக	-0.04971156
-5.562792	உரைகள	-0.04971156
-5.562792	உரைப	-0.04971156
-4.717694	உரையாடல	-0.5841544
-5.261762	உரையாடலில	-0.1292097
-5.261762	உரையாடலும	-0.1292097
-5.562792	உரையாற	-0.04971156
-5.261762	உரையில	-0.1292097
-5.562792	உரையை	-0.2185978
-4.562792	உற	-0.8724755
-4.863822	உறக	-0.5863041
-4.960732	உறங	-0.4995645
-4.960732	உறவினர	-0.4995645
-4.659702	உறவு	-0.2320089
-5.562792	உறவுகளில	-0.04971156
-5.261762	உறவுகளை	-0.2185206
-5.562792	உறவுகளைஇழுத	-0.04971156
-5.562792	உறவை	-0.2183339
-5.085671	உறிஞ	-0.4024366
-3.983009	உறுதி	-0.6818637
-5.562792	உறுதிசெய	-0.04971156
-4.358672	உறுதிப	-1.061532
-5.562792	உறுதிமொழி	-0.2186263
-4.960732	உறுதியளிக	-0.4995645
-4.960732	உறுதியளித	-0.4995645
-5.085671	உறுதியா	-0.2646616
-4.201065	உறுதியாக	-0.896749
-5.562792	உறுதியாவா	-0.2135817
-5.562792	உறுதியை	-0.2181626
-4.960732	உறுப	-0.4995645
-4.483611	உறுமல	-0.9450262
-5.562792	உறை	-0.2172729
-5.562792	உறைஞ	-0.04971156
-5.562792	உறைந	-0.04971156
-5.562792	உறைபனி	-0.2185942
-5.261762	உறைய	-0.214828
-5.562792	உறைவிப	-0.04971156
-5.261762	உல	-0.1292097
-3.929324	உலக	-0.2185019
-5.562792	உலகஅமைதியே	-0.2165021
-5.562792	உலகஇயந	-0.04971156
-5.562792	உலகஇருக	-0.04971156
-5.562792	உலகஎன	-0.04971156
-5.085671	உலகங	-0.4024366
-4.448849	உலகத	-0.9772109
-4.386701	உலகம	-1.225206
-5.562792	உலகமயமாக	-0.04971156
-5.562792	உலகமும	-0.04971156
-5.562792	உலகமே	-0.2186275
-4.416664	உலகின	-1.007174
-5.562792	உலகிற	-0.04971156
-5.085671	உலகில	-0.4024366
-5.562792	உலகிலேயே	-0.2185348
-5.562792	உலகுக	-0.04971156
-5.562792	உலகுடன	-0.04971156
-4.717694	உலகை	-0.2148268
-5.562792	உலகோடு	-0.2183339
-5.085671	உலங	-0.4024366
-5.562792	உலர	-0.04971156
-5.562792	உலரும	-0.04971156
-5.261762	உலவி	-0.2780579
-5.562792	உலாப	-0.04971156
-5.562792	உலுக	-0.04971156
-4.960732	உலோக	-0.236262
-5.562792	உலோகclatters	-0.217497
-5.562792	உலோகத	-0.04971156
-5.261762	உலோகவியல	-0.1292097
-5.562792	உலை	-0.2096673
-2.506269	உள	-2.887988
-5.085671	உளறுகிறாய	-0.4024366
-4.717694	உளறுகிறாள	-0.6029315
-4.960732	உளவியல	-0.4995645
-5.085671	உளவு	-0.2640765
-4.784641	உளவுத	-0.8097452
-5.562792	உழைக	-0.04971156
-4.960732	உழைப	-0.4995645
-4.960732	உஷ	-0.4995645
-5.085671	உஸ	-0.4024366
-4.863822	ஊக	-0.5863041
-5.562792	ஊகங	-0.04971156
-5.562792	ஊகம	-0.04971156
-4.960732	ஊசலாடி	-0.2552579
-5.562792	ஊசலாடுகிறது	-0.2096673
-4.784641	ஊசி	-0.2379643
-4.960732	ஊஞ	-0.4995645
-5.562792	ஊட	-0.04971156
-5.562792	ஊடக	-0.2181864
-5.261762	ஊடுருவல	-0.1292097
-5.562792	ஊடுருவி	-0.2184433
-5.562792	ஊடே	-0.2180626
-5.562792	ஊதா	-0.2179888
-5.562792	ஊதி	-0.2184147
-5.562792	ஊதிய	-0.2181293
-4.863822	ஊதியம	-0.5863041
-5.261762	ஊது	-0.1965349
-5.562792	ஊதுகுழல	-0.04971156
-5.562792	ஊதுன	-0.2186275
-4.960732	ஊமை	-0.188183
-5.085671	ஊர	-0.4024366
-5.562792	ஊரடங	-0.04971156
-5.085671	ஊருக	-0.4024366
-5.562792	ஊரை	-0.2181626
-5.261762	ஊழல	-0.1292097
-4.863822	ஊழியர	-0.5863041
-5.562792	எ13	-0.2186275
-4.960732	எஃகு	-0.2044911
-5.562792	எஃபிங	-0.04971156
-4.717694	எக	-0.6029315
-5.562792	எகிப	-0.04971156
-2.779604	எங	-2.614986
-4.22037	எச	-1.192811
-5.562792	எசேஸ	-0.04971156
-5.261762	எஞ	-0.1292097
-4.131429	எட	-1.278241
-5.562792	எடத	-0.04971156
-4.386701	எடு	-0.4203553
-3.533409	எடுக	-1.864506
-3.195436	எடுத	-2.200299
-5.261762	எடுதுக	-0.1292097
-4.261762	எடுப	-1.153302
-4.863822	எடை	-0.2184552
-5.562792	எடைய	-0.2186037
-5.562792	எடையை	-0.2177352
-3.756612	எண	-1.643996
-4.261762	எத	-1.350519
-5.562792	எதனுடன	-0.04971156
-5.085671	எதற	-0.4024366
-5.085671	எதாச	-0.4024366
-4.659702	எதாவது	-0.2168185
-5.562792	எதிபார	-0.04971156
-3.687731	எதிர	-1.711896
-5.085671	எதிரா	-0.1965562
-4.483611	எதிராக	-0.2491911
-5.562792	எதிரான	-0.2184171
-4.521399	எதிரி	-0.2176233
-4.960732	எதிரிகள	-0.4995645
-5.562792	எதிரிகளை	-0.218618
-5.261762	எதிரிதொடர	-0.1292097
-5.562792	எதிரியா	-0.2167743
-5.562792	எதிரியின	-0.04971156
-5.562792	எதிரொலி	-0.2186275
-5.562792	எதிரே	-0.1985598
-5.562792	எதிற	-0.04971156
-4.562792	எது	-0.2329807
-5.562792	எதுஎல	-0.04971156
-4.60855	எதுக	-0.8310828
-5.562792	எதுனாலும	-0.04971156
-5.562792	எதுபற	-0.04971156
-5.085671	எதும	-0.4024366
-5.562792	எதுமாதிரி	-0.2135817
-5.261762	எதுல	-0.2185241
-5.562792	எதுவ	-0.04971156
-5.562792	எதுவம	-0.04971156
-5.085671	எதுவாக	-0.5704436
-3.603751	எதுவும	-1.794871
-5.085671	எதுவுமில	-0.4024366
-5.261762	எதுவுமே	-0.2173039
-5.261762	எதெற	-0.1292097
-4.358672	எதை	-0.3204921
-5.085671	எதைப	-0.4024366
-5.562792	எதையாச	-0.04971156
-5.085671	எதையாவது	-0.2179031
-3.900034	எதையும	-1.503181
-5.562792	எதையுமோ	-0.2128477
-5.562792	எதையோ	-0.2186109
-4.863822	எதோ	-0.2100796
-3.277235	எந	-2.118885
-1.878665	என	-1.736805
-5.562792	எனஅதுவேண	-0.04971156
-2.698875	எனக	-2.695594
-5.562792	எனககு	-0.2183505
-4.115634	எனது	-0.2324315
-5.085671	எனப	-0.4024366
-5.562792	எனவும	-0.04971156
-3.364135	எனவே	-0.6594024
-5.562792	எனவேbriceஇருந	-0.04971156
-5.261762	எனவேஅனைத	-0.1292097
-5.562792	எனவேஇப	-0.04971156
-5.261762	எனவேஎங	-0.1292097
-5.562792	எனவேஎன	-0.04971156
-5.562792	எனவேசூடானமற	-0.04971156
-5.562792	எனவேதளர	-0.04971156
-5.562792	எனவேநீங	-0.04971156
-5.562792	எனவேவசதியாக	-0.1862961
-4.717694	எனினும	-0.6029315
-5.261762	எனில	-0.1292097
-5.562792	எனென	-0.04971156
-2.840158	எப	-2.554538
-4.240573	எம	-1.173506
-4.863822	எமது	-0.2807183
-5.562792	எமரால	-0.04971156
-4.960732	எமில	-0.4995645
-5.261762	எய	-0.1292097
-4.960732	எர	-0.4995645
-5.562792	எரி	-0.2185586
-4.784641	எரிக	-0.8097452
-5.562792	எரிகலன	-0.04971156
-5.562792	எரிகிறது	-0.1985598
-4.863822	எரிகோ	-0.2810072
-4.448849	எரிச	-0.9772109
-5.562792	எரிஞ	-0.04971156
-5.085671	எரித	-0.4024366
-5.261762	எரிந	-0.1292097
-4.960732	எரிபொருள	-0.4995645
-4.784641	எரிபொருள	-0.8097452
-5.261762	எரிபொருளை	-0.2185943
-5.562792	எரிய	-0.2185609
-5.562792	எரியுது	-0.2186251
-5.562792	எரியுதே	-0.2184302
-5.261762	எரிவாயு	-0.2179591
-5.261762	எருமை	-0.2956166
-5.562792	எருமைச	-0.04971156
-5.261762	எருமைசாணி	-0.1891699
-5.562792	எரே	-0.2096673
-5.261762	எற	-0.1292097
-5.261762	எறி	-0.2174958
-5.562792	எறிக	-0.04971156
-5.562792	எறித	-0.04971156
-5.261762	எறிந	-0.1292097
-5.562792	எறிய	-0.2167695
-5.562792	எறியப	-0.04971156
-5.085671	எறியுங	-0.4024366
-3.059002	எல	-2.336233
-5.085671	எலக	-0.4024366
-5.562792	எலன	-0.04971156
-4.717694	எலி	-0.2393249
-4.784641	எலிகள	-0.8097452
-4.386701	எலிசபெத	-1.035203
-4.960732	எலிஸெபத	-0.4995645
-4.784641	எலும	-0.8097452
-5.562792	எலுமிச	-0.04971156
-5.562792	எலெக	-0.04971156
-5.562792	எளிதல	-0.04971156
-5.261762	எளிதா	-0.21836
-4.071431	எளிதாக	-0.1799112
-5.562792	எளிதான	-0.2185158
-5.562792	எளிதானதல	-0.04971156
-5.562792	எளிதானது	-0.2181733
-4.960732	எளிது	-0.2333782
-5.562792	எளிமையானது	-0.1985598
-4.659702	எளிய	-0.2276514
-5.085671	எழு	-0.2478855
-5.261762	எழுச	-0.1292097
-4.240573	எழுத	-0.9526001
-5.261762	எழுதப	-0.1292097
-5.562792	எழுதவும	-0.04971156
-5.085671	எழுதி	-0.2677104
-5.261762	எழுதிக	-0.1292097
-5.562792	எழுதினார	-0.04971156
-5.562792	எழுதினேன	-0.04971156
-5.261762	எழுதிய	-0.1766342
-5.261762	எழுதியது	-0.1985162
-5.562792	எழுதியுள	-0.04971156
-5.562792	எழுது	-0.1985598
-5.085671	எழுதுதல	-0.4024366
-3.91934	எழுந	-1.484295
-4.483611	எழுப	-0.9450262
-3.562792	எவ	-1.835404
-5.562792	எவனாவது	-0.2185075
-5.562792	எவர	-0.04971156
-4.960732	எவரும	-0.4995645
-5.562792	எவரெஸ	-0.04971156
-5.562792	எவை	-0.2135817
-3.971728	எஸ	-1.433143
-3.806917	ஏ	-0.8091627
-5.261762	ஏ.எஸ	-0.1292097
-5.562792	ஏ.ஏய	-0.04971156
-5.562792	ஏஇதுஜேக	-0.04971156
-5.562792	ஏஉறுதி	-0.1985598
-5.261762	ஏஎல	-0.1292097
-5.562792	ஏஐஜிதிவாலானபோது	-0.2161137
-5.562792	ஏஐஜிபிணைஎடுப	-0.04971156
-5.261762	ஏக	-0.1292097
-5.562792	ஏகப	-0.04971156
-4.863822	ஏங	-0.5863041
-5.085671	ஏஜிம	-0.4024366
-5.261762	ஏஜெண	-0.1292097
-5.562792	ஏஜென	-0.04971156
-5.261762	ஏஞ	-0.1292097
-5.261762	ஏணி	-0.2184076
-5.562792	ஏணியில	-0.04971156
-5.261762	ஏத	-0.1292097
-4.863822	ஏதாச	-0.5863041
-3.300341	ஏதாவது	-0.3980362
-4.521399	ஏதாவதொன	-0.910264
-4.386701	ஏதும	-1.035203
-4.960732	ஏதேனும	-0.4995645
-4.201065	ஏதோ	-0.2877126
-4.863822	ஏதோ	-0.2477711
-3.097409	ஏன	-2.297951
-5.562792	ஏனில	-0.04971156
-4.284039	ஏனென	-1.132113
-3.743248	ஏனெனில	-1.657158
-4.960732	ஏப	-0.4995645
-5.261762	ஏபெல	-0.1292097
-5.085671	ஏமாத	-0.4024366
-4.115634	ஏமாற	-1.293481
-3.375272	ஏய	-2.021415
-4.284039	ஏர	-1.132113
-4.22037	ஏரி	-0.5440264
-5.562792	ஏரிக	-0.04971156
-5.562792	ஏரியல	-0.04971156
-4.448849	ஏரிஸ	-0.9772109
-3.398439	ஏற	-1.9984
-5.562792	ஏறத	-0.04971156
-4.960732	ஏறி	-0.2475039
-5.562792	ஏறு	-0.1985598
-5.562792	ஏறுங	-0.04971156
-5.562792	ஏறுன	-0.2186275
-5.261762	ஏறும	-0.1292097
-5.261762	ஏறுவதை	-0.180065
-5.085671	ஏலத	-0.4024366
-5.562792	ஏலம	-0.04971156
-4.717694	ஏலியன	-0.5846229
-5.562792	ஏழாயிரத	-0.04971156
-5.085671	ஏழாவது	-0.5713395
-4.332344	ஏழு	-0.2277557
-5.085671	ஏழை	-0.2178305
-5.562792	ஏவ	-0.2186216
-5.562792	ஏவலாள	-0.04971156
-5.562792	ஏவி	-0.2181899
-5.261762	ஏவுகணை	-0.2185729
-4.863822	ஏவுகணைகள	-0.5863041
-5.562792	ஏவும	-0.04971156
-4.386701	ஐ	-0.5762281
-5.562792	ஐ.ஆர	-0.04971156
-5.562792	ஐ.ஐ.எம	-0.04971156
-5.562792	ஐ.ஐ.டி.	-0.2172729
-5.562792	ஐஆர	-0.04971156
-5.562792	ஐஐடி	-0.2161137
-5.085671	ஐக	-0.4024366
-5.261762	ஐசிபிஎம	-0.1292097
-5.562792	ஐசோடோப	-0.04971156
-4.784641	ஐடி	-0.2081626
-5.562792	ஐடியல	-0.04971156
-5.562792	ஐடியாஸ	-0.04971156
-3.743248	ஐந	-1.657158
-5.261762	ஐன	-0.1292097
-5.085671	ஐபால	-0.4024366
-5.562792	ஐபாலுக	-0.04971156
-5.562792	ஐபி	-0.2186275
-5.085671	ஐம	-0.4024366
-3.659702	ஐயா	-0.9264029
-5.562792	ஐயாவின	-0.04971156
-5.562792	ஐயோ	-0.1985598
-5.562792	ஐரிஸ	-0.04971156
-5.562792	ஐரோப	-0.04971156
-5.562792	ஐலவ	-0.04971156
-4.147819	ஐஸ	-1.262447
-4.960732	ஒ	-0.1828098
-5.562792	ஒசத	-0.04971156
-4.386701	ஒட	-1.035203
-5.562792	ஒடனே	-0.2186085
-5.562792	ஒடிந	-0.04971156
-4.784641	ஒடிஸி	-0.2331926
-5.562792	ஒடிஸிசெய	-0.04971156
-4.284039	ஒண	-1.132113
-4.448849	ஒத	-0.9772109
-5.562792	ஒதிக	-0.04971156
-4.717694	ஒதுக	-0.6029315
-5.085671	ஒதுங	-0.4024366
-3.193577	ஒன	-2.202151
-3.665165	ஒப	-1.734173
-5.562792	ஒபாமாவின	-0.04971156
-5.261762	ஒய	-0.1292097
-5.261762	ஒயிட	-0.1292097
-2.239334	ஒரு	-0.3452663
-5.562792	ஒரு-4	-0.1985598
-5.562792	ஒரு-6	-0.1985598
-5.562792	ஒரு-முன	-0.04971156
-5.261762	ஒரு212டிகிரிதலைப	-0.1292097
-5.562792	ஒருfuckinஇராணுவத	-0.04971156
-5.261762	ஒருsovieteraநீர	-0.1292097
-5.562792	ஒருஇடத	-0.04971156
-5.562792	ஒருஇடைமறிப	-0.04971156
-5.562792	ஒருஇடைவெளி	-0.2183874
-5.261762	ஒருஇரகசிய	-0.2780579
-5.562792	ஒருஇளம	-0.04971156
-5.562792	ஒருஎதிர	-0.04971156
-5.562792	ஒருஎதிரி	-0.1862961
-5.562792	ஒருஎரிவாயுநிலையத	-0.04971156
-5.562792	ஒருஓவியம	-0.04971156
-5.562792	ஒருக	-0.04971156
-5.562792	ஒருகணம	-0.04971156
-5.562792	ஒருகனவுபோல	-0.04971156
-5.562792	ஒருகலாச	-0.04971156
-5.562792	ஒருகாரணத	-0.04971156
-5.562792	ஒருகாற	-0.04971156
-5.562792	ஒருகுறிப	-0.04971156
-5.562792	ஒருகுறைந	-0.04971156
-5.562792	ஒருகொள	-0.04971156
-5.562792	ஒருகோக	-0.04971156
-4.784641	ஒருங	-0.8097452
-5.562792	ஒருசிப	-0.04971156
-5.562792	ஒருசிறியchickieகையில	-0.04971156
-5.562792	ஒருசிறியஅளவில	-0.04971156
-5.562792	ஒருசிறியமென	-0.04971156
-5.562792	ஒருசிலமக	-0.04971156
-5.562792	ஒருசெய	-0.04971156
-5.562792	ஒருஜோ	-0.2096673
-5.562792	ஒருஜோடி	-0.2185324
-5.562792	ஒருடங	-0.04971156
-4.717694	ஒருத	-0.6029315
-5.562792	ஒருதடவை	-0.1985598
-5.562792	ஒருதுளிசென	-0.04971156
-5.261762	ஒருதூண	-0.1292097
-5.562792	ஒருதோல	-0.04971156
-5.562792	ஒருநட	-0.04971156
-5.261762	ஒருநண	-0.1292097
-4.960732	ஒருநல	-0.4995645
-5.261762	ஒருநாள	-0.1292097
-5.562792	ஒருநினைத	-0.04971156
-5.562792	ஒருநிமிசம	-0.04971156
-5.261762	ஒருநிலம	-0.1292097
-5.261762	ஒருநீண	-0.1292097
-5.562792	ஒருநோக	-0.04971156
-5.562792	ஒருபடம	-0.04971156
-5.562792	ஒருபதில	-0.04971156
-5.562792	ஒருபதிவுபோல	-0.04971156
-5.261762	ஒருபயனுள	-0.1292097
-5.562792	ஒருபயம	-0.04971156
-5.562792	ஒருபாதுகாப	-0.04971156
-5.562792	ஒருபிச	-0.04971156
-5.261762	ஒருபின	-0.1292097
-5.562792	ஒருபிரச	-0.04971156
-5.261762	ஒருபில	-0.1292097
-5.562792	ஒருபுதியஎரிபொருள	-0.04971156
-5.562792	ஒருபெரியஓநான	-0.04971156
-5.562792	ஒருபேனாகிடைத	-0.04971156
-5.261762	ஒருபேய	-0.1292097
-5.562792	ஒருபோங	-0.04971156
-4.483611	ஒருபோதும	-0.9450262
-5.261762	ஒருபோதை	-0.2657942
-5.562792	ஒருபைத	-0.04971156
-5.085671	ஒருபோதும	-0.4024366
-5.562792	ஒருமட	-0.04971156
-5.562792	ஒருமனைவி	-0.2178841
-5.562792	ஒருமருமகள	-0.04971156
-5.562792	ஒருமாதிரி	-0.2167743
-5.562792	ஒருமிகசிறியநகரம	-0.04971156
-5.261762	ஒருமுக	-0.1292097
-4.416664	ஒருமுறை	-0.2600445
-5.562792	ஒருமுறைஉங	-0.04971156
-5.562792	ஒருமுறையாவது	-0.2182244
-5.562792	ஒருமுழுபறந	-0.04971156
-5.562792	ஒருமேம	-0.04971156
-5.562792	ஒருமோசமானவழக	-0.04971156
-5.562792	ஒருமை	-0.1985598
-4.863822	ஒருமைப	-0.5863041
-5.562792	ஒருராப	-0.04971156
-5.261762	ஒருரேஸர	-0.1292097
-5.562792	ஒருவகை	-0.2186204
-5.562792	ஒருவகைவரையறுத	-0.04971156
-5.562792	ஒருவணிகபெரியவெற	-0.04971156
-5.562792	ஒருவன	-0.04971156
-5.562792	ஒருவனுடன	-0.04971156
-5.562792	ஒருவனே	-0.1985598
-5.562792	ஒருவனைக	-0.04971156
-4.386701	ஒருவர	-1.035203
-5.562792	ஒருவராவது	-0.218599
-4.784641	ஒருவரிடன	-0.8097452
-5.562792	ஒருவரின	-0.04971156
-4.386701	ஒருவருக	-1.035203
-4.60855	ஒருவரை	-0.2125537
-5.562792	ஒருவரையொருவர	-0.04971156
-5.562792	ஒருவழிகாட	-0.04971156
-5.562792	ஒருவாடிக	-0.04971156
-4.960732	ஒருவித	-0.2025531
-5.562792	ஒருவிரைவானசுற	-0.04971156
-5.562792	ஒருவீட	-0.04971156
-5.562792	ஒருவேலைநிறுத	-0.04971156
-3.665165	ஒருவேளை	-0.5110942
-5.562792	ஒருவேளைஇதுஇருந	-0.04971156
-5.562792	ஒருவேளைஎப	-0.04971156
-5.562792	ஒருவேளைநான	-0.04971156
-5.261762	ஒருவேளைநாம	-0.1292097
-5.562792	ஒருவேளைநினைக	-0.04971156
-5.562792	ஒருவொருக	-0.04971156
-5.562792	ஒருஸ	-0.04971156
-3.814604	ஒரே	-0.5212121
-5.562792	ஒரேஇரவில	-0.04971156
-4.784641	ஒற	-0.8097452
-4.240573	ஒலி	-0.2848677
-5.562792	ஒலி-அ	-0.2153564
-4.30752	ஒலிக	-1.109836
-4.960732	ஒலிகள	-0.4995645
-5.562792	ஒலிகளை	-0.2183053
-4.863822	ஒலித	-0.5863041
-5.085671	ஒலிம	-0.4024366
-5.562792	ஒலிவாங	-0.04971156
-4.60855	ஒளி	-0.2214785
-5.562792	ஒளிஒரு	-0.2181078
-5.562792	ஒளிஞ	-0.04971156
-5.085671	ஒளிந	-0.4024366
-5.562792	ஒளிபரப	-0.04971156
-5.562792	ஒளிமற	-0.04971156
-5.562792	ஒளிய	-0.2185883
-5.562792	ஒளியான	-0.2186263
-5.562792	ஒளியானதினமும	-0.04971156
-5.562792	ஒளியின	-0.04971156
-5.562792	ஒளியில	-0.04971156
-5.562792	ஒளியும	-0.04971156
-5.562792	ஒழிந	-0.04971156
-4.960732	ஒழுக	-0.4995645
-5.562792	ஒழுகு	-0.2183672
-4.562792	ஒழுங	-0.8724755
-3.589664	ஒவ	-1.808806
-5.261762	ஒஸ	-0.1292097
-4.784641	ஒஹ	-0.8097452
-3.063105	ஓ	-1.330807
-4.784641	ஓக	-0.8097452
-5.562792	ஓசையை	-0.217497
-3.950008	ஓட	-1.173453
-5.562792	ஓடவிட	-0.04971156
-5.562792	ஓடவில	-0.04971156
-5.562792	ஓடாத	-0.2184135
-4.784641	ஓடி	-0.1973146
-5.562792	ஓடினார	-0.04971156
-4.960732	ஓடிப	-0.4995645
-5.562792	ஓடியதாக	-0.2186275
-4.717694	ஓடு	-0.3635732
-5.562792	ஓடுகிறீர	-0.04971156
-5.562792	ஓடுதளத	-0.04971156
-5.261762	ஓடுனேன	-0.1292097
-5.562792	ஓடும	-0.04971156
-5.562792	ஓடுவதற	-0.04971156
-5.562792	ஓதுகுறேன	-0.04971156
-5.562792	ஓப	-0.04971156
-5.261762	ஓபரா	-0.2780579
-5.562792	ஓபி	-0.2182244
-3.900034	ஓய	-1.503181
-5.562792	ஓயாமல	-0.04971156
-5.261762	ஓர	-0.1292097
-5.562792	ஓரங	-0.04971156
-5.562792	ஓரத	-0.04971156
-5.261762	ஓரளவு	-0.2183148
-5.562792	ஓரின	-0.2185491
-5.261762	ஓரியண	-0.1292097
-5.261762	ஓல	-0.1292097
-5.562792	ஓவ	-0.04971156
-5.085671	ஓவர	-0.4024366
-5.261762	ஓவல	-0.1292097
-5.562792	ஓவியங	-0.04971156
-5.562792	ஓவியத	-0.04971156
-4.332344	ஓவியம	-1.086355
-5.085671	ஓஹியோ	-0.1969087
-2.014526	க	-0.5427635
-5.562792	க-த	-0.04971156
-5.085671	கஃபே	-0.2690679
-5.562792	கஃபேகோராதெரியுமா	-0.2135817
-5.562792	கஅது	-0.2161137
-5.562792	கஆனது	-0.1985598
-5.562792	கஆம	-0.04971156
-5.562792	கஉள	-0.04971156
-5.562792	கஎன	-0.04971156
-5.562792	கஒருமனிதன	-0.04971156
-4.284039	கக	-1.132113
-5.261762	ககண	-0.1292097
-5.562792	ககத	-0.04971156
-5.562792	ககனவு	-0.1862961
-4.960732	ககிட	-0.4995645
-5.562792	ககிடைத	-0.04971156
-5.562792	ககிடையாது	-0.1862961
-5.562792	ககிறேன	-0.04971156
-5.562792	ககூடாது	-0.1985598
-4.448849	கங	-0.9772109
-4.960732	கச	-0.4995645
-5.261762	கசப	-0.1292097
-5.562792	கசாப	-0.04971156
-5.261762	கசிந	-0.1292097
-5.562792	கசிய	-0.2184147
-4.960732	கசிவு	-0.2361997
-5.562792	கசூப	-0.04971156
-5.562792	கசெய	-0.04971156
-5.562792	கசேட	-0.04971156
-5.562792	கஜாக	-0.04971156
-5.562792	கஞ	-0.04971156
-3.159672	கட	-2.452816
-4.863822	கடக	-0.5863041
-4.960732	கடகடப	-0.4995645
-4.483611	கடத	-0.9450262
-3.830399	கடந	-1.571445
-4.358672	கடன	-1.061532
-4.960732	கடனாளி	-0.2364438
-5.562792	கடனாளிகளுக	-0.04971156
-5.562792	கடப	-0.04971156
-5.562792	கடபடுதாத	-0.04971156
-5.562792	கடம	-0.04971156
-5.562792	கடமாக	-0.2167743
-5.562792	கடமான	-0.2167743
-5.085671	கடமை	-0.2095884
-5.562792	கடமைக	-0.04971156
-5.562792	கடமைகளை	-0.2170642
-4.562792	கடமைப	-0.8724755
-5.562792	கடமைய	-0.2186263
-5.562792	கடமையில	-0.04971156
-5.261762	கடமையைகைவிட	-0.1292097
-4.483611	கடற	-0.9450262
-4.332344	கடல	-1.086355
-5.562792	கடலின	-0.04971156
-4.960732	கடலில	-0.4995645
-5.562792	கடலுக	-0.04971156
-5.562792	கடலோர	-0.2186192
-5.562792	கடவுலாகிய	-0.2180745
-3.814604	கடவுள	-1.586958
-4.784641	கடவுளின	-0.8097452
-4.960732	கடவுளுக	-0.4995645
-3.890694	கடவுளே	-1.430709
-5.261762	கடவுளை	-0.218316
-5.562792	கடாசிடுங	-0.04971156
-4.863822	கடி	-0.2180388
-5.085671	கடிக	-0.4024366
-5.261762	கடிகார	-0.2181578
-5.261762	கடிகாரங	-0.1292097
-5.562792	கடிகாரத	-0.04971156
-4.784641	கடிகாரம	-0.8097452
-5.562792	கடிச	-0.04971156
-4.960732	கடித	-0.1292061
-4.863822	கடிதங	-0.5863041
-4.717694	கடிதம	-0.6029315
-5.562792	கடிந	-0.04971156
-4.659702	கடின	-0.3199211
-5.562792	கடினகோர	-0.04971156
-4.960732	கடினம	-0.4995645
-5.562792	கடினமா	-0.2167743
-4.182581	கடினமாக	-0.2896644
-5.261762	கடினமாக-இல	-0.1292097
-5.562792	கடினமாகஇருக	-0.04971156
-4.448849	கடினமான	-0.2181281
-4.863822	கடினமானது	-0.3738124
-5.562792	கடியில	-0.04971156
-5.562792	கடுங	-0.04971156
-5.085671	கடுப	-0.4024366
-5.261762	கடும	-0.1292097
-4.960732	கடுமையாக	-0.2553437
-4.60855	கடுமையான	-0.2347555
-4.717694	கடை	-0.2081927
-4.717694	கடைக	-0.6029315
-4.147819	கடைசி	-0.223842
-5.562792	கடைசிநாள	-0.04971156
-4.960732	கடைசியா	-0.2116597
-4.863822	கடைசியாக	-0.1762413
-5.562792	கடைசியில	-0.2186168
-5.562792	கடைசியும	-0.04971156
-5.261762	கடைசில	-0.2149287
-5.562792	கடைசிவந	-0.04971156
-5.562792	கடைசிவரை	-0.2165021
-5.562792	கடைய	-0.2181626
-5.562792	கடையாக	-0.1985598
-4.863822	கடையில	-0.364096
-5.562792	கடையிலயா	-0.2135817
-5.562792	கடைல	-0.2173051
-2.992249	கண	-2.402792
-4.018724	கணக	-1.387385
-5.562792	கணகண	-0.2186204
-5.261762	கணத	-0.1292097
-4.483611	கணம	-0.9450262
-5.562792	கணவன	-0.04971156
-5.562792	கணவனும	-0.04971156
-4.332344	கணவர	-1.086355
-5.562792	கணவரின	-0.04971156
-5.562792	கணவருக	-0.04971156
-4.960732	கணிக	-0.4995645
-5.562792	கணிசமாக	-0.2185134
-5.261762	கணித	-0.1292097
-5.261762	கணிதம	-0.1292097
-4.659702	கணினி	-0.1962635
-5.562792	கணினிக	-0.04971156
-5.562792	கணினியில	-0.04971156
-5.261762	கணிப	-0.1292097
-5.562792	கணுக	-0.04971156
-3.939543	கணும	-1.464551
-3.448849	கத	-1.948354
-5.562792	கதகதப	-0.04971156
-5.562792	கதரிசி	-0.2161137
-5.261762	கதவ	-0.2185681
-5.562792	கதவிர	-0.2096673
-4.261762	கதவு	-0.3806129
-5.085671	கதவுக	-0.4024366
-4.784641	கதவுகள	-0.8097452
-5.562792	கதவுகளின	-0.04971156
-5.261762	கதவுகளுக	-0.1292097
-5.562792	கதவுகளும	-0.04971156
-4.960732	கதவுகளை	-0.2564543
-5.261762	கதவுதிறக	-0.1292097
-5.562792	கதவும	-0.04971156
-3.90958	கதவை	-0.4445033
-5.562792	கதவைமூடிவிட	-0.04971156
-5.562792	கதவையும	-0.04971156
-5.562792	கதவைஸ	-0.04971156
-5.562792	கதாநாயகன	-0.04971156
-4.60855	கதான	-0.8310828
